{"convolutional_layer0":{"weights":{"numSamples":6,"k":1,"nr":5,"nc":5,"host":[0.11986421529989443,-0.14596240447087922,0.01895997295729152,0.0214945450300608,0.15497850034153186,0.0917352890144682,0.03801494309354099,-0.014039716957272906,-0.1449472857210712,-0.16053476660589095,0.3305113565612775,0.5417604046646107,0.20524303761110597,-0.11556532982253205,-0.09641860106225928,0.4457065255701659,0.7674175307268023,0.405937998947066,-0.028161096476549385,-0.16934421482525856,0.17164693522350983,0.34904227010529689,0.23994267011676877,0.06740487614341671,-0.1265805539758633,0.047468536620729317,-0.18450235446675254,-0.36872801255866158,-0.4225405471499776,-0.1849593127829707,0.13267887083848696,0.06474118570597823,0.05955465054190375,0.16165412668486696,0.3169939881717927,0.24646706239312489,0.5670852346170563,0.7936991795783561,0.7850746862606314,0.5603134851287878,0.05384921853008478,0.1192593857022675,0.02671492567778574,0.007014593840232648,-0.10250313771578086,-0.3040913535923209,-0.47937009030838736,-0.5320930765176717,-0.5212414527135172,-0.4301523428084295,0.020329802545884059,0.19155219725392803,0.30258771983425256,0.10313647037484311,-0.04286156247071972,0.4499312837795329,0.6029541732467809,0.29196559158840737,-0.04340821868681699,-0.18987892076469838,0.846315775300103,0.5713735871718884,-0.13375781325554665,-0.23472586857854545,-0.2194658831058619,0.5206464863997339,0.09558354561733472,-0.30688804422851997,-0.25382196524065639,-0.17139101510292044,0.15756740953799718,-0.16408718839302914,-0.37263981599130416,-0.24627719678928865,-0.1870195017494518,-0.039214309542357838,-0.1276907940616792,0.07906450748425352,0.5221101246105514,0.29519853613967009,-0.04688271801173133,0.04222515061073846,0.22215922927551863,0.6004471249150282,0.47545542650846048,-0.22930773655336149,-0.1777142168432787,-0.02425810146668203,0.36623156704051498,0.5659521696052408,-0.28490533640524925,-0.3308355827088687,-0.33278940420969108,0.040627351697947209,0.26956450009392649,-0.1951998632854294,-0.2787294984887409,-0.5545945842100843,-0.5162562476007017,-0.2595166586776334,0.054586157677420237,-0.20870977135225303,-0.2523949871452254,-0.1511993748307088,0.018739369786804809,0.2447799584867973,-0.21409552067134186,-0.4286571079426806,-0.34637855825289695,-0.21733569237952317,0.39850827290298909,-0.09778319758363685,-0.502750220008161,-0.4244108729531438,-0.28755867423590489,0.7403362425009593,0.5590511936734743,0.18011777958504783,-0.10587538588672457,-0.227655247136179,0.6644882241097637,0.751607777558858,0.7101825053556303,0.4468049471243816,0.01682769101480522,-0.009174686916475359,-0.10412936412952802,-0.04690776176837685,-0.06834811124138844,-0.06751124898818231,-0.1558052954467654,-0.1954593687235345,-0.2716491439809785,-0.36015276651251157,-0.4029644128768786,-0.2755481163358351,-0.28521737121179316,-0.3650819187395439,-0.4914392530332238,-0.3278258346748063,-0.21891297926758655,-0.15767654375847038,-0.23200792262234877,0.027666689697398284,0.5545337875933144,-0.25986537697341086,-0.1352265820997296,0.262953615084883,0.7580281054331849,0.9825771761148068]},"biases":{"numSamples":1,"k":1,"nr":1,"nc":6,"host":[-0.013920511777382324,-0.037303361955417179,0.005131996232952188,0.06330252097502878,-0.0050082016173185789,0.18529264122465373]}},"convolutional_layer3":{"weights":{"numSamples":16,"k":6,"nr":3,"nc":3,"host":[0.0083214814137328,0.13561328370985765,0.15782843786872659,-0.08670848324214675,0.010137064811839162,0.11466228097275054,-0.08325380203326162,-0.11756730209167127,-0.15162952659775634,0.10191375281701988,0.1580534821104062,0.07786464890099612,0.13466208602099356,0.32596612729131949,0.3087000505472984,0.07765501246517823,-0.049665910533028188,-0.0292101950929978,-0.004815190807697759,-0.04142190379356664,-0.12600464211648966,-0.053743065523120577,-0.030542243363364094,0.01887021767740468,-0.10705543469881866,-0.12407567912319861,-0.2242294160975076,0.0821148516932203,-0.07500479333194155,-0.049808105233544768,0.2514652340240247,0.3952112664688739,0.2958487675051273,-0.027589219678251846,-0.157066875534424,-0.010398958884708862,-0.14958547397432377,0.07481522925488182,0.19563590978528276,-0.050763701264245519,-0.047603381289251487,-0.045130917778357999,-0.09164384629128261,-0.015882269074704977,-0.07750306843461721,0.101713452645504,0.04405652527198656,0.011224305443855077,-0.13379740671347424,-0.1552069853480143,-0.11116809664982053,0.1369971243914156,0.34045993232197538,0.06361793228370068,-0.0819938708295789,-0.08484643418535096,-0.028540987477874249,-0.25143185456339275,-0.19197509455757817,-0.1338622159536421,0.38655542974626108,0.11111497526888692,-0.29066024408854548,-0.09372900832854768,-0.2031309449580646,-0.027451845723425608,-0.036203889074183228,0.07819474596628365,0.37303594300915329,-0.10600165524303336,-0.1119639349603449,-0.0878062055000343,0.27320363812265349,0.08848207580085063,-0.04388035537967075,-0.19944257052649848,-0.21086801342845933,-0.04968676756223356,-0.18400199358511205,-0.1266464280170797,-0.1488150563148274,0.18044856852993913,0.00831881307446526,-0.17045663153556138,0.06692694774250252,0.2993153500484077,0.41479048694300349,-0.01588061975895879,0.13003957422927293,0.12625700896292905,-0.2887492270998568,-0.1082746966758865,-0.1214247881254458,-0.07325071433196384,-0.231453090973274,-0.15597654323579494,0.6729582991687709,0.4480135774749483,-0.07295860493468189,-0.07865139508955316,0.13574860397268369,0.21516476998346147,-0.20032067717105496,-0.228037710206813,-0.17463901321672863,0.18455193368492987,-0.17829219366411659,-0.016607334232569685,-0.22857196375506939,-0.1507700591445623,0.08699850951047757,0.09614258896950234,-0.20243198436367217,0.1691554279107907,0.2124291279970527,-0.3119540458514845,0.20657014564715404,-0.18078239514542863,-0.11244885289819505,-0.03190524017638067,-0.1452070874045628,-0.15115295589456008,-0.16642759827948484,-0.10447995034257216,-0.17422926992466013,-0.1909310281032136,-0.06550253550872744,-0.20151572132630286,-0.055524404043337267,0.07509026447178299,-0.1004012117998726,0.05349028743882558,0.3159671818630116,-0.16716321099195464,-0.011504937173832535,0.0197657238283628,-0.0047402573875455649,0.012688387883703063,-0.00941642892353679,0.022090393378011918,-0.06653490970148358,-0.07534643698907961,0.10588024686202262,-0.0140958631476822,0.00725733921367276,-0.21748906556927517,0.08127508706178866,0.26462280636401305,-0.2988214687924384,0.04970872230725932,0.4236572949089159,-0.28563974419018375,0.024089882062358436,-0.0904562096245278,0.30689027756907596,0.2080188807932387,-0.19130995090250389,0.22841066482325046,0.09528952540700607,-0.12876500328890173,0.11673221617491916,-0.018865566637528504,-0.00020555618702162076,-0.00011251851896751974,-0.0001854214674805443,-0.00015753941306168387,-0.00008889048345295302,-0.00014276840756963547,-0.00020957102740428005,-0.00011907458863902669,-0.00015956400057533365,-0.00015455128056147567,-0.00013552381320177976,-0.00018772872175725917,-0.00011620935152551995,-0.00014446578957674462,-0.00018650798474627656,-0.00006648627387228044,-0.000032596267585858189,-0.00014597793561314416,-0.0004891521693459318,-0.00020913802087606123,-0.00018968399171793925,-0.0003171834044420995,-0.00020719732877936422,-0.00015243924899080335,-0.00027413516542383094,-0.00019280081183668398,-0.00015607941078697973,-0.000179070882226186,-0.00023690687926210003,-0.0004654612562039534,-0.0001217645655491757,-0.00020748461873221598,-0.00042285898790756665,-0.00005877211313379637,-0.000155482227434205,-0.0003631062724254105,-0.00017272402282702526,-0.00012248042761660164,-0.00016059629305986963,-0.00019887648202887172,-0.00009991900912733265,-0.00013797939495735695,-0.00023645112893425088,-0.00014916090742630693,-0.00020272192453385025,-0.00009150563544261586,-0.00013880883053359885,-0.00015523464297651385,-0.00012829756536649557,-0.00012138046088203424,-0.00029960288450195084,-0.0001506463316861093,-0.00022284990499500676,-0.0004282116393708963,0.08828975433306356,0.13632684745365968,-0.03827082535207293,-0.16817932256353805,-0.13547660607079765,-0.21734274280966194,-0.08149481560565084,-0.07203700733163335,-0.07524168878544432,0.5259480231018153,0.46979112497921329,0.2139847349057922,-0.06252238183739535,-0.03765593699845211,-0.08337961235934238,-0.12540511231743563,0.008959509255762272,0.27352295275866447,0.055019422766142179,0.19782767901435387,0.24171941939548428,-0.10586263038059357,0.02936092329070284,-0.028794000732932178,-0.16402067659520618,-0.17837680999745579,-0.24311483632068818,0.14544278967656533,0.10262365684492934,0.1062751200619743,0.16691416139062185,-0.09471490904428823,-0.10510608732528198,-0.1095048683750539,-0.058794896847969218,0.09059777659129609,-0.045334286684744,0.013440992901439788,-0.13120121229957019,-0.021364335233590015,-0.1348634419336036,-0.07100926111562536,-0.03069025601735876,-0.06418747631026511,-0.0862032046197281,-0.013496099606469864,-0.0411569423477134,-0.14842232950854523,-0.025722642816848056,0.24061343687711915,0.28196732546888517,0.011129644386741614,0.05081366071772199,-0.05670725638079508,-0.07077343077357258,-0.05380892408264744,-0.05281712743222349,-0.09192435655495655,-0.15080142440101305,-0.17963247720174367,-0.06949306834796533,-0.02297733108217515,0.1893005925212935,-0.20903762868758364,-0.10410755955043767,-0.06033419773870609,0.005582676475566233,0.028868638327921703,-0.053997193126925569,-0.06208201074846135,-0.08265646445877371,0.10242534268480845,-0.07619410190685312,-0.11932353196120846,0.021935141183783776,-0.07964157428821711,-0.0758288671557879,-0.014872275303112956,-0.018168449684379453,-0.09930593353978969,-0.23005489513733044,0.08417726456113189,-0.023560902832041,0.1803364322065198,0.15857302549846465,0.02333291475444113,0.010096151206183169,-0.13360563741804866,-0.13654767838589253,-0.11555061636145339,0.0326054159691961,-0.07497706959996507,-0.20696677085113003,-0.04761901196903324,-0.18277911832155142,-0.05153296397497505,0.002691518874614535,0.20470178939104148,0.5379444113082433,-0.0808691068359905,-0.11654384168095095,-0.32919172102468099,-0.07455789881654644,0.027500063153404636,0.1269373475218157,0.5524613989207829,0.6279463733872585,0.33232788848833746,-0.08286843890093632,0.03705970796759979,0.09873982940581915,-0.09756456540062872,0.012230937633261729,0.11155116640826178,-0.06063406682432532,-0.018750675422564025,0.11758054882034765,0.028355324591631867,-0.051184917598825128,-0.023995756796351486,-0.05208934803994172,-0.09230531922665836,-0.10015146982075238,-0.06202029249694837,-0.04953365406724971,-0.0870209645345933,0.023460975708120756,-0.056765002670628259,0.1419825896889233,0.007007111530181436,-0.10906388526678504,0.2265319806315672,-0.0987498909457368,-0.026902590868441359,0.2321265589681767,0.15433498226765186,-0.008867253538248186,-0.04360980084731858,0.1593946198073356,0.11878626927079644,-0.03886593456030146,0.16373576063337834,0.19781523852430489,-0.09083461118303328,-0.06446680391006592,-0.18350922378583346,0.005659275483541524,-0.084788334405074,-0.12753459288459094,0.07743419867197464,-0.047032461389327009,-0.06099854691957718,0.08910475488468214,-0.10288499200725526,-0.10225022177481358,-0.030757502925873965,-0.09803251009830438,-0.07219079588019484,-0.03042030553621301,-0.08012763798325083,-0.04117751696389746,-0.04385184441226906,0.15613652406063187,-0.05809015302775805,0.04951142278704126,0.10085318368639887,0.024093044907843879,0.029689299417402526,-0.21601350987826169,-0.16285888476922298,-0.08788851783969783,-0.017761595103329986,0.061121254490996649,-0.06374916303765113,0.6250526655826036,0.3109041815537317,0.09749589518684271,-0.017248367613520136,-0.11765700753918168,-0.07311630143457597,-0.10147898954633751,-0.12307253461065836,-0.06240901202363272,0.10611039029073215,0.1849895387426653,0.13470962460876108,-0.11927237046680869,-0.03145444641217409,0.033113412285016529,-0.07214102330853478,-0.06402107054026407,-0.10748967573315586,-0.027748045773545915,-0.024886067341416134,0.01293520107522831,0.04642775100935397,0.022790615174416087,0.1311464572165276,0.5125738289671509,0.1339269512204759,-0.035722266037671038,-0.15683449894494359,-0.20141991837775886,-0.21224119572725543,-0.0328535416536396,-0.12778747108003289,-0.15460605113641916,-0.11374248540632354,0.01266452380527056,0.12138812096078268,-0.045860186340107748,-0.08953906052815089,-0.006478658270326816,-0.08584802488691362,-0.1968041766364367,-0.15872444096350733,-0.08890885798737905,0.1943697374831612,0.24887805255090185,-0.11288316755215647,-0.10881986718757032,0.3341605285506712,-0.15820584207585154,-0.12080581696192909,0.1243618382496171,0.005011565402033278,-0.05996763128921559,-0.10998817011201818,-0.11351781810195942,-0.16162397927492057,-0.15598452135445804,-0.09797981016630526,-0.14053043900100704,-0.05391430758902856,0.03711492647588881,-0.0007789688690842539,0.2299282130683557,-0.01787627432598303,-0.14953941005235128,-0.03319124693611451,-0.004350491585246948,-0.13794395412288053,-0.1647987067512648,0.044056376148561709,-0.17653486469639338,-0.08275151339612486,0.19397683115728768,0.20222841192941513,-0.13741487447248386,-0.015201946024252776,0.2369448301872744,0.006348594735586894,-0.2247734410291176,0.06248298242162054,0.46359762802668239,-0.11852547430262486,-0.2145748267356827,0.6628783862111168,-0.024560030350203996,-0.05706624135458534,-0.12922736653879894,-0.03884804364425368,0.06516707887992489,-0.0749547481205221,-0.25221118625005609,-0.11700893878956627,-0.0752771039447097,0.11970373370724598,0.0009664340082944222,-0.09802006016450909,-0.03621294616795254,-0.014861085519761994,0.05242597780774487,0.0021019511647343126,0.061342705571853919,-0.19039415333259686,-0.006857787342220975,0.030368879065731125,0.11783916047856234,0.06466505819484758,0.15141441841117377,0.20393328833175615,-0.08327192172492896,-0.08564471177307888,-0.02511324901100274,-0.07238072229752511,0.24553938475690144,0.6264230031375113,0.04005722576512768,0.11263984421712549,0.23757307238372478,-0.07302380611153865,0.16471848957861669,-0.026328388120362004,-0.04428055890808779,-0.15069281125489968,-0.22994508942027035,-0.18882814647092886,-0.08975378558275948,-0.05143793187421486,-0.03879556097010267,0.015389910989699298,-0.07599671422938748,0.313061496643031,0.09993440343119205,-0.04985090700558012,-0.08578044535549087,-0.30929048994999527,-0.2796465514488071,-0.1050470352129051,0.1496603829652096,0.11450259552725237,0.007127996601658434,0.3227641457651762,0.29578653431037396,0.3277276117668025,0.19552699828142679,-0.18674444773175473,-0.14184741531032508,-0.3033965322067805,-0.14013878254857543,-0.17604922478502744,-0.17026067440838078,-0.06715861407112789,-0.09147411405824096,0.030804257105854914,-0.07066353653514565,-0.10152473720238953,-0.12860726225525088,-0.116938926591697,0.13197419389873206,0.059653059250522177,-0.04417477678241197,0.2715913281827928,0.29635388773050788,-0.061638929838836769,-0.05769918341625953,-0.05537880176881518,-0.09997775794782071,0.07570454751699248,0.08776719327113582,0.09282389275590353,-0.03824657716981572,0.08865900967939398,0.279930174777273,-0.21044366811393917,-0.10098025103875519,-0.0012679970286300622,-0.036181978113462309,-0.09465111382267895,-0.07959110193404739,0.32379154166482995,0.2677668858128416,-0.00787413488250836,0.10969699238664178,-0.10795389115079775,-0.18131657564531088,-0.06109880541885208,-0.03716122640460337,0.10326522168556283,-0.0508524618698257,-0.030591361017504715,-0.2043228307897237,0.11694829523884658,-0.03667163365914254,-0.06864792949781086,0.17866014909330936,0.04606311955901017,-0.009316635423641442,-0.032293720441722618,-0.030654726261948426,-0.01084268517305684,0.04992871389442489,0.09033225276484797,0.11757485735544077,-0.0008819005713859659,-0.07813176913333958,-0.01563467912400146,0.14741153126566465,0.19061428567168788,-0.09050810450097749,-0.13845757062416234,-0.14873884704840394,-0.15245775990407446,-0.15228789076912095,-0.13602707541110135,-0.10994164567285426,0.3340557478311642,-0.01163132997490788,-0.14129462055896339,0.10675370660298342,-0.07368086607389816,-0.08854038160112242,-0.06450457716559346,-0.04952961245737003,-0.06175313054558514,0.15510767027450798,0.507125626336264,0.32028314407419075,0.22017476674735798,0.20034457517216398,-0.056762248497387219,-0.3055553451376227,-0.21032509620529345,-0.19155635620521775,0.35489572106780156,-0.00022763492362750594,-0.12763162444957508,0.1077210944566775,-0.13980639426520845,-0.10973721815351334,-0.16029545719196826,-0.12862248551779405,-0.11719818186631993,0.0758002742334109,-0.016623510555777326,-0.05740769489920952,-0.17739935277186456,-0.20704612471146018,-0.15936847579262979,-0.09934742520814376,-0.07825410994221113,-0.053318835311713708,-0.032530576110125258,-0.01796404470936113,-0.03599293349542429,-0.05973047838565807,-0.008261662273084069,0.051625262325336259,0.054418562594862437,0.17979064219438477,0.09137632502462694,0.0918532144613527,0.05227566015608001,-0.1311853726191232,0.0657977683000061,0.05154287177863342,-0.08736160685633768,0.029225451180629845,0.053916212733373627,-0.08063350932944795,0.08636135225260797,-0.07688436535670559,-0.1669175468287157,0.011408468150404333,-0.07650186734238127,-0.17719968073912729,-0.07437165903529998,-0.09567435530521726,0.015293236311965138,0.0859347676833986,0.1797800446299906,-0.11983345364854693,0.11453342617646563,0.1803700454129151,-0.12519750753825818,0.10748336308066116,0.10142000852600178,-0.06734415376585872,-0.0870924229888597,-0.008081963545019734,0.13367619565848899,-0.13309817916801212,0.034846309773424458,0.5008004949620779,-0.026253279152766,0.096557892372905,0.6966605840981728,-0.04290830789303329,-0.015188117720758329,-0.22848361875759239,-0.0734451812441671,0.033786175805813969,-0.08297279975334499,-0.07205855980447434,0.07506860166070614,-0.06698823050027328,0.023633299844311896,-0.054761324264939969,-0.20000145598416664,-0.009749587107927397,-0.1409930056183582,-0.17022737846635273,0.040389901074564669,-0.1409777001660482,-0.12175759331674779,-0.18295070761575864,-0.14423213924602439,0.14449131459771215,-0.14445955663886243,0.11787376599094642,0.21473770607838314,-0.03398417431655398,0.21840127014999739,0.0771251897949722,-0.16006916145606887,-0.08838058237589244,-0.0032289225652546327,-0.17305809654282165,0.017195046904636588,-0.1811264813502785,-0.26950328734236836,-0.22590604320696634,-0.22038182216830208,-0.10596899690723882,-0.08914243127135552,0.07565242557768091,-0.13261034664058239,0.005570618366502321,0.4479790704486027,-0.0657649759645966,0.18283411855146407,0.5165094574549785,-0.1256547004440369,0.0436869646984817,-0.03664469120723404,-0.24212064680160243,-0.07100474851167352,-0.10585650122425351,-0.11866978722694864,-0.1517409255825745,-0.14342779970885895,-0.23291385336867233,-0.15841780424199324,-0.12629276385457023,-0.22951971526303675,-0.1492057322252378,-0.032194803568735348,-0.1961714052437156,0.0335932508417532,0.08988424792935193,0.2990988991991485,0.2637333152272643,-0.3002689406412279,0.35784129757474406,-0.04542104622323287,-0.09926177999935092,0.17662606271671348,-0.07655520703490287,-0.12189633306543303,-0.12577505406202156,-0.13066437839339405,-0.1410193624026235,0.12525753328908033,0.14505952220006228,0.07368778326250523,-0.0043094212430298899,0.010903878281577396,0.18554457292711039,0.04143922395457466,0.05104987684812785,-0.04006904580275555,0.15196777198640827,-0.06175087816217728,-0.08794735448123722,0.4873807316787056,0.17671768774028244,-0.0961430966540856,-0.13339799179396256,-0.09670852429761944,-0.08213392973500605,-0.0951280957002252,-0.14437531502305862,-0.19145445425057859,0.06489660571576803,-0.17732540084361129,-0.10395590618253913,0.01961967861960799,0.05654021236654853,0.08172321826006233,-0.10679733481084847,-0.0490747264948418,0.02756414361190506,0.15127613564953305,0.028633040923803107,-0.08151330886129348,0.022537829105704084,-0.0007649945859924658,-0.09045312689517836,0.370207357634359,0.42689039340338316,0.07216867466138423,-0.20126572658785039,-0.07572031477616548,0.1939399366320929,0.057649235473457977,-0.048523687069667299,-0.026016796180492898,0.21392817925208935,0.011518673888341005,-0.09944841894085209,-0.19334026699972696,-0.020441357911619469,0.0369911471379416,0.18154985802881733,-0.06896845135841906,-0.05604054291004959,-0.02051527610419552,-0.11423369706076021,-0.03141743088779242,-0.19265517979785999,-0.02843001595975628,0.09174472938659295,-0.008644010189693956,-0.0065229928393612779,0.008525883438579895,-0.056456158070680818,-0.0666197968927464,0.0324742715784796,-0.15070279076561045,-0.11884083271256417,0.15767143949816965,0.3326421963605411,-0.1472366871395988,-0.1173839611757928,0.31051542582110089,-0.09375798336071617,-0.02039134044561491,0.1442893601615302,-0.0858345818455429,0.12684468582240683,-0.08253128312982518,-0.11088810102751724,-0.06510820125052458,-0.04718442845402956,-0.09306782036567868,-0.09333995745862148,-0.09207946126178375,-0.1399737005758093,-0.18129303096054287,0.18881045672557263,-0.14766772660517619,-0.15647409781625677,-0.057393161195661648,-0.23056791942734243,-0.10329056846091876,-0.18921721748306473,-0.13033102251945853,-0.12312704060668078,-0.051849780933426018,0.04200840632751902,0.12502570490131327,-0.010106860107533478,0.35651374999203697,0.3038579906088888,0.3694790301462466,0.41884745989024987,-0.05167848450793489]},"biases":{"numSamples":1,"k":1,"nr":1,"nc":16,"host":[-0.20909675424840988,-0.007549500370602851,-0.040763724841660287,-0.024135214364198053,-0.10017503427417052,-0.1923352620025431,-0.01819630170419724,-0.003770153793083797,-0.014661548274775496,-0.11333793300930231,-0.02824184225321971,0.040444091668654497,0.033939538705787839,0.02863090106035717,-0.08337750717674893,-0.12186855687045593]}},"fully_connected_layer6":{"weights":{"numSamples":1,"k":1,"nr":30,"nc":400,"host":[0.002194500335784731,-0.0239177375483879,-0.05232445289871694,-0.025931139556512926,0.012927905669634522,-0.09922529470069226,-0.10360672385276224,-0.043544886421804,0.015355634083065275,-0.00008249535572462027,0.08040601368695367,0.11935421090542588,-0.0087298929161817,-0.040785497209874,0.013459175751587123,-0.013082221410509722,0.06850327093109805,0.03767422439247852,-0.02255505770657809,-0.020634951954955916,0.00291463453245518,-0.037055922354341418,-0.04330606478157841,0.025890551696622616,0.05483259879760624,0.01761716623867946,-0.008726818509513089,-0.08411166306827088,0.1045060659200948,0.08069468101048062,-0.09141856990599634,-0.02221515346012214,0.17755449818556086,-0.02036949438459742,-0.05950349671676098,0.029506581939180214,0.01565654616131019,-0.008597345913416889,-0.048710313108813688,-0.12376842400711473,-0.004911924144957039,-0.009014355875917937,-0.022527867444384353,-0.00638124963309309,-0.015843112393046166,-0.01827357617652601,-0.017037071100745449,0.004963454944598394,0.012895106884978823,0.008276681496202329,0.00902550454481401,0.010913012654496447,0.1530661529201866,0.0030068194609812598,0.0350416125130399,-0.014690198822583968,0.028797924789974225,0.03123646139153559,0.10416159358269889,0.11121052153755924,-0.010720996853103024,-0.006427127151599597,-0.06278880796136433,0.07678236055251328,0.013159281396998613,-0.025706236958869808,-0.0028038553176394506,0.004407678774792999,-0.04255276106605736,-0.0050125834461839748,-0.011342766037111051,-0.001629654946227238,0.013306398622049654,-0.022737309936431046,0.04608068294123561,0.0001952198911686672,0.00009876846815797505,0.000002541599593603625,0.000017271590971394399,0.00011269713728423207,0.00007173194465442193,-0.00003157509516700749,0.00006886788106282363,-0.000016405850822910129,-0.00010691355798714954,0.00005560284096044587,-0.000030820266743036238,0.00001590329640184467,-0.000009464239807764681,-0.00008087683862135152,0.00018151168792452556,0.00010644943074587795,0.000038502009724216767,0.00006285617246035898,0.00012426136947887653,0.00013305426401763977,0.0001326309026956272,0.000029102006825430159,0.00013560212461873134,0.00011837313895459265,0.01379998133275579,-0.0205288036622423,-0.013539634357813158,-0.00953079294269444,-0.0018966390571964942,-0.0029075008798333434,-0.0269513341681445,-0.10251706051629302,-0.033345893409589457,-0.022531890555167256,-0.05463561101655538,-0.006002250512961879,0.05348764783418081,-0.021874306934843124,-0.016382180762729037,0.03268834634272748,0.06310732845357099,0.10452829681235729,0.058108167981992597,0.054334447166309886,-0.01685018511238741,-0.09232280635492697,-0.07804399823680201,-0.0964767878562241,-0.03949732311662561,0.029268740463629197,-0.028565084964483443,-0.0029932782047491647,0.02652064965113339,0.010098677255515727,0.07052952970924519,-0.08402891631813066,-0.044865112188082447,-0.05982231426205388,-0.013380603674434852,-0.09820998621740394,-0.039003922188034088,0.0030532713817054966,-0.03288649696408859,-0.028271585723453373,0.04761588157765168,0.01904108366005216,-0.028738326102722906,-0.028767931493142913,-0.0021221277048165687,-0.034058001606451528,-0.04399247264719634,-0.03983755091129328,-0.013772721227903053,0.003997814744060324,0.004571912922400651,0.0063874371686259089,0.004725606053572112,-0.000008619471825787469,-0.0025366996093132696,0.023892358156064984,-0.04533775093645901,-0.015323832596125964,0.03828527935302406,0.008039994167691047,-0.0022895744785161869,-0.025135529018079185,-0.000584833709916267,0.034848943883646409,0.020029638325472177,-0.007807542101661046,-0.038384761485092778,0.045788271596394449,0.054059023768867456,0.043167078362858147,-0.002274883882151333,-0.011784985142575476,0.022775420117445715,0.037413349956254438,0.04802920726242115,-0.004464697386196804,-0.0111124298453919,-0.015814081783039677,-0.08357281865113099,-0.03915393287876894,-0.02840727972005167,-0.03677337957764424,-0.05902434541522483,-0.03276150753181668,-0.04396571331810047,0.0074957019707522719,0.12031434102425602,0.1793898591381657,0.046944157504607179,0.04121450243656298,0.03225421260162707,0.04652908307473781,0.05710723635022845,0.029836864666175506,-0.0549397131603451,0.0068199109905663708,0.011391917362045343,-0.049959153401979577,-0.07690476258721524,-0.04019608606647946,-0.0033730591259817238,0.020533888712027806,0.03273984516538896,0.009919012535995189,0.006878508689848975,0.07236166352317955,0.0019581276009679358,0.0011537864907584285,0.06751771229045087,0.030393155796055086,0.10954363550845928,0.05461713779866008,-0.015560981991336976,0.016825248769085686,0.03948237508852147,-0.014429798869593218,-0.07408471940867566,-0.07238208489722656,-0.020959432718757839,0.03304756811674563,0.010871223463193913,-0.04236816932750013,-0.0018884190957628939,0.04989190890031267,0.07578185878214494,-0.023235545487985705,-0.02049763945503863,-0.023291570448981424,-0.009400178496773116,-0.01762431640526625,0.027541859662939397,0.07602229617021177,0.06899618300870407,0.024382571652517245,0.012888322873528056,0.12178822447955098,0.06516451721962773,0.05579865746786321,-0.08910443952787109,-0.01401654742882343,-0.04541663635217973,-0.04256666449183582,-0.07454633495644564,-0.015409316759331547,0.012716020725493632,-0.01142847213500093,-0.04490255737016646,-0.027528358484140357,0.018889209333834295,0.0012052358505410608,-0.0028812170277116458,-0.004975793120340621,-0.009396692784419557,0.011756004363384349,0.03309807055691961,-0.0036762523781912008,0.01286926550806091,-0.03784778493848761,-0.0287739995190461,-0.019173982435745825,-0.03241704815809307,-0.019577228052556414,0.026474123967021446,0.010878344765189332,-0.020434894313749925,0.018409752916790504,0.049759991685955507,0.00986289761127485,-0.0015213538578002957,0.0013244890412748346,-0.0009697519660201002,-0.032470650678667448,-0.04881156553792945,-0.03875850964838933,-0.02009493722929739,0.023566697079214554,0.044179350448769718,0.0014312973772409477,-0.010932674037010182,-0.016763956739446668,0.010168005059878629,0.015853946646320634,-0.014492669467054747,0.01810712076148215,-0.006887012830487611,-0.01128930244588379,-0.06843473667744865,-0.01005651386419175,0.001253195498837781,0.01558474618353702,-0.029759818926312285,-0.06588455947365603,0.0788067677681155,0.044877550138212329,0.03689251407642569,-0.014345838083360246,-0.018737763584567539,-0.017093732314470427,-0.05978166861709422,-0.050578921545597618,-0.0195855284872461,-0.00009419632080222883,0.012714161949114555,-0.009421869491906881,-0.011205354841889629,-0.030834837169791949,0.004093300143055302,0.02943645215294131,-0.021425465364976655,0.010097772871510598,0.043215951976510607,0.0445659126367261,-0.0034624453768190299,-0.005045112976410769,0.03303648274821322,-0.01068199313696272,-0.0945831922177605,0.04800794514039781,0.07793899018434912,0.007072274047585414,-0.06883297479623737,-0.0021276531223005216,0.05256598613321492,0.05162380799781115,-0.02203260596046121,0.05806010349291885,0.09438084014180237,0.0027721583685430949,0.1339305013116857,0.06051941883737767,0.03821936991816219,0.06765335778601363,0.002285949902883503,0.01598511504953933,0.10687838770382104,-0.053996400384906027,-0.01590802019418935,-0.13526067970482784,0.005337994748929519,0.023904971211928595,-0.03416999664887597,0.050989095351702328,0.018804186122596324,-0.03264400234764495,0.006092764043063934,0.00977817863995337,0.01967949609223928,0.03886925814334792,0.017653159981038927,-0.004157340969462701,0.00016505151107424436,-0.0051548946677491308,-0.01073491454371838,0.04283618378363404,0.001261888766827537,0.032732190025397147,0.009040946383509597,-0.040320187779663337,-0.039062878769678347,-0.050342082000498448,0.015584821341169002,0.018188317982667968,0.12794511983084534,0.043092127532934589,0.04621209632127276,0.00845345544270165,0.004047852636838323,-0.005116733660672168,-0.01351817258321678,-0.02370811624973398,0.003533560578959334,-0.021057349391287298,-0.03236335620310618,-0.030639743041405759,-0.0007422341568298098,0.006571819869459335,-0.052429403703943718,0.06661848128479114,0.03931537549763051,0.04266945747980895,0.08250100412328392,0.02977646502233734,-0.005005875077820339,0.04698872116788326,0.0223360928483156,-0.08815917789813946,-0.0703331897773928,-0.12894826965881985,-0.03799265724624546,0.09422752573365366,0.014935145301996854,-0.03037787097532954,-0.09318986328774286,-0.009364564802719205,0.08003360721367102,-0.010989190501577496,-0.06569391086693105,-0.021158959188925683,0.02888616175041318,0.005218209474176125,0.046945703816582768,0.051190087160977098,0.04394303899544381,-0.01020120357864099,0.01836389164488616,0.1613817430327251,0.1673478227324351,0.07496258483158787,-0.0379867580016584,-0.02915960809368851,-0.015608194304949388,-0.04378276985080132,-0.0038049856352698875,0.09687494594026895,-0.036484865946241017,-0.004481850845027915,0.05875749886794493,-0.09196071574772354,-0.027316946198849329,-0.021509577663186054,-0.16603151323994637,-0.20738815663557035,-0.04216836008924201,-0.06731962290444438,-0.036984889006546447,0.13499049368530267,0.2320131065999177,0.23548875272655468,-0.1131885897600252,0.07239121155650699,0.12525474701669307,-0.025386523425520514,-0.03534563844889001,-0.07223320790746817,0.001244852800821566,-0.057938333421925346,-0.021479049441824734,0.07627695415938692,-0.09488074287505677,-0.057426137815026988,0.10652570275310261,-0.045229221950244449,-0.011742846487637489,-0.10333103005240393,-0.17511904424622563,-0.10121298181682748,-0.02032243586873247,0.062096672100904286,0.06279452549948946,-0.07546039858345127,-0.001987020007474911,0.02689544476720895,-0.08305017067750816,-0.10123341581364302,0.08842797339322411,0.006123334364519308,0.012285421006703849,0.013736270908289428,-0.025796702858061707,-0.06072076925302904,-0.033201200858634049,0.02194229203521244,0.004010766270541459,-0.05831813121781628,0.14988600935663083,-0.04611479841171349,-0.0455705146046756,-0.011466631867389188,-0.06938094671034007,-0.10745766745101483,0.04795462178797218,0.012774977090497424,0.04000042542937878,0.029873136142399678,0.09531357243297986,-0.00019352727287257025,-0.00019602550406075075,0.00006301313251411494,-0.00003878758990117295,0.00007316012042651968,0.0000029040929218647707,0.00011045907915506616,-0.00002890181767382697,-0.000039536343330187019,0.00008745800898867005,-0.000012470162692626013,-0.00007625678734298359,-0.0000357544940693212,0.000005473146633872501,0.00005670852823683438,-0.00011111944619162253,-0.0000331155410059816,0.000036050562144674538,-0.000005069378758563587,-0.00009179857151952016,0.000063490230815526,0.00004469161376212361,0.00002719372035092927,0.00008502171277602987,0.00011190252954400915,-0.0340398745850096,-0.007709104390332525,-0.0001102079849176147,-0.02218870261402661,-0.0009499780430100749,-0.04747920505218265,-0.021668512398251687,0.030938304799705057,-0.06610364505696925,-0.03236273341393987,0.1725267300167131,0.14240047908545268,0.05323259892346562,0.10031345469197405,-0.043972133262867179,0.11866725692785467,0.1261497426156185,-0.08125535702209053,-0.04151313507887335,-0.004023480333882297,0.016006004694962454,-0.07468265854868407,-0.14978513642289929,-0.07223991769083761,-0.16200993191135189,-0.029746309412670505,0.10732769861950573,0.07294434255090876,0.09144834543320804,0.12182584493978099,-0.00830522586282176,0.25728981818866117,0.127536127334345,-0.04015323115054435,-0.14042632507379849,0.10552735282985061,-0.02208998792599977,0.03169037329687528,-0.07230134513252068,-0.13296649056950222,0.0022194865965833637,-0.14319025986822093,-0.05997626619748261,-0.053652032005789187,-0.027875777552212844,-0.0026762142469081188,-0.18812564835730276,-0.04263334450584618,-0.0004996182878194485,0.00010700434816443193,-0.005346512128233701,-0.014416531501106615,-0.0043408050455270769,-0.011077778771532404,-0.0007114984152501885,-0.05362961259468075,0.07135380131361229,0.005522763450376405,0.05869513823432729,-0.013345249814049625,0.0145025839569586,0.08551762049958702,-0.038869377332351049,0.05792956376547376,-0.00250648972092104,0.018982921837122948,0.05031813719649496,0.020372183077784279,0.00577423305572606,-0.016567919496697046,0.011132582652318332,0.006137177911861408,0.18835763878465404,0.02007771685719063,-0.019958401687982805,-0.03258410339480018,0.015219814081893211,0.06701861022077489,0.05512944932012319,-0.0011274295564147293,0.04509489507407917,0.10149474323522608,0.12244497026970283,0.03356981494962569,0.011368822406636378,0.006403882364586233,-0.018255257261583659,-0.14777649200821098,0.04996791319863362,-0.07363768873449676,-0.05213615219947764,-0.06987404093953582,-0.07819193217154295,-0.07613775675733786,0.07541648624546618,-0.057451648110207479,-0.11442497031114556,-0.15749916868566153,-0.06670555815748981,-0.08975767976233296,-0.007880722685719882,-0.03577808020923769,0.07099617085205619,-0.06414552520228748,0.009335299874996399,0.06824582977848445,-0.04969982429706748,0.01042052923282282,-0.03045087304897906,-0.04886977890423886,-0.16365202127585666,-0.011441339345189686,-0.07612515707692821,0.1388639813056534,-0.0001540032324793037,-0.03599297404676283,0.10082209714315448,-0.08032563924791055,-0.006422263076716409,-0.04256088047902234,-0.039554547058217499,-0.024776913461485914,0.0493363512510518,-0.1041435179816075,-0.03393308851419986,0.05468119771835711,0.10083921380454915,0.10779922223504444,-0.00458382661193782,0.050539865721656567,-0.08221423774707927,-0.2007131514818683,-0.06905214194024063,0.003160394293343142,-0.018197613129897207,-0.19816326293277293,-0.171620180448427,-0.09649731126348482,0.12593544433059293,-0.03210177370040986,-0.0621530609634343,-0.14416959891000845,-0.09704387255951523,0.01853872031814828,-0.013172346769553083,-0.04677270276561872,-0.05803814160457568,0.009762637765472768,0.04175510800062545,0.009393153050938352,-0.0008897193079160663,0.018772252118676615,0.05512291476359228,-0.024801919960065544,0.037101645956343218,-0.06671642712582203,0.008465937443623065,0.029035640199880757,0.030256950990691937,-0.017942780921557448,0.029559548064296456,0.07147029200684128,-0.09544947361335754,-0.00580078525933123,-0.04749399264219392,0.11180233283852695,0.02632035150676549,-0.04906231184249809,-0.048840324021649627,0.00046069881935220663,0.032271384013625368,0.018969661799085104,-0.052920634446493138,0.009644241316219398,-0.0851396062024624,-0.0527529534087173,-0.05725781351819679,-0.031511081280732929,-0.010286515673019761,0.01798313464640033,-0.0378936694515583,-0.07043989451771778,-0.07769982269834947,-0.06917927800144577,0.044179279202647327,-0.05768462166409796,0.13954300327820327,0.17037857031732674,0.03619079806572748,0.0001999016685595151,0.22858587857494687,0.2608229019281639,-0.09618952669383421,0.11971990241478665,0.1774388715921004,0.038902359838057589,0.0468876513875035,-0.046357674359245589,-0.07807741964595108,-0.18502179053444776,-0.047863933664839358,0.026574871439469556,-0.007992048854418743,0.026908840990884348,0.005928222289342013,0.05554419795076887,-0.12503059476977475,0.09621441754571704,0.024311402079238245,0.011156346980992056,-0.014050386131497828,0.03273073594309555,0.1006606128720192,0.021613175859703239,-0.006389639873506306,-0.05172069228019979,0.013451307973649334,0.007617189859624986,-0.049348204400257337,0.07175104970252615,-0.1003972942313904,0.26849302680223777,0.19568553015218918,-0.01843746001324048,-0.015250357545983314,0.0019710063831679047,-0.010836024812857708,0.02586582959973795,-0.10851502006141913,0.06362824307138325,-0.07779204915654059,-0.04383702462052792,0.054013610122452957,-0.0006360987475893898,-0.026362443978242248,0.013731029127653753,-0.028173696574362297,0.052229220790718757,0.031239809448349356,-0.0315768925115854,-0.04129071321029516,-0.012975052030270147,0.005173830777402213,0.07358832710158386,0.019033790300443624,0.10851682436557708,0.28920879163638488,0.09526896751741508,0.048091434240520269,0.006603937896143999,0.07427730485326505,0.04621975090507945,0.1090688242628664,0.05263498966945892,-0.04512129656143832,0.058473562813426579,0.02263818735069076,-0.06324605332318406,0.0891081026957832,0.019862971600889277,-0.0124028293432621,0.1039453590340107,0.10581150020089228,-0.15318362830477037,-0.0351310471640453,-0.026532286005164567,0.029625731214376326,-0.03794181008196508,-0.02048295057835064,-0.021797512608584078,-0.019687651861638478,-0.07141227797436017,-0.07585281051984629,-0.09159098043051477,-0.0847861947842382,-0.0479699868402274,-0.10345036928720473,-0.047303197263735729,-0.06393160078518988,0.0413213166254138,-0.14838092519641259,-0.08639457528458283,-0.006405932195171099,-0.0625477311631213,-0.020222095790716534,0.02305435206998386,-0.012607723476057912,0.14642042400869907,0.05615072267103561,-0.06638670946045378,0.037034260564683629,0.16079356952315483,0.1889438487287712,0.02572102772047019,0.11995105336319347,0.19388958524933964,0.04828424037680156,0.09951305714467551,0.06707983845948319,-0.04900075141064192,0.10004943459450735,0.12681942176306808,0.04265902375220092,-0.006201145315008888,-0.007463308355059531,0.1391450528751877,0.06668060271579825,-0.028915133819436599,-0.09531204264243831,-0.016747853191218747,0.013680764012973695,0.13811348907515093,0.09823368931278404,0.03864704795919219,-0.0038164989119761039,-0.031273330925716057,0.12638941205227206,0.10220921493677517,0.053558060012625998,-0.006212976181739082,-0.07747639530957222,-0.022772014528729416,0.02385898423516184,-0.06002524529029861,-0.04481808327010701,0.03812948489897803,-0.051071748668856147,-0.06825341109463398,-0.057255121143131509,-0.04881981566306471,0.10595899261653318,-0.041248254234799688,-0.07224218918140073,0.01221436500778912,0.17742250173634786,0.07357365466994166,0.1280315254431473,0.0514483098797183,0.10186881191433225,0.057332171364574618,0.04471925439362307,0.09222250328293486,-0.030361427821277564,0.00783706335605756,0.03849278331259248,-0.02631123750567233,-0.03629167056735668,-0.03534190461030299,-0.05494988295626318,0.02972643978499119,-0.06190177721924899,-0.0983229828340049,-0.01439952606803859,0.07875638952879072,-0.02313278033666768,-0.05398519115506245,-0.020259286487453636,-0.019310063023116339,-0.08307126524153262,-0.021206689461691205,-0.02076404185567806,-0.029323368501844407,-0.053817460217922139,-0.039217216162910659,-0.034082833371381539,-0.006852632738215076,0.00869637755472945,-0.029130454307122554,-0.010573766305434208,0.046662757229490457,0.031206415126325185,0.009958012530254029,-0.01305599587513351,-0.025823281989598377,0.07115837995988538,-2.8189138498140409e-7,-0.000013743403271620403,0.000022765626846227897,0.0000475885175506886,0.00006846041269875011,-0.00003197162383939145,-0.00007385637370812169,-0.000024675916796262667,0.000018059965435177907,0.00005180756956737464,0.00006169378262183936,-0.000029995766954243279,-0.00004856102637511674,0.000008779430027217556,0.000021893540952520564,0.00002822525463541069,-0.00008282986768026775,0.00000663726251199959,0.000015364364540692526,0.00003714863188014969,0.000061009768096036448,-0.000052812003516380896,-0.000013913105240069532,-0.00007967045682395982,0.0000021003038778598898,0.016532009987728987,-0.042787710824919247,-0.01614341735741185,-0.022115334788251344,-0.018712388404999424,0.24297556308440675,0.2183383725721337,-0.04171006767148755,-0.053937647418729538,-0.05476682869860764,0.09640264731007692,0.03622689875351834,0.040558533551061818,0.04081402399975664,-0.004238409268098957,0.02752059348455216,0.04846369156434558,0.06231641851553702,0.013599876619274532,-0.06792344500252405,-0.04793366324478763,-0.031202369292594596,-0.001791526850417739,-0.005568447079188489,0.02087904421830578,-0.059231528984782799,-0.04512619924805939,-0.04376466818966143,-0.04634817888929557,-0.021958530966327055,0.018283684444214758,0.1356899277885033,0.05740995468580538,0.00540828254013822,-0.03238258992379057,-0.05854728390962067,0.014708372670199222,0.046802849184985857,-0.06699144597916203,-0.06659386730946677,0.03108009929538563,0.12373171321336986,0.058190805626291048,0.043791602076294417,-0.002562814228151898,0.05642950063429615,0.08696927223821315,0.03451334325851964,0.010919778485337633,-0.0022956804937812427,-0.002416903984048517,-0.021239608557778436,-0.007852714272526247,-0.0030607150656233744,-0.0011068983158047522,0.023309178292410527,-0.028845979038505347,-0.007529455657796519,-0.018463523500943693,-0.010067800058152315,-0.02392684002010413,-0.007445646574505483,-0.011649939794472994,-0.022214870440170177,0.007505164802733509,-0.03552678144415732,-0.012825040558911767,-0.06272981173411224,-0.016983715536231685,0.021178715711434368,-0.006125566048107978,-0.035624249142046589,-0.0300474724174607,0.009801267814731179,-0.01098549223120396,0.0590710959539855,0.06403365156306845,0.005204669045413701,-0.015719916475470449,-0.03849568378303177,0.009691646976994663,0.01641186207255868,-0.007208125644236943,-0.014926538072439145,-0.03521126299612222,0.0008975381239649427,-0.06975087387405986,-0.014268727537007935,0.031192311179283596,-0.0345752392129583,0.002942162127135682,-0.023998257399658664,0.008632864467629986,-0.061742075376281107,-0.05342207901192496,0.003446870601534693,-0.002944496873337283,0.05039219309605059,0.060518122792654217,0.05874420461438866,-0.03887023473751653,-0.0802399652710699,0.016176194342681244,-0.03287987603252148,-0.003970461934342295,-0.037504745492241167,-0.1719127739620067,-0.045949320179961467,-0.059964737534478309,-0.03132963377935029,-0.033835457783892627,0.07320304046075489,-0.009939086082475202,0.06544666898152787,0.048380460052168509,-0.06858061444151895,0.006920784105718195,0.06677636512048355,0.046560101651313617,0.06599833973399036,0.053202973060546557,0.01639201766112451,0.020707319663625269,0.04622538169511306,-0.02231624074114823,0.04441767547926512,-0.025132647836208938,-0.09920074735946999,-0.026328824968162687,-0.01283416873613071,-0.02638972701168115,-0.06604275084951468,0.06978787710744154,0.06679722458122485,0.018558201748161364,-0.061975175314529559,0.01039558606581454,0.09617667701853977,0.04463953972988493,-0.011091223833089527,-0.060665531858195249,-0.031558241361633609,0.0016730985056903098,-0.04099789838843344,-0.02541418465009455,0.025779940698181,0.04245652635882415,0.0018505604333607165,-0.031123135559731633,0.003978891361369199,0.0023897322315932958,-0.033211747856919038,0.006739168747820942,-0.02194795892915411,-0.011862728110823454,0.13148954740158623,0.1470818914159763,-0.011511279814351546,-0.05998844048990867,0.012855197851392787,0.11697451580390903,0.040587585905645099,0.01867626032054474,0.027294031573415587,-0.00744454498670645,-0.006394279851833406,0.06869198506532065,0.051728917909520808,0.06453406184334673,0.003275798142545941,-0.04759656631614683,0.002361253399302843,-0.019215692133331184,0.003101139905932541,-0.006470906996443344,-0.01818506657739289,-0.02253109615452207,-0.013715441998391658,-0.024008499013863869,-0.04514157086521748,0.029310719713624687,0.06305931519602123,-0.005736736802513444,0.03379134885059376,0.029472394194980525,0.005833384113629882,-0.029659829835049647,0.002139258803037018,0.040723204316051159,0.04566073328129504,-0.02829833189310245,0.02439409720241909,0.06612905568083216,0.0035299466470064585,-0.08295406733050065,-0.009914412471395048,-0.002125964323412715,-0.0773899110327484,-0.027439003348759314,0.1170814453318602,-0.020578711461047735,-0.02197692123923667,-0.012039343940210806,0.01138520280071281,0.004899936329909424,-0.05530688467806093,-0.0433341843020612,-0.013337281157458079,-0.0039010548863253988,0.013619717646288983,0.03623537305953641,0.0253217973306791,-0.07421931195726078,0.011476748646105003,0.004823026363115605,-0.021657827116175266,-0.043755430010011368,-0.059240830400912,-0.0199784207823752,-0.004052088028707796,-0.004893898827469543,-0.08288707808156357,-0.07295482792609896,-0.04204515833329848,0.024951908911039136,-0.015247080263823753,-0.09062930616339685,-0.05714919107390985,-0.014818072219169995,-0.0013296662980408249,-0.039574223014489279,-0.0194915136824323,0.015310710270733906,-0.010240966094231599,-0.012935490000022273,-0.04937433979158546,-0.1018192491749265,-0.06667340513564679,-0.040382260313277757,-0.028827404869883324,-0.003957178798901817,-0.08505063281399485,-0.02175607679296289,-0.009294137617437944,0.0174627027346293,0.005917322690245481,-0.042694147195669499,0.010477461209556488,0.01913308395628336,0.008189802031060895,0.06611687843332954,0.07382140563664642,0.03728267445339651,-0.04170196187888023,-0.046392092355872768,-0.00976942605960582,0.018440525396623793,0.0573911804580325,0.04841698486387034,0.047219195996467889,-0.0292278455661978,-0.013580062114573539,-0.024347291311955348,0.07710874638226807,0.06894095919759859,0.011795574851250365,0.026555438024307839,0.06669046718036959,0.0782866149778854,-0.032162611646033987,0.022026868553823528,0.0472539004319505,0.05930648205063238,0.014605083122918238,-0.014911206715420489,-0.02625791277728802,-0.11337073898269005,-0.03996357220748178,0.01835734179584061,-0.01563919112605425,-0.052192173420738157,0.04097371182721297,0.015328353075248632,0.014356608852995098,0.02110658942758581,-0.041823763353930159,0.0010853341081509746,-0.00334807775301854,-0.032166464336606168,-0.018771097074870029,-0.022582759767547576,-0.030455851472411954,0.030931304868470095,-0.01145416483613632,-0.022668992752749963,0.018202090148073694,0.042173289286105027,0.013315197719995842,-0.028925947007562064,-0.0010449826084860377,0.010964940339623929,0.04766310397525879,0.028499638557250966,-0.013106451798245527,-0.0005240005782230581,0.03170790034948267,-0.013553708658081785,-0.047300999553404377,-0.011039202324065559,-0.0023752377683590446,0.002294597844118757,-0.061311186884838868,-0.059721960679658448,-0.011905582732992628,-0.004248622432610274,0.0013438485388463312,-0.03291287065390136,-0.01640810136508062,-0.01439992753724735,0.008962653957188179,-0.00380517891112486,0.015073274040778325,0.08499426536601797,0.01802579471294456,0.07124094987737347,0.04943643505888347,0.08891226804053773,-0.027605144796362944,-0.034630413059759428,-0.07871027367071194,0.00552188553098949,-0.03370481746576922,-0.043728207761554779,0.03548690987891886,-0.02553578675874589,-0.021373144650405828,-0.0263034231292,0.08155774212830008,-0.08035881071156664,0.06041169483007376,-0.06859336852418656,-0.06845985216200339,0.06357206911440507,-0.021551361719729668,-0.05480071155051898,-0.01400384516976009,0.03073881877389024,0.035723451963484167,-0.04084776669954049,-0.016978545237704667,0.01220922892589404,0.06043288064368451,0.027731429440406378,0.16083460719745083,-0.02059847504728144,0.0074016672566432658,-0.032741003354656249,-0.037947081170475977,0.07576706516733518,0.016234784418775108,-0.021110117104182713,-0.016448591743428978,0.034941606952829228,0.11196587932096613,0.057000600350963107,-0.04357113608689808,-0.035510800798384378,0.005420960336722067,0.03554621252553847,0.05168376370083965,-0.021287197569724464,-0.006933132155085732,-0.007456457949570731,0.00030593430370885093,0.01785431323833766,0.00008233022196583346,0.00002962294795719198,0.00003541179797835494,0.00010867904890059619,0.0002092219463302137,0.00008092766883363512,0.00009830695959351544,0.000059075175965677659,0.000083687762063962,0.00021488233675767573,0.00010319830937655719,0.00019798329872982068,0.00006189176463614826,0.00006893175376471074,0.00015921391878461906,0.00007061817220630162,0.00013996319992892522,0.0000501474136621341,0.00003084249477836631,-0.000035780086158267989,0.00009606745763995976,0.00012412537370769272,0.000019384467233205309,-0.000016165422688045975,0.0000036192253956970256,-0.0006933258891644506,0.10218439383460297,-0.009220179002468788,-0.013410020641455894,-0.006381949903920369,-0.014026460537669743,0.03470878041248988,0.08259914430831159,-0.00989899421205045,-0.020939858238106625,-0.015634418422368423,-0.03867367773555505,-0.07676294547452653,-0.012441349364431524,-0.008365498709322685,0.07384942621782469,0.013243750842674629,-0.023014885064622717,-0.02835514513260861,-0.02761379067291329,-0.03567260102002187,0.12414791031633638,0.127579790210891,-0.03627981954161212,0.04708614462264488,0.016362067882209065,-0.04457147367607928,-0.04444828801011286,-0.020180466243032177,-0.009799411685671063,-0.00600487935007082,-0.08483322716401715,-0.09731166642320423,-0.02274891684685682,-0.02390956892860351,-0.03196542843917444,-0.04173928634578253,-0.0335354030189555,0.061574240949736559,0.08046182395117334,0.03168744034402403,0.09470564122091287,0.000590027854666965,-0.06234100847498306,0.00001287677838050815,-0.003988456942318108,-0.010394867866657784,-0.007449697440393806,-0.001578320230526959,0.0009730842054398352,-0.00014557779891993653,0.01675291029415765,0.023986471687089746,-0.008358883058128337,-0.004447832523924145,0.014454115805811642,0.03099183871308313,0.09407602488008057,-0.027740133889382513,-0.0052101546778079549,0.01075637196087109,0.017184634678475739,0.09734989039214612,0.005745450592688234,-0.0022368054473263867,-0.013959245386255549,-0.02781544579229179,0.08166622968883085,0.01965971642549602,-0.0076789802720271479,-0.012845045119739404,-0.047912076438192657,0.09227220239058165,0.034088798062387948,0.0017257869237073307,0.029304074016978385,0.03585862973947975,0.058791469229326407,0.000943625827095296,-0.029302192184524589,-0.008824209359996869,0.023250781314878997,-0.0074606430149754339,-0.019064808525097216,-0.039521332188452,-0.005710498683330273,0.008513686391695053,-0.04204826581321219,-0.01923874972293155,-0.0258281507498444,-0.00024159836496323394,0.0033319907036040137,-0.010655423732535389,-0.06090480868338364,0.041113782925428447,0.0022192815396129066,0.029880149445195779,-0.01642691857253383,0.11484917573535927,0.05965083045396928,0.07759320229630923,0.11142647289642627,0.11707097234132272,-0.030207699946862806,-0.0032697298212334936,0.009050547329503075,0.0450623239791181,0.11735348231807265,-0.046842723027353077,-0.013132092018916809,0.003514460475520197,0.004057667380263858,0.14008444522981998,-0.004469414358627711,-0.007592420885879376,-0.05094853820508249,-0.07124087374722282,0.19324629155190344,0.03956832691982498,-0.020720710064374777,-0.04521209471139891,-0.07837993585806075,-0.03086876619867255,0.04699262446824939,0.012090077090612993,0.004248766138320312,0.06895740713530936,-0.014808924799592494,-0.030912269914185006,-0.0035115055910407914,0.007633186970642457,-0.07518447879056232,-0.09982976214139969,-0.0027737019028470195,-0.00627618931253414,-0.0008575493443120023,-0.02802753184595742,-0.035579164558524428,-0.024859244115148308,0.017621147244844264,-0.007951721887155686,-0.047539064232042498,-0.12893478049143798,0.07813213648636697,0.022763026890664497,-0.0035623516595726099,-0.008779377398014644,-0.05337541108004967,-0.005334866893834712,0.0013708225415661954,0.007867039674696578,0.03106095845482333,-0.02434056741949777,-0.020498073873978428,-0.02368354142213027,0.005825908245465816,0.06363678492180541,-0.0037973288535754279,0.008503500078085279,0.0016251519402036474,-0.003439577401344231,-0.010423795645109086,-0.07171404924766192,-0.014081380057069857,0.004400742002964901,0.028684076623552214,-0.0105392050091023,-0.01197389923661427,-0.0042938510644733979,-0.009324254947185203,-0.027574184174375329,0.012783116757378222,0.09056002742634514,0.03373001693585508,0.024566144770942906,-0.0031562727354247945,-0.01138462650843235,-0.006317638614037825,-0.002014547011713591,-0.0035569970583317707,0.005037721615189401,0.05514630443436617,-0.006329479247836271,-0.005538821703257626,-0.07510645508086413,-0.01761941779635293,-0.01525108786448047,-0.034564247612156328,-0.06861514320963198,-0.0469161517452655,-0.0013973629260880478,0.02092267807982935,-0.020233371528282176,-0.05561312854081899,-0.07440653316031426,0.005629181768873734,0.044994499876688767,-0.024244263007101847,-0.02163550773547103,-0.053482085048272589,0.036851180120316118,0.02413627407360909,0.013085919461822802,0.03205377421638221,-0.022499887430059579,0.04954978652456934,0.025916466671636476,0.07384737121095216,0.016576689501330477,-0.037178006293098708,-0.001674299458492762,0.15663778267974083,0.0901226345282042,0.028476518851922745,-0.004674965016367671,-0.07393598075618686,0.08173451322575935,0.05207220037088959,-0.0004426323942036258,-0.014552701833573984,-0.09479099993809495,0.08671812572785243,0.09499105882040864,0.02758148438777218,-0.015493290411359455,-0.0009186643552344153,-0.005286377651826308,0.09662605073070065,-0.09025192998458029,-0.015536170300446113,-0.01662494066233474,-0.04640440372372401,-0.013582027651759124,-0.058301543090012907,-0.008136652224645729,-0.018747097839763708,-0.0763083740516399,-0.10961553773099868,-0.0511420580328669,-0.00001933283469571986,-0.014084142391656847,-0.029871882738525567,-0.10603147898597493,-0.014902745371766911,-0.024517636517688944,0.000013195049880427664,-0.008967830106373079,0.03938892100413509,-0.0027768357056759259,-0.0014353023738410229,0.019445944612599545,-0.04346498178335122,0.05027309848843871,-0.020287623856639508,-0.03373531307624563,-0.005541291428150254,-0.027536470817110818,-0.04645373895651348,-0.013350787754114841,-0.006522173795249846,0.001701966083719695,-0.014432705235925842,-0.016053031029203164,-0.03280001490795329,-0.04080450956134467,-0.006165998228766857,-0.020036066897200966,0.09149589726802895,-0.061611818779549857,0.05224306210970555,0.00040815154479188694,-0.029599646213810738,-0.058894205343841297,-0.06614801730749365,-0.026572322632071874,-0.015231825837741995,0.017847089020583009,-0.04218939327815594,0.01375057097605236,-0.0011582326535044155,-0.041234957701209388,-0.03950038135045572,-0.04159292499602471,0.03052964138652473,-0.07843496434937854,-0.05713189179730041,-0.10675411260305855,-0.07295645399659542,0.06461955698548318,-0.07072031890119522,-0.018731974200199045,-0.04262132302676779,-0.021729206039638045,-0.028894063878977237,-0.031285832601246277,-0.010505715332691922,-0.0029210042005885824,-0.002450625127844966,0.005401150672019388,0.008660554950100952,-0.04416063110128212,0.09274340628079705,0.13234130957410929,0.015279442959537393,-0.025247408150375056,-0.04765139470594758,0.08899635242372281,0.0991880612508379,-0.03540487298718739,-0.013550611773409176,0.02453392240586848,0.013357750768363932,0.13417340558818356,-0.03498127372816875,-0.026640778173175618,-0.0029500431453271388,0.07784583332163774,0.004980573382796655,-0.017852519403657595,-0.021681240222533584,0.00271371395890224,-0.04737683585654816,-0.07885143438281614,-0.0889405548149683,-0.028690069863081526,0.03964059799814146,0.025354501182435444,-0.10026760609216086,-0.14537416497810558,-0.11718972291235078,0.0008110786578486653,0.07238071278444788,-0.11330844474229643,-0.07918373482916147,0.0896389135899056,0.19483785028184667,0.4120444533501935,0.03749923498847171,0.01362076605999526,0.05023863187424305,0.09215415731538462,0.00736898126421054,-0.13085637661402026,-0.14667030054449177,-0.06375051862358855,-0.022330669211470763,0.012592823554763147,-0.07232242547527343,-0.008985319720882696,0.032921927958485908,-0.025788715317747715,-0.007729378597452051,-0.008068438342150686,0.02830459175878409,0.0399527799741122,-0.06814442594909896,-0.056450951200487559,-0.036692622994904767,-0.04283818966502488,-0.07161264256302486,-0.005578610975816389,0.009046755522757093,-0.01546773777578291,-0.02226613890458665,0.08326834195983837,0.06231406885439562,-0.010537275456378819,0.011843997453139297,-0.019950846363542823,0.11802622279899784,0.0038902926476912277,-0.008921654361500824,-0.024554862457850766,-0.03864554084074201,-0.039180112355315068,0.000047452760087417148,0.000008680417789081116,-0.000015155643252547792,-0.00004449534385592127,-0.00016928255362859876,-0.000041983109267700869,-0.00011210144431515669,-0.000021118671979710525,0.00001571898570222425,-0.00010284662606602048,-0.0000701763785527871,-0.00005797103233547153,-0.000005899059036060491,-0.00001590175047879238,-0.00013191504668131737,-0.00011754996958004026,-0.00006762863086258482,-0.000005278698727724308,-0.00004723691159916735,-0.00012411280084318949,-0.00016666555012865558,-0.0001375927906586981,0.00000386945745800787,-0.0000999926511045473,0.0000483761350514894,0.07006970342291548,0.004365512491209702,0.023439810172479426,-0.029697461518322207,0.007088722024013036,-0.02133515148598292,0.16194974824584436,-0.010283030870286338,0.002784124508530466,-0.04345132560260915,0.056860086293378828,0.06989294669269933,0.0024914973730034096,-0.0013966632471929585,-0.004218423341168018,-0.026937482973735679,-0.06295784597185962,0.0737433099219625,-0.03319297810959366,-0.060570231562251348,0.03142683389027652,0.03348703543964686,0.026292479612101739,-0.00470641246612365,-0.037253561765597579,-0.04079306712164428,0.054144388150945989,-0.08332460185495262,-0.10590996759984632,-0.050170341106424837,0.022853553704942455,0.15025990157528139,0.11552281412862359,-0.062125638943597977,-0.006375415535358133,0.15352816094782288,-0.03549208767449577,-0.06797005933801929,-0.04570240669965402,-0.07594551234585588,-0.033268539104223639,0.05890406389411639,0.08181033830195048,-0.05857673532146307,-0.004711979206943015,0.08472508472661547,0.08489065904643271,0.01217060901930307,-0.008297620855143287,-0.0015127109178731437,-0.002516438302525534,-0.009225095311504506,-0.013640159770121351,0.012516776098711377,-0.003482610790753367,0.01219210862089767,-0.05307964697364286,0.008996032929212523,-0.02212146943192269,-0.014886105704439854,-0.017721910902392215,-0.029098440247913607,0.032030868183359959,-0.008420975647062866,-0.0058069748192052,-0.03930422473799963,0.007213698759473533,-0.04036631247628486,0.02684890258230578,-0.00004920887800246232,0.015704755780768653,0.006795111454554418,-0.07685702523409389,-0.03747643620066777,-0.015176893774024394,-0.011149493348744612,-0.03361989969671717,-0.09099928615826705,0.017569082138977858,0.005943902775192182,-0.00859102148336084,-0.07827628279833365,-0.03650765088967191,-0.014469399255365362,0.027080668065706929,0.001758715493772809,-0.06725028051325997,-0.09436388449490783,-0.020072626032843704,-0.05202923226525573,0.008126871283674222,-0.024424596818556918,0.023735398140030524,0.0028576895926367914,0.03438769561744872,0.03645433216372507,0.07027373726680628,0.0968770337003145,-0.010601812212631606,-0.007982019284665743,-0.04172990633902521,0.04083765387799294,0.0050204235573780039,0.06435628872197086,-0.016854337747389135,-0.06474340215300988,-0.15346603434784804,-0.06238530205286648,-0.03705382724998204,-0.05046746176830843,-0.02607350582892073,-0.005316566116487228,0.13182915917216596,0.09729778701119525,-0.040066952763678959,0.10918920750854477,0.05362752574533091,-0.024291651352386799,0.05839014178046642,-0.005362442442681929,0.05690571864172751,0.0319207336970086,-0.09557330320424054,-0.059034019298678897,-0.03763696763049464,-0.007543693614982588,-0.04222548685461612,-0.04854153136363151,-0.02895765957326552,-0.013388866969654218,-0.03220704303388068,-0.1444563219719884,0.05125267076992245,0.05835694869731626,0.016462595026898918,-0.05236217310979934,-0.051927313463631507,0.12517139247383406,0.08739941989010203,0.009393577198709914,-0.0590694962364749,-0.07568129780128934,-0.08770360231070211,-0.10599255581575104,-0.004079632670347225,-0.00028684124955485337,0.05545677062758507,-0.034496013583109257,-0.006620687050187561,0.00987727531621745,0.02164327941320053,-0.023769588080531299,0.007862235274099594,-0.01682356889630885,-0.03615219260596606,-0.05709543243576476,0.05832142142124293,0.048011761999183357,-0.01986068841181699,-0.010202615732274765,0.08622288785854301,0.1458164709322358,0.07240575632680917,0.021752331900002428,0.006601892415004651,-0.009775353184816097,0.053807488901989098,0.11687322070007633,-0.03431931273450674,-0.040579805335579238,-0.006648843358397161,0.06383188513382152,-0.024201742791016484,-0.0444374078351639,-0.009967707810663761,0.005644362665107847,-0.02229910157961594,-0.013112590675192502,-0.030554815308311828,-0.015874967215096574,-0.04043432396857641,-0.028959598680248313,-0.03152441950942158,-0.01015215614557042,0.05779455893098476,0.0013617017632627175,-0.03904398545173656,-0.0014341056602072309,-0.035180642001114117,0.0029347187777055028,-0.04750164674516711,-0.01078349380175466,0.15907295123732635,-0.012508517085975854,-0.05083985574406312,-0.022123047665989476,0.030588737383723819,0.10679356199681096,0.22942141660939914,0.06027162720587184,0.048251936469284977,0.05748963236599901,-0.03053970128319132,-0.013514536448938646,0.037623634969417559,-0.0583139463171502,0.031916974234269989,-0.10774149109380174,-0.033279644486476137,0.04787918343314584,-0.010360349203079048,0.122427552331545,-0.11323018095682079,0.0013373981679809264,0.02733284712758799,0.03479743942922596,-0.02736501278669692,-0.04103821628388993,-0.019028626924544546,0.04754245217485068,0.08183446377052417,-0.12329461507667945,-0.15477492152934919,-0.016591931586210547,0.061803112157799319,-0.009768081884230552,-0.06924990495358986,-0.06245331605022433,0.013272157529194652,-0.010141511527222928,-0.04511975815244727,-0.08527741673622613,-0.018530220499990165,-0.009927791480908138,-0.03156564745287683,-0.023163526919445035,-0.15240416569684438,-0.15202826528765013,-0.0371579237488546,-0.029375939943901615,-0.0036584915739291377,-0.08745702992678135,-0.050160957188232647,0.11808693288759405,0.0010677742334670683,-0.002160259555436748,-0.08371938258769524,0.03001229347350379,0.03968499203604697,-0.000739922893190976,-0.07758294369535113,-0.061299423241628698,-0.08938509078209825,0.025670745833609539,0.03659496708284857,-0.014660075599721256,-0.01341829017712311,0.0277605638494539,-0.0516021259762517,-0.013004652070802248,0.013004830127625728,-0.0613774340832506,-0.1393145569163347,0.004975988279662044,0.003867068616750206,0.09668756151243438,0.09447701465428719,-0.050266300942854089,-0.01987524009215564,-0.05672736113180015,0.031343809171763718,0.0391474672951803,0.02752811864420392,-0.04370598302898663,-0.005386782294500506,-0.0036984392279432976,-0.04702335319331226,-0.049536813301861378,-0.02355659692083943,0.0016735687290408166,-0.034389065451453,0.019354333230102894,0.020240250851831296,-0.041080260305224648,0.06962265561538372,-0.025209537673272495,-0.038902276723028279,-0.04086289831621028,-0.03530926291775687,-0.020307328485302799,-0.047129767677149599,-0.0745169988441051,0.101174936306091,0.005024480616847934,0.17466635500267009,0.018211028412068607,0.04405352999986617,0.025455086125514959,-0.0022413574288793829,0.09835276111230126,0.0039209758886656329,-0.02062772414671356,0.04172202321040672,0.07353821707771344,-0.025226367825258574,-0.03057062708407418,-0.08055139110952783,0.0077714494308550219,0.022999966294024355,-0.04263914291640445,-0.10774915874515127,0.0383387998285246,0.05146044472335047,-0.02209598520655846,-0.02028479646996794,0.031883841431079817,0.13491574610802957,-0.0006518597989304415,-0.016132425769187613,-0.03600084832729831,-0.02862210492648516,-0.019135322761685608,-0.08149013059949199,-0.03525486433666999,-0.001394751497751935,-0.035284642341275807,-0.07403171127090506,-0.01260213609183779,-0.005887938886556328,0.05839026482407103,-0.09144828017084439,-0.010729457875305087,-0.1652561863429068,0.03363731557179477,0.028713567358527326,-0.05844033950639715,0.035284490792311929,0.01221567774070653,-0.10140252120157195,-0.05433673403763317,0.08832284531662023,0.14203098263979237,0.0029695565534782165,-0.049313905182023668,-0.08229883036946879,-0.09746248425511475,-0.07434763550715981,0.04020387361652447,0.039514340516049507,-0.04432794494663211,0.012684235664654908,-0.008902146498514315,-0.12999703667448066,-0.08337387794257632,0.016231301155879685,0.09304253305617708,0.04242142104537761,-0.06065353434558699,-0.11755608248109538,-0.0659350659606575,0.01135894565997915,-0.0055575047318077819,0.054469033287337566,-0.13123861781866276,0.039820913385519237,0.0010271174651469578,-0.057039819517451479,0.014683561267990244,-0.0003861433499297392,-0.007071265449816613,0.03981730656371151,0.014576495388333689,0.026035082911808645,-0.0015904476873959907,-0.015711600277140505,0.00003560592118654719,0.00008002343851878013,-0.00007819713068204315,-0.00013833086539679506,-0.00005826696526709676,0.000053963737378586509,0.00003320660329402125,0.000055470464694361697,0.000024120612888788187,-0.000043839300365235059,0.00010200043676412306,0.000039868445728052,0.00003248718866898763,-0.000011179096733994382,0.00006590426921138779,0.00011480061012954312,-0.00005807151175891162,-0.00006733825970890455,0.00005719128950014328,0.00010528263974659016,-0.0000023678780390611567,-0.000019332606024752918,0.00004405408692607149,0.00012168462566184893,0.000001234362061890934,-0.005592316508815043,0.02502603647232995,0.017095459090289038,-0.025233782985644938,-0.005667353347745515,-0.014160218552765933,-0.05003019358516488,-0.014021366946740666,0.10332442137771977,-0.09262276691441369,-0.07705043076485072,-0.051118062948002637,-0.04028647862963209,-0.026411494162484,0.005012621806769995,-0.10754031393153035,-0.09625042153133497,-0.03790155254004727,0.016655622049178505,-0.13042660374282467,0.0013352553248393612,0.08524978957569456,0.07912882470663775,-0.07912282522160938,-0.03064711417576435,0.03778607998929024,0.0398938137713078,-0.02112905363311822,-0.12747258281753166,-0.10533368039769998,-0.17911750707922559,-0.15150840737399352,-0.05057209864825571,-0.06057621940882022,-0.07619613266483332,-0.09313308576121157,0.038977740395140309,0.05223475946021497,0.04063334470010004,0.00773236659927903,0.11224138166884519,0.05207222492193769,0.000018254286779854129,-0.06534839796783021,-0.010548045753001149,0.01370151379171456,-0.03612735402991907,-0.05516055586373777,-0.015328448322242002,-0.001194416712155217,-0.0074091817520220639,-0.02575299836258965,-0.0015585945203912969,-0.002529736126938044,-0.005545902631857505,0.025582289152050295,-0.017942168120949996,0.018662102478118959,-0.05428187921557881,-0.019192105771235737,0.06432496895947358,0.004492643632749201,0.027942869079229723,-0.001847548817707314,-0.01879910673632005,-0.002206846637532277,-0.03437511292291134,0.027124619560782417,0.06251392520399082,0.011720944401868137,-0.01252099888237223,-0.025592715472055429,0.04124063796991303,0.1275558313696318,0.047357335003876,-0.011837683970389522,0.006378946896845175,0.015198717741080012,0.09947175224164998,-0.005349839825294733,0.006921538264230063,0.0028669073248438878,-0.06062058027442905,-0.05966878619103247,-0.00876436090747681,-0.007263108486483563,-0.07775058353261286,0.043988662247070497,-0.013939402531117211,0.0051345626701639278,-0.00798378363228306,0.0713130978122111,0.14948185742174323,-0.046492470198864859,-0.10195324407358095,0.03137561489934958,0.029861978836534229,-0.05326613509783855,-0.13338266277322539,-0.1202149907691719,-0.02019573772037347,-0.08264684949343175,-0.11024283224547438,0.03965582590553409,-0.036883749592633848,-0.03814667634615527,-0.08877105835461045,0.10984686861068756,0.058873711077136289,-0.025390874524316394,0.1423461337385705,0.13689525387509553,0.03694161327514404,-0.04248231786795227,-0.008062083694356322,0.07578559911475334,0.00981398904254666,-0.10472493649630392,0.05296457434242466,0.019553706102440839,0.07875432203053053,-0.13565891736460476,-0.03746533844783478,0.09627577326642538,0.06739274707749478,0.003795195312953042,-0.02810864920069222,-0.005657367168670303,-0.061667322986210148,-0.019790128237003169,0.046577601771011129,0.029048919420457468,0.08277979573137444,-0.011046387694788846,-0.024220122641570593,-0.009931279029907646,0.14392287689712636,-0.0321127137768207,-0.11286978199117792,-0.021455903652751335,0.04713629460769874,0.06722503059424157,-0.05750968705652806,-0.056591284780516,-0.000986616676705408,-0.06326691923490517,-0.06705332171024504,-0.03591431018096379,-0.01154114363606219,0.022308342883185226,-0.019820738630303235,0.0028372075715811355,0.00394060710093445,-0.00408815556157165,0.0005653018356480495,0.007372363048401335,-0.040594856977269919,-0.024751168522247837,0.013809946498576757,-0.007620619802727499,-0.037420102699291999,-0.10002013865500184,0.022887102695846284,-0.02564064580164413,-0.02758689545190964,-0.09829070313403946,-0.06869763663364818,0.041637842456985169,0.0018809159849613516,-0.08062458944070718,0.0032951233288147274,0.08282799936729335,-0.036204871108372397,-0.004451372167238172,-0.02381850766640872,0.03130801108645149,0.021179366210213419,-0.015833774622475109,-0.04383041130524829,-0.018746270743688843,-0.04282456621729989,-0.0430582295649516,0.05694869277140126,0.019563387621300635,-0.04951156909399578,-0.061700775197735518,-0.03360101526660006,-0.04063899654512784,0.0708119084350897,0.06142625007109963,-0.052613255318405719,-0.11093505804630871,0.016629931717985107,0.07414494620535951,-0.10456159325135206,0.00015865715095539186,0.04750473341862489,0.13440841039371266,-0.15008826312231278,-0.16129430992683528,-0.041211937680576297,-0.009194091664151215,-0.02094502959909445,-0.017403036181247886,0.015634984172063196,-0.0804000363640788,-0.013060302672924736,-0.14089330408208024,-0.017761536918401708,0.015671514226889273,0.14050794577829205,0.03209711462720001,-0.02961802232427816,-0.012984797040185403,0.02678127349869168,0.09400774531253281,-0.043417048103495298,0.1107678942153187,0.044333350591232768,0.010597371632918573,-0.06429983966798519,-0.03622753898143914,0.15633437637631943,0.13067211183969205,0.011203539610566818,-0.012698586380482973,-0.09350839534415549,0.004377363637393957,-0.17080440588191546,-0.09264012605136177,0.07922674818753263,0.17462039169740424,0.038356087277765207,0.06613176560074864,-0.08092762503638704,0.11007035194332037,0.04493161107106666,-0.029467222224345957,0.1098121925602777,-0.028349653710888695,-0.055481725959380379,0.047237705200570908,0.018871658158651246,0.00678195174647914,-0.03700473467893172,0.013321698349363719,0.1404368284913426,0.05663886035400287,0.007162311009267254,-0.014288674652315042,0.000042355845510097977,0.07192714102940898,0.0070296397710947898,0.27733525945797557,0.03660034770432368,-0.056931733148578609,-0.009550526884211592,0.017182617558380757,-0.016698945161509206,-0.021975711321369448,-0.03601766782261854,-0.036863380292028197,-0.0817759772968677,-0.06142749064027204,-0.07756797321303229,0.005197532638327395,0.06983437249181317,0.06831586297097467,-0.005613206545849958,-0.014115052096787115,0.008633393546484706,-0.03455431495916715,-0.029902706847419776,-0.08094199882134386,-0.05731531132705866,0.03965466279290275,0.11370354993361008,0.10440018602451906,-0.20288791185694569,-0.08288520789020863,-0.017295927308292628,0.028649107710229668,0.05490481352252892,0.01807385354278912,-0.023541749850767937,-0.05742864144776571,0.012175423134574294,-0.026871033824808447,-0.019959438637143304,0.06284353189412426,0.00741812331791383,-0.008695320332078323,-0.05359164860446339,0.0230031610404621,0.05396403355898756,0.07433015491792784,0.022890258937944855,0.04838358999075245,0.008774733395497493,-0.03227535575739089,0.02968253938949896,-0.03259108702835201,-0.05298507654979099,-0.01535981266366583,-0.006517135008550116,0.19774949086368225,0.14754642198397556,-0.0025371337703748786,0.008426487756214976,0.006029145015313084,-0.01576931640109358,-0.08218316391489529,-0.06214070365524693,0.03360092247884892,0.006519575341180339,0.004112955912992981,-0.05667301869938838,-0.03643686967211281,0.02019865637536716,0.04567177129285628,0.0020615320727274367,-0.02661230282937376,-0.09926617191542524,-0.034442638989681268,-0.03269007126232098,0.022560837627954575,-0.05850468739578324,0.10018011083602238,0.005621389350317138,0.040265603847361917,0.156494702948189,0.07657823591701785,-0.018611806391596574,-0.01352905339230674,-0.056172017788482127,-0.11892871613946457,-0.03448881194674306,0.015739483660576347,0.006750613286322499,-0.029137534068300706,0.007267975864705701,-0.05051643148018314,-0.010042187594760012,-0.12788654343321197,-0.06134439785514911,0.05062796487741455,0.017570444431163538,0.025055425001002875,0.023191882644402998,-0.02047289602785894,0.002082273716822256,-0.03445832241091711,-0.0450962332318343,-0.07513796648770868,0.09144757065459527,-0.04842597238573058,0.03474591366017692,-0.03267218200598064,0.02041979232549405,-0.0019574768583371338,-0.034747804004655307,-0.01606132183567822,-0.009667177226415618,-0.029634404374406458,0.006729621186413656,0.0050885658504435898,-0.04113116759800978,-0.010970369469309056,-0.06662237856336438,-0.028916060675894377,0.03640144464629248,0.01931005000492601,0.019338132936938088,-0.05416131703061516,0.06011037867777545,-0.00020185191961118683,-0.00007125500200175848,0.000042644461516738288,-0.000023127148166650283,0.00010583522913098525,-0.00003095036803259823,0.000026769703380802447,-0.00005125841258915643,-0.000011202451745255087,0.00016188026554523968,-0.000015799428457313865,0.0000065349671949750288,0.000005926896023072334,-0.000009672667981190943,-0.0000015503581338320029,-0.0001133859446614665,-0.00004347447287313173,0.00002106564212885848,0.000007537059881129843,-0.00008272768814243649,-0.000026744109350189126,0.00006408889948639731,0.00011414718638960924,0.00009822995070186218,0.00007416181370386631,0.002496246745902121,-0.10834483358116276,-0.020324178041582154,-0.005748522939927954,0.000053495869190878307,0.06703025899014248,0.13573439930431833,0.060870914161782838,0.011012669250267723,-0.039607745447705119,0.07428484696765193,0.06971628418495833,-0.029525778043332976,0.0417067608622989,0.04892513013279383,0.0363958943817452,-0.07215108060620687,-0.011038811130937129,0.03796245438504224,0.06587805466432084,-0.019891170280612416,0.0037795766795984465,-0.08061463738579733,0.0228501373811558,-0.005085330799256432,0.012218919642143356,0.12729810031111897,0.0962222632169052,0.030261710795849329,0.03502458142406743,-0.12536227850952648,-0.054777776764634657,-0.04244860149365185,0.06275884155475968,0.07825260778196026,0.14236244596495468,0.09483038459039424,0.08929267125289216,-0.004821044640713056,0.010729780068367355,0.12528504051686363,0.0970577044199866,-0.033804503307175198,0.00651933190343688,-0.003312245387163953,-0.06686269710912646,-0.12918394863792699,-0.02890590815524,0.0028472390483868148,0.002749949657459948,0.0029634021146744749,-0.005696580155954692,-0.005044866999173379,0.000272500192208508,0.004159889983348413,-0.011295424313650151,0.0747343461667878,0.017306621027089809,0.014174907896340171,0.006669684516340358,-0.005289828997572531,0.03640288503549518,-0.010968320292199763,-0.015672323704259647,-0.01613990449106455,0.004329455154143208,0.025281932413676906,-0.03740712865598147,-0.021079997098543917,-0.02008317112982743,0.0021456322351808157,0.06233415286044852,0.08621509253789567,0.0005558306210938144,-0.03236638894322835,0.004147730806922981,0.04297191134584382,0.057040076469620799,-0.00503523324879371,-0.04813229218132188,0.03145967956494157,0.07827085655261128,0.07532811388146946,-0.008114811023889939,-0.007298834453442111,-0.0046704404567540209,-0.053184900386493236,-0.1794757265778048,0.005565478899989116,-0.003781408913599148,-0.021823003610004944,-0.0344325200344425,-0.06661960349164586,0.057803274589545389,0.13926574343689025,-0.008330024670038924,-0.009794779526919213,-0.0024744563239102559,-0.1160623188712125,-0.015195214467614914,0.0007163067299530427,-0.04936304215793864,-0.06109901590142682,-0.04169562219383193,-0.00343720955429923,0.0272773901321409,0.0012687697221344943,0.04620678614260786,-0.05387712516072794,0.00015251395498250183,-0.04189074135445604,-0.009280435132645185,-0.029779559132788303,-0.00036886263508073796,-0.026278772361444603,-0.02793579559437506,0.04110432446748253,-0.0994174757546137,-0.0628605722455602,-0.021053777369953534,-0.007347407053346858,0.024929033820667913,0.015540585979488785,-0.04960849934679723,-0.03627714768458147,0.002391930155094642,-0.031083836329848115,0.00423334968701006,0.008104756355568937,0.020705476333876015,-0.013274363420327777,-0.12825320716843814,-0.019147127228354226,-0.043539550463211788,-0.009128916270591554,-0.10482067646264709,-0.0734099777980836,-0.03697854155732205,0.04239815044973509,0.0022047312851233909,-0.05829171856061876,-0.10394938537232937,-0.07105903319686606,0.030779011464807227,-0.014156137852055,-0.035310456708327327,-0.026733712256488224,0.01865562552703162,0.03843856411117077,0.005349079533776374,-0.011760376389283987,-0.011150201778008695,0.020475196586632006,-0.005125814780832626,0.02334240345699086,0.0802252667583652,0.09305149264255082,-0.007057804603924854,0.012077678803298449,-0.0456873219072015,0.038099099927170119,0.056141292845706309,-0.015858316874906368,-0.03822497524083616,-0.003932142588611498,0.040033418243249,-0.07968447158892005,-0.03273665138474035,-0.01840727849997499,0.048206503277779848,0.01010091581852875,0.07932666881388602,-0.06336115159154185,0.0017325649337418615,-0.026665553819780448,-0.02699738847862718,-0.010762167183151315,-0.01530321612537081,-0.017722206848767347,0.002506724022881702,0.02428300342574507,0.09541969071051941,0.07409036961881346,0.009498338378176329,-0.042482253856743288,0.05436692528858715,0.09847986435017436,0.09812026643544597,-0.0053940257801702198,-0.04105454520208141,0.09090752044893692,0.10295979158423807,-0.01001723724633719,-0.04624619033485327,0.13479937238160173,0.014543608708048868,0.09646729626565234,0.0028344955640197749,-0.021484961945613377,-0.05577085286504125,-0.012987235048986306,-0.037790574530307468,0.012116107864819582,0.0375896248873968,-0.004747764444926122,0.04488129255877265,-0.05682247060023914,0.10899564336940687,0.030838772527485106,-0.01847708209500793,-0.0022084133466149815,0.008331008582958277,0.04507635926897047,-0.03468030034125462,-0.052046793079835628,0.046836013275182029,-0.01942244652937536,0.0003045388976461924,-0.06445492912048324,0.01578279527166002,-0.018033323589501536,0.0796688987421704,0.16703014574606465,-0.07201801648893935,0.0028134092580973364,0.0119042825401842,-0.0011101863088134334,0.10080420276472989,0.05029255929174435,0.0012274129259456446,-0.0669073317797447,-0.040283930664478839,0.0731973404990119,0.0013937826365809762,-0.010207104741002855,-0.07120143707559347,-0.08446016513988372,-0.014861213562273893,0.03630408966817155,0.033619776671379799,-0.04167627954753944,-0.1226684166537416,-0.02376813711823715,0.06074839500179781,0.02045561196210085,0.019331359148444188,0.031127385776100234,0.002358030107372697,0.015947055511943324,-0.0011222680777904786,0.03303852954916801,0.0549440941697309,0.012570974546630469,-0.010367419261647603,-0.020356204718957804,0.032700704282449279,0.00598397494847416,0.009040625298555656,0.0029766328769036114,0.030889386745332045,0.01758472735616469,0.016753899892118709,0.058632095286585809,-0.05220486064288996,0.028011259622090509,-0.03261550242063235,0.07269488792860872,-0.037495380727300259,-0.012334761657014993,0.05154640591514837,-0.00583047360608961,-0.04330327442604918,-0.04328256820667598,-0.014670509135549794,0.01765490280428155,0.07125739917791477,-0.035576973152932057,0.03849442886781177,-0.06326084807583651,0.05576870673095182,-0.14146267731508356,-0.096203237875255,0.029414904644403027,-0.01254742584308328,0.04432546951336473,0.0041655759815751179,-0.047302834472488178,0.062445469476192238,0.013042739031410268,-0.02872634399334565,0.059272731031051659,0.11808605818812702,0.08709409759469632,-0.02974861491224076,-0.005350098563502588,-0.005622134915677212,-0.014164467036595706,0.005853093959443668,-0.012621242711485933,-0.0011980441353388538,0.012773687033208923,-0.008640146907586254,-0.10330500084620342,-0.04074086879967617,-0.009187153756216687,-0.05667603722595045,-0.06646433152182399,-0.05706606815052389,-0.05895590961114284,-0.03860707546681615,0.010266729120442678,0.0010790783684752103,0.0312850512438517,-0.00206716595249405,0.00011824159276631393,0.046554374164929499,0.057096827984618177,0.027077375222564948,-0.013521874980020919,0.017883512622856855,0.015075571992587772,0.0116022462244248,-0.008730762007081545,0.05891876692954083,0.0285571067076398,0.005902106629737825,0.12950733035168814,0.06468825257782054,-0.015962892150386953,-0.1997951962132611,-0.03914830774510569,0.01769225934785776,0.029715525486739493,-0.04355313595638097,-0.13075306179170485,0.051009460952892039,-0.07439052407100555,0.016826112457985488,0.054737285644221849,0.050593100467330797,0.0667705642155403,0.03872836571588564,-0.03806639949743721,-0.03225022958173652,-0.027417210614245119,0.0003235493284017836,0.02829355173427395,0.03551035438470189,0.03260011025580713,-0.0037266393905236508,-0.03172237654989753,0.07104527691434456,0.18985354374327743,0.1760119844102522,-0.028175593372534829,0.020320683956125676,-0.011081130296970804,0.07193648970327746,0.10909180513833103,-0.02557761911507732,0.031931269658809127,-0.0385368707643895,-0.04192080135190061,0.004601038939668207,-0.09980559857616464,-0.03556527807596294,-0.014404449517198727,-0.017197563361727398,-0.02988321361454168,-0.09151011046937367,-0.010552719254414664,-0.04822670796506455,-0.016499542863563575,-0.016996635022437226,0.0487306952565719,0.0001808193983544537,0.00011859120148925542,0.00001883244890061117,-0.0000644475356518034,0.000004149772411218764,0.00014962130507841493,-0.00001919549389284081,0.000015243511476295367,-0.000005436458106056943,-0.000045918874623400769,0.00004710882069281224,-0.000014301686123537464,-0.0000038426105214936179,-0.000005371860299609061,-0.0001220822771254185,0.000028413266578709768,0.00004186203878185391,0.000030999824859879336,0.00004743118570470853,-0.00004423806381488747,0.00010232653380861669,0.00009401269311075871,-0.000016446449558556786,0.00007224940907891438,0.00014145612488364637,-0.019167613826022696,-0.014909213481098048,-0.024652511476402556,-0.010720768491307154,-0.000180768780669561,-0.008928594930197169,-0.04813132007997995,-0.10609800137464269,-0.03127482525854306,-0.026675167693814947,0.0034603130894006876,-0.054819029188977529,-0.06729368726613443,-0.03273922214788661,-0.0164813024790514,0.011352008308641467,0.045640063152378198,0.058620881474267898,0.05476177847331108,0.14465431038809044,0.0486089864632399,-0.020134365629394359,-0.059301123960286538,-0.0351794930965962,0.06996372928822589,-0.04470405176726501,-0.0032913183342099009,0.03036207596623044,-0.08327915951163234,0.018338809735127954,0.06262113813819788,0.028541337051322028,-0.10187989909747151,-0.10708665131983164,0.009873234256240234,-0.01932596637855461,-0.022395195545578354,0.03756144105865996,-0.02184209317012583,-0.01532187910099491,0.004891886582926383,0.009103773289683088,-0.04662771033628359,-0.009921992639435286,0.0019573013529791377,-0.011165834163209753,-0.028195855983038949,-0.015410680071504963,0.0032581605302852585,0.006792465883325234,-0.0032665399974905787,0.00018346694103587585,0.03678529942688255,0.012859698210851999,0.0008840562156933581,-0.012642608721572625,-0.035715544233422259,-0.0042189610356287939,0.06606485595544515,0.004462935197821664,-0.006173832780982273,0.004449901933236637,-0.01773740653207837,0.0206911389049537,-0.008263516406321493,0.01925487094500198,-0.014498439510368239,-0.006173906556624515,0.016733542442992794,0.034699510117998568,0.004688764716827019,-0.03110581265536807,0.06567153463367405,0.0185663740593897,0.027198221642458794,-0.0069614561036327369,-0.007500867587678565,-0.007645293525204316,-0.07617004147191425,-0.050875780700212386,-0.02521016050257723,-0.05527235510985347,-0.07256046295365742,-0.01650324698449357,-0.07795246256466272,0.007807270008224773,0.007150431917157775,0.05073210154639134,0.03946091257052424,0.029798034533601075,0.021683093101512165,0.0670100392381188,0.06169694865661501,0.17129765310478096,0.24242202562926733,-0.0016929139772704548,0.014940964621495546,-0.035376943685342689,-0.11298847355580918,0.0186871267904041,0.0017716601248552998,0.04546510931276279,0.10219570700367176,0.05336621239731362,0.005950119652434039,0.08598142074752148,0.05031410865291412,-0.0322702500199359,0.0012088132247847503,-0.01558348609827086,-0.010983487598363295,0.041226455348543428,-0.029091638480176167,0.04410880721655619,0.03199343622490982,-0.008559073369234435,0.014214173274148513,-0.07404990536074802,-0.09342840507386936,0.0008393397831453222,-0.012874231334452185,-0.026384313781936586,0.07905897899832051,0.025322174794837738,0.04982344085079094,-0.020491799202823108,-0.0032458738480433699,-0.020950098114410975,-0.036485460041404318,-0.02980018771300662,-0.05874809244629927,-0.0845261858915297,-0.010963598875644075,0.0055880118161996529,0.03346732005060529,-0.026827656087691486,0.08410894694283028,0.03978808562971894,0.12494340277195379,0.018194178003320035,0.0576877603050758,0.09252078764795922,-0.020710443259483913,0.03880197875915487,0.01628144385536034,-0.01254128158444613,-0.06382417945842636,0.015495026081954772,0.03760351010578291,-0.010433072948754213,0.00003690136386065912,0.005474985890906548,-0.00541923910128799,-0.030583201050122384,-0.03624104766897467,-0.010615135443359578,-0.030370175747222784,-0.015199740102199088,-0.01796642922318119,-0.04203288548717979,0.015400157533552306,-0.03410672472852563,-0.02264943671095465,-0.0063869795038915678,0.009331243839773414,0.06924344027076839,0.043111621223090878,-0.023876425128219745,0.007335151023977805,0.03841389930689106,0.06356472330264253,0.009309940204173683,-0.008963308112682854,-0.004198444687241946,0.04313012373715385,0.008659121488040217,0.023996597082864704,-0.013464827673368709,-0.00434514072242947,-0.02964423420356466,0.043721697407622456,-0.03321360476583776,-0.01686481323293771,0.02455657924134091,-0.0031118076624338578,-0.0014080550013854442,0.0007036914598147529,0.012511608718397459,-0.03863388723689301,0.03616957237315242,0.03508433741977593,0.02469628358766895,-0.05743139200565969,-0.033744216730438546,0.1354372957101692,0.022608447873621389,-0.015413371102365755,0.00011552458090108026,-0.029162848680219658,0.047134743732124239,-0.012297775703471112,0.014986656710238179,0.04926849658448557,-0.004261767187087964,-0.018606486904292099,-0.051533847568681349,-0.014820930298674937,0.011034917106770764,0.0010582784180860656,-0.00596211013252589,0.00346021043101515,-0.009048965461810537,-0.022116469123988563,-0.025475308308200139,-0.02742130166401393,0.0440651135009512,-0.04175316643719716,-0.0770491205513096,0.07559390814689758,-0.002737767169981671,-0.09916477932131873,0.01763009075348333,0.03903571875286741,0.03517388595557309,-0.023627898027955276,0.03769954122233803,0.06433190623649828,0.11380813460321214,0.12444203997309963,0.1486826837602918,-0.058935896513706887,0.1159439815757554,-0.02398712196860552,0.07225792405037185,0.18208122447301187,0.00728964985941843,0.14297081340271704,-0.034606374966027097,0.025368942664250474,0.013552044574065859,-0.018278590091220269,-0.07592706215018423,-0.02745523385437248,-0.06973143672345074,0.011691476361112775,-0.010298821737233108,-0.04464935570698133,-0.07181184689184712,-0.020105375751439389,0.002561362655000747,0.007463194584105148,-0.028331657603650048,-0.17046323634256536,-0.17956029466231625,-0.103678998643923,0.013375983853817128,0.022552902442733944,-0.022341139974484567,-0.07025727198187477,-0.10133621800505398,0.016468900675153158,-0.0004372228433895293,0.11808330946849383,0.02956756047746195,0.11913098388162309,-0.002698389463539534,0.01455128353900946,0.0521306729109077,0.007523414953730275,0.0501634717356605,-0.0021197706485060875,-0.023716050371177665,-0.013531309592368899,-0.02979877538268633,-0.00885914724075404,-0.08739324054017364,-0.07627739018314082,-0.005159587222083016,0.12729795496038,0.09727324541506154,0.11876150245638009,0.07466452927477113,-0.02051740542156165,0.08081514602125654,0.03241050561946968,0.03379849907277294,-0.025077968098984644,-0.08719925217608428,-0.036134389964132488,-0.08309446247540668,-0.01109259479162013,-0.028253659394869205,-0.033887938531573309,-0.043117356619998149,-0.010357577112834164,0.0024897299183168567,-0.06600143805281587,-0.036121818581869549,0.006175356038866247,0.02718505554332071,-0.0251778434322734,-0.050069839775045758,-0.012158539703109994,-0.0029181343382755416,0.02318559078007625,-0.04102666609988016,-0.06705875617305782,-0.0576502590321287,0.05038916737801999,0.03883517072303779,-0.05934989675381301,-0.0861986333101871,-0.037047180567298079,0.025514012545860846,-0.01626513556044526,-0.037704246488941519,-0.06305487105874125,-0.05300302533274901,-0.018212922941908059,0.008513983766714846,0.09169318765049736,0.02307973362480486,0.04666011077710931,-0.015193599270168548,-0.015835361166853178,-0.03522391639074418,-0.07242176824927425,-0.008182153837571618,-0.062754350621869,-0.025667458764201808,-0.033710425186433298,-0.0526324841272639,-0.00886515072727416,-0.04176298268748858,-0.06177076458158554,-0.06225143401493054,-0.01942822313633935,0.03401513910767023,-0.06293561475891133,-0.14613048593789056,-0.014603405717267933,-0.044861772324311367,0.021506404949503317,0.0052713556362773889,-0.060873205170523709,0.04105475190824621,0.018736174845751874,0.07020058115747481,0.0075670855534744059,-0.0037260521205881699,0.021781336130487749,0.007606977179661159,0.021827090271933287,-0.052652630372433308,-0.010882665359906773,0.03918558028000208,0.0467176189294033,0.029790666380810166,0.06748341965424529,0.05125357808431656,0.03227139324619844,0.08673141222091258,0.06868645353173504,0.062295376630429898,0.016381288768094625,-0.022891012045349526,-0.010958400230204212,0.04061748475246916,0.013944565493795908,-0.022069849086766806,0.0005717299033704322,-0.006898575448043973,-0.020655431669748819,-0.03409144535899585,-0.03244260699015683,0.0001089640116826662,0.00008532081940346808,0.000012928135053530329,0.000006255237601910749,-0.0000575468488474231,-0.000014689075412691616,-0.00007223753314725287,0.0000026808347801477767,0.00006529112172270143,-0.00021010438974632735,-0.000006117559313321021,-0.00006430851405503145,0.00009190892150232618,0.00007938481828913754,-0.00020320405377435694,-0.000017658249161208393,-0.000053121394766967099,0.00004684358072594495,0.000045768044107094119,-0.000058208429806307588,-0.00010221702816541271,-0.00005508985620923562,-0.000010514218077089546,0.000053204374394242419,0.00010663928619891374,-0.002461555788370309,-0.03105760888573387,-0.04587129066541367,0.012646440653771697,-0.015988183864053843,-0.021062336887000177,-0.053579836417106178,-0.07112863041706053,-0.04328291476307641,0.04153957695167812,-0.03511901080828815,-0.04404380973217814,0.04133160157254392,0.06056948043642642,-0.05332954979714587,-0.044930981987528279,-0.07240990149218629,-0.0365948333793407,-0.0195501883882264,0.02454622305538979,0.005021837899861179,-0.036383624281512209,-0.04290078432839259,-0.014687967310626963,-0.10950095340335701,0.0024890009228724716,0.04900095179896174,0.043482627886313979,-0.02367895982674896,-0.018473408073592245,0.00441590995623113,-0.01459790326222428,-0.09011511803067636,-0.03750337405316027,-0.02274035552239594,-0.10467579279414664,-0.09743529525058228,-0.024559844527977827,0.017293856405655,-0.05988687571148168,-0.10268731071612677,-0.08520229802015739,0.03911351801590471,-0.02803659877422745,-0.010439298875170374,0.00712621439730412,-0.0039454111563390699,0.025687328597126539,-0.0004999095756775549,-0.0003832357511167598,-0.003879851610608095,-0.003962328317585315,-0.016570302502231454,-0.00479491264993164,0.004684832919679332,-0.0026446108233247674,0.018918540622264433,-0.0014178278025685052,0.042168354578070579,0.05779707267240893,0.0230865336298422,0.04420623655553872,-0.009295212960538742,0.05120764317309082,0.06597611310337688,0.06319555506389409,0.05883271827650801,-0.04233763233455399,0.021403191345133467,0.0075669347823906179,0.01127359206799182,0.03583941344180001,-0.03398075520917319,-0.05879723818717225,-0.016550879849296448,-0.007222775289128311,-0.021095733124575485,0.011112283281638647,0.034187241157238808,-0.009902349772050932,-0.009725543983984883,-0.0044007973949864698,-0.0700318514071149,-0.007912778263027703,-0.08210117178835749,-0.0004952396363231504,-0.01612904901209062,-0.04158238372035849,-0.024912765607367227,-0.0516500279943257,-0.006929221014261102,-0.013810006699426083,-0.007203478377112705,-0.03116770291103496,0.009147518425170936,0.01837363808068517,0.046806470008485468,0.04589644177805896,0.05790067155532724,-0.031428729059243199,-0.010233743444346327,-0.062002141338778859,-0.02509120826273787,-0.000026195617225554999,0.03648240471169105,-0.03377615039291172,-0.0032999574998085407,-0.024820883869969998,0.10961572218508536,0.12345641690226383,-0.03592723608841962,-0.0026974392449414846,-0.08470680519272177,0.025809610530465506,0.033655034683261007,0.11631756315012637,0.09367787967083874,-0.056319148363957297,-0.0008596999532794251,0.016111514582543727,0.014768752383650188,0.12596823194573907,-0.057750480798830907,-0.09091736221994279,-0.01986610116405772,-0.0057421184531834669,-0.09241589712307279,-0.046068513114375,0.0012206149362339007,0.01996950317626578,0.0023034251738711364,-0.04323127238845139,-0.019662511382674848,-0.012181200267123124,0.013402585658612071,0.053641581010149087,0.021770079297651618,0.021841949810910666,-0.0606918444354225,0.013240631801780173,0.08573844932147787,-0.03956126340952161,-0.02274004970126523,-0.06348491776611308,0.0008116561871330826,0.0883502320342631,0.05163558046503695,-0.028642999211466355,-0.018473146966719629,-0.0008251289502678745,-0.0016566775301570412,-0.021260746629764926,-0.02237689256192084,-0.012518618443827085,-0.0003694767685214829,-0.02012079188784829,-0.03974644431721766,-0.03548056030869684,0.001775011923361716,-0.014889481156026149,-0.03675935531088323,-0.0581865756540937,-0.013890479459046089,-0.008965224927747965,-0.019085679553275875,-0.04871409855020297,-0.06271597696643562,-0.06752646745954796,-0.017594013042533976,-0.009757771749269338,-0.007375897940331593,-0.0009944521351457118,-0.01010846228493995,-0.024315107929336483,-0.06000993086043338,-0.002349947036106721,0.018263948236519876,0.025602450766964995,-0.020532725487918826,-0.04258194095704209,0.01333263341932783,0.007198412409400773,-0.06358610850724603,-0.07703093447596676,-0.05299013886506588,-0.014046207438999826,-0.04588124264255381,0.04009605330967948,-0.041957730513579229,-0.05300548223583417,-0.031079919833081339,-0.044294348605121939,0.0098274417216758,0.0494125034883132,0.11652497173784719,0.0063445218149955399,0.04964516026032139,0.07913183094243838,0.17121257224894449,0.0035783116105853978,-0.027689907012331373,-0.053930668552007936,0.03173520123059018,0.007769246343060523,-0.028087995211770895,-0.04568176053530599,0.0022547793559325,0.17424221179465217,0.07913853530363545,-0.01844778279934374,-0.024928442060015635,-0.01779101233692335,0.07257348078148006,0.09344465795244943,0.021163238323592166,0.14808568275925353,0.03970707542423804,0.003147696565978795,-0.0049156086650727699,0.04779218833267852,0.121355766169246,0.029316304482719704,-0.05739385596799201,-0.024384783549581129,0.0009431488515599747,-0.019605110490577634,-0.036888086113638137,-0.023432576068611427,-0.00897383415186569,-0.030726869000698415,0.09917700009305033,0.12916765199239567,0.07556154912903632,-0.06005032450994841,0.001630006522463394,0.1274238598996926,0.16291005351129562,-0.01698623545891246,0.027192707796223148,0.0810292154222007,0.07525120052742006,-0.014164924915659355,-0.051628507239408458,0.10842168949438086,0.04143260557738892,0.011786209742257146,0.0003040990652447321,-0.014854119364175642,-0.04926779899857877,0.027079676547002074,-0.005975469882698747,-0.01761110932568088,0.03170887272383569,0.01293210117078089,0.008116539146759134,-0.005049792029650493,-0.008270678111436914,-0.02553407285425606,-0.0015762095561120819,-0.017383400424743225,-0.017023369353475077,-0.07332243148824627,-0.08991608354114651,-0.06739607192951425,-0.05387406560450505,-0.021553192384364426,-0.014422858892878638,-0.06611927887168073,-0.0617932400871815,-0.04448296645631894,0.007451469368138046,-0.001082949855456342,0.02986381346744472,0.05112352303136935,-0.03130321634770777,0.009702568899485368,0.11001898669980336,0.024689195362165317,-0.035461297477484287,-0.07585383287039425,0.05023158687321372,0.061536878834986426,-0.053003727003460659,-0.05076908932272138,-0.07712656908208186,0.00823674573438988,0.03339244847390078,0.057083406325166789,0.16616543351548286,0.03355418494898058,0.019695993143401377,-0.050629348438370917,0.04688373960223083,0.01483368412585871,0.0754144544026567,0.0012195089271081644,0.0004378447034092537,0.009826363073128272,0.030270599887021876,0.05235594016823833,-0.036477899180609649,-0.05441857638085483,-0.09382064354020321,-0.026760614508030423,0.059261049838329329,-0.06731720382954527,-0.1290995164267847,-0.039640263634033837,0.03163076575583084,0.07220887962306924,-0.07596618596676316,-0.15088386182393807,-0.02726066171562235,-0.01908134895294196,0.041382780193985588,0.02050075073462163,-0.13508694338399267,-0.03399874244846095,0.02345537505063155,-0.02649492655669557,-0.03977018295914952,0.05567168267305079,0.15832284730600347,0.049511118944064177,-0.012224726073123426,-0.06725752308469178,-0.08416966901012414,-0.09518505058164166,0.01641235793556671,0.018483844409263249,-0.10991079502536824,-0.05850443924432119,-0.01709224022026814,0.050507973115762137,0.32314571069052347,-0.0850975889142599,-0.08029417589357964,0.015462196226954378,0.10229572871899527,-0.05433114926958793,0.06871020200724781,-0.031044747109004526,-0.05437804382671394,-0.06553811121855462,-0.10134644183871351,-0.09537474661900218,0.07237915659316369,-0.010008475964864922,0.0068472417279592519,-0.03359094853016413,0.04090117377142673,0.07199284895298415,-0.0052757866383047699,-0.082146890142744,-0.2427729268256784,0.05625618362182519,0.042765579584443439,-0.007299606318419401,-0.05240268936032461,-0.1266587398973835,0.0548714048324102,0.03882187170773611,-0.0016710343339659204,0.034236244138918219,0.11520711295378264,0.028695645952005027,-0.0471074627677325,-0.010214981378775324,-0.027181463415909686,0.08474540322579075,-0.013390607206532356,-0.022015086936250956,-0.0052337992330600238,-0.06105286981207567,-0.046811118841599028,-0.000008342547499262643,0.000008304421448656638,0.0001447764438710404,0.00010500050736293727,-0.0000022155227194581689,-0.00011966448679004879,0.00002144832828802503,0.00003128743177909029,-0.0000407889344845773,0.000145466403676047,-0.00015120103563669393,0.00010409273398470965,