{"convolutional_layer0":{"weights":{"numSamples":6,"k":1,"nr":5,"nc":5,"host":[0.013993133011670817,0.16304646445460614,0.21168680008846969,-0.00012364324146750967,0.1918277376048104,-0.060711702186091797,-0.2693572373826147,-0.4756796662780349,-0.9081652047798294,-1.3590523760315117,-0.4336624919707191,-0.7100019624471595,-0.9745317361443504,-0.7219398813791352,-0.949778688363301,-0.8505132491353563,-0.43794958091629496,-0.20825514090742815,0.06819985405834256,0.4013507632129501,-0.2960341656914379,0.10919296895696273,0.2698014783905225,0.581920953130701,1.5137313291483812,-0.04136471571677163,-0.29405761446699887,-0.4178814457264825,-0.030664036179109824,-0.019888984392327295,-0.18366532149164178,-0.5386267755657833,-0.49938603261391575,-0.2084330893258446,0.6080229742782083,-0.10917301994711105,-0.3597917358849224,-0.4197305462965599,-0.32626043127179429,0.7780081400770891,-0.2707443435119498,-0.41544971541702277,-0.3966876398515425,-0.2593608694158942,0.8989432173938088,-0.010576173246578112,-0.21173702173391163,-0.4054206567694083,-0.4516829845754793,0.07558128690562494,-0.012029694209530769,-0.010663706627719871,-0.009069376195679729,-0.009869304463867987,-0.010088036287146515,-0.008305583354016478,-0.008113657229598112,-0.0056912811210162749,-0.008035690650158087,-0.008754111883323077,-0.00696747813826052,-0.006356668179478351,-0.005531275940905209,-0.008929391492377153,-0.01122879859543902,-0.006545725036412886,-0.006647135335554704,-0.004785092385631298,-0.009636238192256737,-0.00902025876158526,-0.007352715635412875,-0.006603259990646637,-0.008044327543568469,-0.009838427398093999,-0.008328755587928725,0.1680723151770787,-0.7931565418145463,-0.8963437295400619,-0.4570782259025514,0.13042567693033633,0.11288427939943249,-0.6271097128709029,-0.03578142816027095,0.3477643119042536,0.7303295640236804,0.4240695390919562,0.8689903457189117,1.2594276425766407,0.6711443105075269,0.011427324062754445,0.1349024732893219,0.2456624466210806,0.33632097841926597,-0.18602105854454377,-0.2831885336733851,-0.8700236446570351,-1.2202685383342809,-1.0369118120452484,-0.7671390599769498,0.27393286180299566,0.15898556848814034,-0.07667004336016581,0.10026372306616109,0.5431279713947853,0.8463547593976739,-1.4932680672210657,-1.3859668186729449,-1.1334402986450028,-0.31162039577378738,0.15070234693256236,-0.28091296450895839,-0.6703179822130764,-1.0014835473611446,-1.0493001932181976,-1.2226088517412688,0.5194979602416978,0.07329008150230922,-0.4399984139222343,-0.048386370461758459,-0.5284208555540927,0.6696752378470845,1.4475857712734793,-0.17967174403050679,0.002932774705159047,-0.13099296307035977,1.2461294562819219,0.970594128530638,0.8500017874072394,-0.30253717733097448,-0.8572894973265922,0.6157510192229309,-0.0523186747985849,-0.21759044905188933,-0.4671787461056292,-0.4459971440469463,-0.7087197642153893,-0.5545565788185748,-0.736571657084583,-0.5789908873014096,-0.38318335739180656,-0.681746163113945,-0.9412270992042257,-0.627068275276496,-0.5449267515569548,-0.3556985720536343,-0.08693182184219987,-0.5598636883650248,-0.2788103166622385,-0.26785293047865346,-0.03998004657549031]},"biases":{"numSamples":1,"k":1,"nr":1,"nc":6,"host":[0.005610417313954356,-0.3959066440718718,-0.05962831353483477,-1.0266791362630064,-0.14692414473243665,0.04662462619418118]}},"convolutional_layer3":{"weights":{"numSamples":16,"k":6,"nr":3,"nc":3,"host":[-0.29439625911445957,0.01579076512382917,0.40794096551926486,-0.5305271756738613,0.4352130118575558,-0.13020144712434623,0.12301807780559769,0.7411841986562993,-0.3038367043718125,-0.2796979249148661,-0.017475325901104185,0.17917636019796649,0.010717629829359359,0.08512619362462394,-0.14710923299625076,0.008397798054540521,-0.011258236003289513,-0.20473653897226985,0.00804153219302054,0.01163535991633437,0.006977299199068547,0.00821474368329668,0.008569465074489844,0.004295327482382916,0.0069408757114329069,0.0038807396086761468,0.0014896334849958313,-0.4723390625532547,-0.4613211774633898,-0.03234865035897006,-0.6830818637899827,-0.42015103019920749,-0.3130073280977735,-0.3052498301495078,-0.36859779340152618,-0.31933117052215928,0.618907388696716,0.06796831702374474,-0.4610723342514444,0.05155578277510506,-0.8673475462143695,-0.17391532114901779,-0.024347440583193226,-0.5227360486616088,-0.6504240565766687,-0.31590066719604145,-0.36193936077006086,-0.6915204092211709,0.14893368714481848,0.005834406910276769,-0.21853910949923739,1.050811628047506,0.042805669885301999,-0.25541129245597407,-0.3281166439915364,-0.7111540456123551,-0.7530055246667349,-0.0721513390075759,-0.49779350965705007,-0.6036976393744179,0.7796270110377837,1.1440465483489422,-0.04299685634705697,0.43751729430104688,0.24742916451953729,0.043323428487900859,-0.1894955373964197,-0.2766486071377427,0.0020759900563569134,0.10726795236287264,-0.08429285281599718,0.03494058078100302,0.0049659986184813508,-0.0001710786323307461,-0.0024053572795101829,0.005619366743145832,0.0014251442156825549,-0.0012771657508231776,0.004991194363732916,-0.001192944503616996,-0.005647862824561977,-0.0010252914536725787,-0.5012551445511956,0.1624183335316116,-0.0709081956380177,-0.052446988382260157,0.02341326496332485,-0.19199215367148637,-0.17479765124021275,0.15245893398485589,-0.17956330254664747,-0.000679216551257902,0.317421874501998,0.24782037828719095,0.0925393532840645,-0.11818340552759425,-0.28970206306329146,-0.09219333717621828,-0.048076352579632847,0.01632571503842963,-0.18563413224528467,-0.0758542137636082,-0.060542921497037837,-0.06744707428512255,0.326951392296344,-0.34345668976791518,-0.21624842556095148,-0.027059047715397589,0.24171104318466267,-0.09738666974815641,0.1311214596777601,-0.34494255039897717,-0.23989978677943173,0.7122998182252198,0.02691340849748343,-0.7044799983162355,-0.32959725689634336,-0.10910152142153289,0.0068758620709854089,-0.07246132603954486,-0.24783347906467094,-0.09013317497273586,0.2652849838456596,-0.15049628614100614,0.08638376719797798,0.23987332361273423,0.002352702614745611,0.0035195735449745307,0.004620798813333211,0.0020757850975725645,0.0054570521795525,0.007370156896968905,0.003451217356057269,0.0037742278617656089,0.004623333143436126,-0.20818147199995264,-0.20129151267323984,-0.08321991595353164,-0.11586785745353169,-0.3864025879834264,-0.20066038584814203,-0.5797341177079013,-0.4199475203179833,-0.20196909471972586,0.10214581402918506,0.316521265396142,-0.19877779764928084,0.8558976450150201,0.2130055967129377,-0.6266911893163676,-0.0016811043250970454,-0.015901517366538947,-0.4434153757736286,0.04703831902928757,0.23986663574985413,0.09985278804009491,-0.25040790361484258,-0.17529835689771604,-0.05611452114111966,-0.29314774956566827,-0.1790967509935102,0.09788000202683268,-0.2444680903838856,0.7894405578708228,-1.0733922458761789,-0.6834424082896072,0.274331576230738,-0.7553489303037195,0.14656694048551686,0.1909247394175085,-0.3232238972428677,0.02581414400416183,-0.5444586827820844,-0.7001193673588411,0.27977994436962036,0.07930330636994973,-0.32197421117161237,0.45085536277009688,0.24834440149235885,-0.1713212711337412,0.0008596260959853005,-0.0008538095138564625,0.0019781632381056268,0.002615797715702557,0.00041947243514801034,0.0026223848632745867,0.000695331882854715,0.0003804401859741361,0.0011116120141512192,-0.4642817248257787,-0.1440334304337411,0.11326402566280086,-0.4713076977545604,-0.4130621649102003,-0.747060649627617,-0.21214886189068414,-0.6796973207739505,-0.7124456295398753,-0.33706106890824585,-0.748097696802768,0.6196913354572879,-0.10330078490574366,-0.8973665377484248,0.6859870829842885,-0.24715469689373924,-0.4709242149097661,0.3909047951615609,-0.12192320208285168,0.07287500250999003,0.06009258784507208,-0.059450495688348408,-0.1124127937037625,-0.10963072092475282,-0.07605249874554672,-0.23668919084171018,-0.21384169277996532,-0.643064036263222,-0.94962958867018,-0.4500089290468252,0.8366089394560963,0.1290106208475499,-0.750593434518152,0.36846231061801407,0.19553938561367849,-0.08781876487557469,-0.2928110048986378,-0.6277527821752433,-0.4885329270340355,0.03864437223716156,0.23161720418654295,-0.08497974712087639,-0.23757500905335314,0.46799732493511417,0.07333679398283281,0.0005278834511279822,0.0024537036448619776,0.008150327342121129,0.001162508485839731,0.0044338761711542359,0.003170166252284403,-0.00022505265158104918,0.003033277174020902,0.0005590447825896034,0.12120189588622403,0.3930357380768632,-0.16138064922637355,-0.27200172618614457,-0.3398767577007803,-0.23130368602512439,-0.47113609686702148,0.2602850159043065,0.15569781710227763,0.8019327609456233,-0.2222501602506893,-0.21158670644198752,0.5509884354865107,0.18585551273530916,-0.8990552573899253,-0.11014077086076579,-0.2244737544563416,-0.536472499323272,-0.17676333029999825,-0.15968228005266572,-0.37077554384298336,0.10399176107787305,-0.39600341517895018,-0.6707164327412735,-0.5205330306550969,-0.29717002921393778,0.42438834195102195,-0.0620374609832923,0.03264131543879237,-0.06354450560458967,0.08028626342992726,-0.5936528241792981,-0.18426044924809863,0.32033503161426138,0.24498863819278916,0.25329702082603508,-0.14208942026496178,0.07883460556106034,0.47452568307375439,-0.19491848414728636,0.052272290752894367,0.22785508405837849,-0.3990992940186353,-0.5798566223700094,-0.7931390049047906,0.0030287028481014918,0.008059789572215169,0.0016134900816341784,0.006803928285082401,0.007865936086376745,-0.0013663966921764477,0.004173173738528117,0.003807894338870631,0.0005515854024157263,-0.4141536226696905,-0.39271434973346849,0.06934200385742753,-0.26425970075904928,-0.2164769007346132,0.008078722785965331,-0.30048517990863279,-0.23319845301809348,-0.4230524917460171,-0.32149572937861367,-0.050409057053707909,-0.2368264569507487,-0.3914245452024562,-0.1468891073980937,0.14955610456325545,0.37992243487276269,0.8347976033594692,0.8063570149087217,0.2744485163182078,-0.15654232257563545,-0.42081042429935369,0.10489350455160149,0.019369038921698547,-0.2636075997979914,-0.4241958988360121,-0.3547482401403636,0.025623046297817418,-0.14504142171188889,-0.5572950779959434,-0.1094964522014841,-0.31424915012109946,-0.25055297067059098,-0.04753377449052405,-0.3573578033783404,-0.3210423269832414,-0.4110963874247539,-0.11326978014993707,-0.42985954811971019,-0.2907871203495828,-0.06123965555461288,-0.17219200017242654,-0.16536625674959619,0.5150047418028053,0.4179499595491623,-0.16012925031767279,-0.014574285379758764,-0.013232149154675617,-0.011301670036446936,-0.015019147265847546,-0.014601392302020513,-0.013548991606524839,-0.011707975164120649,-0.015145513305645826,-0.01270376706380554,0.6963970347672203,-0.2763278532666333,-0.26353702292656358,0.27649044616423876,-0.6993989418708084,-0.4234274680181381,-0.07575122792564308,-0.05047097352609205,-0.3539218854598935,-0.32342687078729889,-0.5011724910114381,-0.980313452528971,-0.4265170488662364,-0.32855020593086289,-0.20985353210834443,-0.1789697742303127,-0.2720504087995253,-0.26260922654273147,-0.36605757548573988,-0.2817798777400969,-0.1620652008149404,-0.34018442105049037,-0.8193448461911547,0.27236814393276445,-0.20397944309190337,-0.6142053253354204,0.21366585591443067,-0.030491392023977324,-0.24623641803274375,-0.009948312500737343,0.08164833621165498,-0.4301225602912123,-0.5129057172396052,0.20096020483046374,-0.254663880071308,-0.2935443690898813,-0.09730967086722146,0.4197385483902253,0.413461793086196,0.06547453985385082,0.40078230988285487,0.28860248586742456,0.07127742947651351,-0.21725728828645766,0.6873524680495641,-0.007383297652320929,-0.007227098744284016,-0.012039693313391536,-0.006948859881878288,-0.008073445384102126,-0.011932768657962253,-0.006466055373383765,-0.007931356062881709,-0.011950109158259694,-0.31159271951706227,-0.21501788116661428,-0.19740207110195499,-0.19858652593152294,-0.004922456726725474,-0.2255249008078426,-0.23910292480929749,-0.352965838508967,-0.010682614221847742,0.14218665198453796,-0.10192925928843151,-0.1860742669253129,-0.21148953072613023,-0.16077777450844323,-0.3193873244356552,-0.41068760941030565,0.10861202194588415,-0.377826584445183,0.8012923021911896,-0.22433519149165863,-0.4770793513158969,0.3507807695008789,-0.06593558746270725,-0.053706976078200758,-0.17174988439948728,-0.27225574537495325,0.10519928163301418,-0.12555405150914879,-0.13471311222541078,-0.292272190329172,0.18868975794262286,0.06879579266201226,-0.2304936663833312,0.112441199306158,0.07949630935391691,-0.16743600949660446,-0.010546186249583865,-0.19880272213516837,-0.2732075683983085,-0.3351542774545477,-0.1717046416112934,-0.07811269140933655,0.0049188923306012649,-0.06090584410738071,0.040989340850298549,-0.0020088755384749807,0.0012096166271249423,0.005668943484778523,0.004460769107523432,0.005808551692988459,0.007285167845701658,0.0029016722446339249,0.0034873764569052815,0.0017614075001852067,-0.09596182535526554,0.3125574611696685,-0.33702052372352955,-0.0991270030388765,-0.22827387385843066,-0.15888788365268867,-0.31630497096131018,-0.608616560024339,-0.43717474709833556,0.03855750070427012,-0.2654108249258655,-0.18382039914574617,0.15571598324363135,0.29650113350469128,-0.31891662486629326,-0.11536961711709551,-0.1989344649788454,-0.15981996289398574,-0.06747958721955386,0.6937971417725739,1.5504732855970017,-0.8546294603632837,-0.3594482575865263,-0.3481749862514459,-0.7425180973175672,-0.666988381079621,-0.5185050686075036,0.8284604874028816,-0.2161267856770087,-0.43334696511498035,-0.5115948230928451,-0.2076739298641044,0.3385496068597741,-0.7949978948713089,-0.26560495694930449,-0.1627823859565846,0.11883109426537357,-0.3183217156555604,-0.21564035543109107,0.14823442507672847,-0.1289745788352106,0.10254469186544133,0.13023744092103893,-0.11159383401002185,-0.2986225860044405,-0.007078841642921453,-0.006795150884906705,-0.0008802052175174385,-0.010775759482478016,-0.008718857464346612,0.0006972284094711452,-0.012095514084351014,-0.011564909167393889,-0.006715356146260027,-0.43052935310551618,0.11978941781512066,0.3696924385804347,0.06752341003356156,-0.14779327569068566,-0.7969498520191845,-0.2934989424583537,0.18012922764288784,0.05146323236159681,-0.12378046618924708,-0.8791355497946886,-0.6560582942514162,-1.0871944350463428,-0.7778718953355417,0.4663244726246609,-0.3254044514901972,-0.123855587983255,0.5960002069491055,-0.294454196310807,-0.17584234032975375,0.5214029133438006,-0.3281281102018467,0.18395783710713763,0.4420720367456125,-0.44788293813012339,-0.9406868997931175,-1.122934358753513,-0.016195671499238365,-0.015548726992172453,-0.01706025775265536,-0.012560141511694467,-0.011728983344068968,-0.010092538078539737,-0.016108874124870784,-0.012008160426990131,-0.02505437496560324,-0.006594694348300146,-0.010886460216223165,-0.007721139241001582,-0.002584961557405112,-0.006677715538510358,-0.006171946765757345,-0.011381359433493914,-0.01167975837227088,-0.012014036265313333,-0.0005225340913439429,-0.0004752981364125415,-0.000417089298530565,-0.00042566870118202366,-0.00038930276695536543,-0.0004272305335280851,-0.0004278331714140363,-0.00039516817586272515,-0.0003708301075539859,0.0033876606006636256,0.020087396266135268,-0.000977475338489963,-0.0018207621661691012,-0.017328423843076918,-0.01155483622680761,0.02046363232217391,0.023009031665563927,-0.011087921840026523,-0.01498474205469038,-0.01664672185701145,-0.008003525507622315,-0.016949803009307365,-0.024059308037761668,-0.035661778501914067,-0.023396691705112675,-0.016812648352041855,-0.016495042181611725,-0.02063728579321423,-0.009246705141267952,-0.01870888338011467,-0.021805385820831234,-0.02149638867599474,-0.025152711962678176,-0.018808450620581689,-0.019451145140472478,-0.025492667626367459,-0.5481483413514002,0.2995389432763566,0.9657253546765183,-0.779148735754827,-0.6389229055628047,-0.1072135889317404,-0.2072652573845657,-0.22067114211839798,-0.19359196562376053,-0.18217227798853587,-0.32786089552066297,-0.29870447656643625,-0.18774381234779337,0.17923374952638836,0.22803658917639267,-0.2206136101572273,-0.4869306454212431,-0.536141641589044,-0.007441675826469936,-0.004376632313007384,-0.0033088932273953655,-0.0060930260158663959,-0.002940488889897768,-0.0059536550025011988,-0.003591315207133011,-0.0038181965645749658,-0.004968326503156521,0.029542054129969208,-0.13356876184262618,-0.11738489873517,-0.17123875498924685,-0.4436199327128926,0.14577438929020537,-0.2628293392015905,-0.06553142977742795,0.5198281384480502,0.07196005201652896,0.2749355722878621,-0.047195934084930887,0.15473742112879877,-0.29330090907487657,-0.023445284518652567,0.16842820852785032,-0.23404128581369375,0.12229455286370657,0.14574825879327017,0.08204882161597808,-0.036920712949405649,-0.13177935317320337,-0.06571586534619652,-0.104864179646031,-0.24694594093117568,-0.2060095758256749,-0.19986156267902098,-0.653547145003776,-0.15313426122654215,-0.20261779803746786,-0.3927923150183888,-0.10947620508224174,-0.09469614568100916,-0.10741243834400036,0.0787808297692081,0.0009125865694460973,-0.19710762078015676,0.40265382237130045,0.05077776048887881,0.011563457777612384,-0.16385918009664914,-0.28349256621441096,-0.10950681704547674,-0.28598674879644928,0.0905212782505985,0.0005786016545705552,0.0024327284411654918,-0.001051522004773673,0.004690452500832206,0.0038164613578879436,0.0023034576381270514,0.001346573495754227,0.00341689624433329,0.005565699236735062,-0.4115296304414374,0.06102807203017245,0.8430340702448289,-0.8321511359450473,-0.24017071401586913,-0.11794105662748925,-0.23424809867940472,-0.22638877292942267,-0.4251085451507585,-0.1435188406817736,-0.17165928496191805,0.0029774466213266517,-0.029841130798085218,0.4835815889699609,0.12347850069165535,0.028825759730595904,0.03533687028829765,-0.40153325435137046,-0.027083097388187893,-0.23699759014307587,-0.5433399121486252,-0.029203866027551395,0.027716282826782347,0.9781141921118366,0.032964296839396878,-0.5066178230129272,-0.06762940594051173,-0.006159907713365733,-0.005940724333470341,-0.006105020836502896,-0.007240054097642018,-0.00510930793510823,-0.005212244372442494,-0.008722891721543943,-0.008388032426852576,-0.012515921814907958,-0.0054852860435195189,-0.008205346794205999,-0.005180876438398823,-0.002882027718261511,-0.005927240490992248,-0.0013137276219732208,-0.0047134396549287399,-0.005484768365002308,-0.002336043338274044,-0.00014155584369923184,-0.0001816729841460173,-0.00019071594181426378,-0.0001397920526824324,-0.0001833075665969532,-0.00019031033757006564,-0.00014567077083108162,-0.00017917000963677833,-0.00019026851939970502,-0.0025847910422766757,-0.004999266313556044,-0.005256494938929859,-0.005608934573169121,-0.003604861476437058,-0.005768045274959456,-0.0001714273523937401,-0.005037969410267015,-0.007416225051156884,-0.007918324139963657,-0.008608863122150226,-0.008850791075985755,-0.00867616213683766,-0.009238673766295579,-0.011560432975339623,-0.009708013336608306,-0.009110747946331573,-0.010052239461633672,-0.011492527217013256,-0.005327242079803551,-0.0054409138592310889,-0.0072427736104176709,-0.0052453016967937029,-0.0075852789416925889,-0.005922896044865605,-0.006250991468073039,-0.009674951331160942,-0.6935854450811841,-0.5230870110523551,-0.048809616090388138,-0.11783658443424738,-0.39442100353381495,-0.3972900907411447,1.100791866492622,-0.5270694363586037,-0.16633847373243458,-0.017894305394117559,-0.16586764866698515,-0.06593971340373396,0.1747453963884932,-0.016803835685231824,-0.16094927548354,0.10626853217943415,0.18692937873420838,-0.07862902388442615,-0.00199339989114051,-0.0016343572323282829,-0.0016056112380350738,-0.00038467117726085666,-0.0021808713489614788,-0.0010240721578517157,0.001688288883957207,-0.0007015561065325182,0.00008128023245399877,0.16563833470966195,-0.23088371885768528,-0.19078508084437585,-0.1633948620212243,0.0898792866499712,-0.1936709579586865,0.05822353421095352,-0.1436200084627835,-0.19336578999589403,-0.7654344745141749,0.2501824627855335,0.6020344158051751,-0.0368425270224069,-0.29015893908516096,-0.003833689714818737,0.3324991437403582,-0.37170684031610859,-0.6920824418146595,-0.35460365961568288,-0.19898635450141914,0.11965412787785312,-0.10401004397175275,-0.19999172673360947,-0.3889267356736582,-0.14496099992154139,-0.11557796642666932,-0.2848374412051859,0.2585169942034702,-0.5210434388419362,-0.2700213932643,-0.3850097476174621,-0.6162332508641263,-0.43589880369500158,-0.3719269514172987,-0.13799725574076186,-0.19045818475948296,0.5075967127170716,-0.13159437411673076,-0.11374718182913767,0.2063511401616573,-0.24777340009049104,-0.26907981837934377,-0.12446105930597644,-0.25109933955430899,-0.37367651821854477,-0.00414848927844222,-0.005930296638182641,-0.011070500074250086,-0.0032178867057161386,-0.006025147537558035,-0.007726745017658095,0.005258069007867211,-0.0018699729482578342,-0.00394236244337334,-0.33360459052103266,-0.30040921307618159,-0.31675489459288377,-0.15684071511769993,-0.5180449025611962,0.7209734719578231,0.13333658843498207,-0.3954700194498294,0.9953572957293179,-0.5396834785583813,-0.7068837221591817,-0.619778991651154,-0.003590136920379768,-0.5905070969943146,-0.19058266812906567,0.5412532114433377,0.2813267093001593,-0.11792325279137139,-0.28829282100465877,-0.32911353803348905,-0.23713945178711566,-0.2790525800014112,-0.3002140088735984,-0.4639394916894541,-0.03436422841574802,0.07554443614681214,-0.16808216086632697]},"biases":{"numSamples":1,"k":1,"nr":1,"nc":16,"host":[-0.35586374743199958,-0.6642561061203659,-0.4800295945439214,-0.12486808962943914,-0.033939826835435,-0.35511237983505547,0.8833113204669361,0.1691612702542772,-0.2982586798830742,-0.23594112141881433,0.05622128757003405,-0.5270230138688025,-0.31855757948968718,0.026753084096223645,0.17419793824240177,-0.01696953393549258]}},"fully_connected_layer6":{"weights":{"numSamples":1,"k":1,"nr":30,"nc":400,"host":[0.0002525387716005927,-0.09421661636536369,-0.06263730815891254,-0.267806103605388,-0.29637501913828825,0.041829977889244248,0.17639475201649108,-0.045367943831663887,-0.2750496635807617,-0.35260957503712467,-0.08396720477866855,-0.06040324369639199,0.020889199214729278,-0.11483904485019184,-0.08896792066326612,-0.18400036316354757,-0.1024673315632779,-0.029128768023280236,0.09680520323430052,0.08150183442033755,-0.060094630784195909,-0.15824596929364646,0.056200758484511569,0.314341702389386,-0.06795295840131521,-0.09689024542808075,0.050114853213894017,0.08331107699708422,0.26563699848800939,0.20194486449532299,-0.0530154699906612,-0.008216727029060624,-0.0013404353076171018,-0.06255787102123371,-0.11206017519422744,0.05320528882076776,-0.25773546269800148,-0.14390823960232425,-0.23228105987424856,-0.06723429684453079,0.11657709999842929,0.13146891808586104,0.033122073775712249,-0.06531280515610669,-0.03618542713926508,-0.04577244558964134,0.12664721681584346,0.004324856146865836,-0.029544193039072927,-0.015868111677362484,0.07965632542263976,0.06327224734067749,-0.0020401501590229119,-0.11339582755309705,-0.6362159940745323,-0.10020392763994568,-0.1310573063158598,0.011824802311873705,-0.1375257349753687,-0.06797670053151703,-0.014475891296284207,0.05695029978400933,0.0005682721777619013,0.11364876083084409,-0.09491770108462219,0.08178191590008256,0.08142873390290646,0.04981711482031616,0.11195628837791549,0.03914760334271078,0.15747613998306007,0.053399575218394,0.1071047852332936,0.020731248199552397,-0.021811547923813618,0.01486549124400637,0.20548775788086236,0.10951560589989541,-0.12889208972955167,-0.061403906079709188,0.12288453330741983,-0.02679005767140733,0.08813899877289838,-0.09073130399062171,-0.06919314342618552,0.1949515630376752,-0.046402333477663908,0.22851643280544937,-0.04918410167355174,-0.07979582730703858,0.29788655114280529,-0.009229708658377068,-0.0663278531291815,-0.08424407320173559,-0.00846165177368542,0.15429552823416224,0.09471560691176105,-0.11215218334769509,-0.0876529834586719,-0.005984160114734986,-0.018801388757370444,-0.006821030793125439,-0.2214482563792771,-0.2765200001948339,-0.5641549682158773,-0.016950114816219398,-0.12904465631385368,-0.40596805018733686,-0.4927913346613564,-0.30306369608340336,0.028129636014407469,-0.10750370453579725,-0.25248308202144756,-0.17084123736162599,-0.07388482888079859,0.06899774686102103,0.14820080693342919,0.27451661422175235,0.10238911773143236,-0.015873031465893609,0.008922923591435277,0.10284511351053243,0.2396344470977439,-0.008698111178321757,0.04090483742136235,-0.1853797255067227,-0.10550952110614677,0.19808117666724876,0.25343325034929606,0.3402939575917136,-0.16588729197171774,-0.08705597840429254,-0.21731045519559803,-0.19534545808735533,-0.21509635833761826,0.12491993707611428,0.07946272772325038,0.3124752243925783,0.09925477707981381,-0.12381290264942951,0.19100479181851053,0.0503918215637817,-0.1111651217605598,-0.02374135454618384,-0.026267611909842848,-0.1533321156007083,-0.13144322191253425,-0.07141621929916374,-0.09706315935198368,-0.007913491417477993,0.13779274873001627,0.09035486180150859,0.04184550323453909,-0.048854508350373877,-0.1439364324046846,0.10801978968019847,0.051059811766281017,-0.028665980482612358,-0.3836483781379579,-0.2069823256523572,-0.07439760861492828,0.17610778335131559,0.06492118234836428,-0.345805358716425,-0.04891774307531365,-0.11071235328954364,-0.2155888482407219,-0.24686228599310507,-0.2020837427117333,0.12724535005720845,-0.038862069334050338,-0.039863163216563367,-0.05931218683459097,0.007686264881221583,0.12253037143667746,-0.017547002127462388,-0.017867952980756255,-0.06044903171188334,-0.008932361351736047,-0.05448762993160669,-0.007749681458844319,0.1546830450607215,-0.026665654806924178,-0.059036699060696407,-0.18084324163563046,0.0565325031978288,0.048371505076824739,-0.09124044507677627,-0.03343329957637497,-0.17829275492291983,-0.17920354211000528,-0.042373801400971519,-0.04989268397963592,-0.030683009791172876,-0.35741877676569969,-0.09497268269538366,-0.1420014263653772,-0.1388783961575923,-0.005402446562618759,-0.1365303653607667,-0.00035628438049493765,-0.038849340406821249,0.019229072546721246,-0.02915139611580466,-0.048549129546478508,-0.003442737366596891,-0.028091822478789279,0.014001596087501902,0.026875805740209058,0.3295951358426372,-0.09371258920130322,-0.13538803752773125,-0.2770842405765666,0.0585408408329943,0.8067730519448507,0.04489277949016694,-0.0669316700481498,0.09072284578642694,-0.13082357368853365,0.017553999376026889,-0.04433877769181609,0.04210269032606336,0.12513889073654584,-0.15230831368562756,-0.286932977205426,-0.029253682103618004,-0.012122977223607414,0.013346042330910928,-0.041235465851682018,0.046905188368427368,-0.058305356538127437,-0.12015284374589289,-0.2267176031791489,0.07960686297662083,-0.07437294403347057,-0.1142636183069628,0.3172792635641534,0.2696530064701403,-0.09484790656613465,-0.13152784048187037,-0.18617993537814182,-0.28558532872985867,-0.15877760601625177,-0.10283426045262757,0.029416056308934934,0.017898573347457017,-0.18369259784878917,-0.03769420923675551,-0.010842152655173254,-0.009909951593006797,0.004175088398142808,0.004005860220804521,0.002566805985680394,-0.0012571968579063839,-0.005317512853792759,0.002371920673282564,0.0022537380310071865,-0.002653024329498166,0.003862794019809332,-0.0011780353239942692,-0.0007281566839158427,0.006317320095996672,0.005066200260241541,0.006107464462831691,0.00475031492530497,-0.008327324200395659,-0.005040952183700661,0.00007953781724475044,0.006421256282287853,0.009922022989575607,-0.0033245057019463816,-0.005876869038768866,-0.0007973948352948508,0.006995589960087429,0.004286949905540094,-0.1488840428301834,-0.0029183333210580674,0.09365812746357652,0.19285600611317214,0.05827876324009381,0.003119695474752432,-0.08175173162887445,0.12342919690415236,-0.0043542304089395169,0.023902051356043016,0.15376103289478225,-0.02485330123301483,-0.22310665945364276,-0.08523201186805035,0.030251532104238794,0.07063449143819954,-0.12511853883934213,0.019937298122059287,0.0012889555119561894,0.0314696302250777,0.4702045119531181,0.07054806082922169,-0.047500987580063717,-0.050134990369738157,-0.025108522432104129,-0.06740706800165029,-0.09449629446622686,-0.13680826658440094,-0.2585941860172199,-0.16784506085014434,-0.30704406337816328,-0.19418609016378705,-0.16971848889911607,0.47221023102704376,0.44945458202318147,-0.1111630097645208,-0.15160095518078593,0.061273578631734448,0.18419324335272634,0.44937902440622076,-0.1622639049454891,-0.10815652921047783,-0.31813405748814696,-0.15495410295787619,0.021256073429975099,0.055708332814207579,0.12605384896822684,0.0389645113881888,-0.11106998668995628,-0.029164688547704665,0.00370512409748963,0.0035137013977029135,0.0013769602383359819,-0.002558596592686283,-0.004408254816070837,0.0026753432144370878,0.0019951167045812055,0.0005956726628094776,-0.0006631350739519196,-0.0033255633653524018,0.001669273206778488,0.0031799032850222468,0.0003533573698289658,0.0005872194883017464,0.005475238484699675,-0.001686067353404567,0.002333377825359406,0.0031820979241853669,0.003873186280634838,0.008193510187704973,-0.0023268191502577755,0.0008947394053096048,0.0021883162349659159,0.002885122397708205,0.003933832004550222,0.028316374565712924,-0.013330325150664213,-0.12287613904994103,-0.1754164282265272,-0.19007058752274665,-0.034153250230763879,-0.05911541020980624,-0.12670198300093359,-0.1991041517390496,-0.1834902199214356,0.006700230600318643,0.022533343184766787,-0.00000819884398663039,0.031346145029936798,-0.15220358359836948,-0.07554259553223733,0.06954919818395347,0.5730045490284678,0.09536683476029313,-0.038702588601730408,0.04281165132725924,-0.036313969291848918,0.07056466670133704,0.18548701541724758,0.16261804517668303,-0.03153836741095963,-0.010019543158729605,-0.06803172556998535,0.20646097512689966,0.02348364199042581,-0.10595840007931876,-0.06031672704423313,0.09790641570287159,0.1918768782913151,0.12044306786951413,0.036114461798041837,-0.09986028818300907,-0.030848566041112709,-0.018764729673797499,-0.04799526270798194,0.10182234588386703,-0.037262222308405857,0.04213710698865406,0.029755351555501916,0.050953509082248337,0.022891946849249849,-0.20553840689206388,-0.1606720908215322,0.04385265121969415,-0.004989104342540267,-0.18361351551372347,-0.054319487140999028,-0.17705861123113257,-0.057315354292040248,-0.0007680729379862182,-0.3127871197798512,-0.284744842206305,-0.1798638775885314,-0.18971582944354976,-0.011886712732944999,-0.11586747510915789,0.20359513158705898,-0.026152543613018884,-0.10387187012594193,-0.056779552998787039,0.0208372289590892,0.261108263772545,-0.11915136789330792,-0.02308746101311933,0.06959145258756232,-0.08097556270031244,-0.05845140839312499,-0.10569573381037049,0.21832832118026353,-0.15542929877712167,-0.001173981679092201,-0.19225212897304842,-0.1419172503516058,0.06204699665935538,0.10330862693342166,0.047212928243278957,0.3132383193579179,-0.14484704961378357,-0.09575544389262084,-0.06546294754096813,-0.031801838209088519,0.17303868870941703,0.07162209007524416,-0.008841906362341246,-0.07229890152140321,-0.11342906020202857,-0.22986868321526958,-0.021247784578244928,0.09908102494449898,-0.010330208496138688,-0.11443306143351871,-0.05057314016436186,0.058372566449554238,0.009258743512471217,0.009723311343368306,0.12741782260246224,0.09754325531251011,-0.10598999303545509,-0.09974744524304284,0.07646062878642096,-0.21969386556851909,-0.000495543343487149,0.20529479864555878,0.07325447062065117,-0.14529279384179587,-0.09692284631234877,-0.12721886534467498,-0.13383785379379863,-0.048455367950557107,-0.061227960811842657,0.1397876481865684,-0.0439822710464895,0.03346947266042234,0.049799417534411877,-0.11583661615103282,-0.04433374555034023,0.04151995469059362,-0.047224900451810328,-0.07431904604912332,-0.14317450513452596,-0.06685088714641056,0.1270037561368589,-0.06577845777319053,-0.1584486268379741,-0.02165126310293445,-0.0374132045391052,0.25139556479685606,0.25317323511363157,0.0035132054462765668,-0.012418388024316977,-0.07584184260660694,-0.07915771844202369,-0.006002846657052258,-0.03644137870568629,0.07200138701273351,-0.1386336749971146,0.06997923634434578,-0.024896775221341824,-0.0471018073675569,0.0023316314035265468,0.026885411515732924,-0.12165537660595166,-0.02850523884371355,-0.04665665798512699,-0.019768599100779426,-0.006122303471993721,-0.05082159953410704,-0.030320802443892127,-0.1360479814063988,-0.13724664794678263,-0.00779505475152725,0.20664488830579587,-0.04029453234890764,-0.2675870264610106,-0.06635423492612469,0.010871875036404706,0.4731669784540379,0.25410603726687738,-0.11804405302241027,-0.09004255812475938,-0.050083193976354727,-0.12501598079095772,-0.17162195029199985,0.07628263143733086,-0.15605564176169463,-0.01694102727756745,-0.09621264925252356,-0.059782223349453548,0.015636636126340775,-0.13864381180585534,0.03930529497560955,0.13171296372375625,0.1973953751728916,0.07430470848328415,0.297291995493077,0.1191935715911883,0.21180641983863933,0.017775617504490916,0.1068542450445077,0.02955338186375415,-0.14215741079402964,-0.04532468776692323,-0.13521236004389973,-0.14197171020838654,-0.11178059864336364,-0.18120186314497667,-0.051669284936374227,0.3094564356764304,-0.12295893005564762,-0.14269517437403027,0.2692418025698654,0.05094379022641921,-0.17965711807901306,-0.021923878061943168,-0.014214857647199096,-0.008855058071376375,-0.003966041719519416,-0.02879546993784487,-0.1007288510201007,-0.1393996121129102,0.027651316657480039,0.14233257398102376,0.008325417397612566,-0.08005833655629473,-0.17714617760550276,-0.04824034229298323,-0.00497264419033352,-0.07591154779176147,-0.008556107527130697,-0.11169409903090205,0.018323908789243463,-0.02750023603437306,0.003931624583452071,-0.01998858756915955,0.029735980305779679,-0.0027880477016178995,-0.04267765194155533,-0.0018765923872254755,-0.11397525588299699,0.07218305402999509,0.11396868519959254,0.05394704365414006,-0.010288885464312425,-0.0066494169610134428,-0.04672265140996377,0.23450281104198573,0.31662368022603945,-0.0870192768271663,-0.09430103772276608,-0.023699678637316876,-0.09908054551370688,0.013261719317349394,-0.14372415210880597,-0.17131385763499455,0.04060900819689244,-0.022594148253155447,-0.1628255937227105,-0.05284919291473864,-0.06432733946420354,0.03836438824007058,0.060101407831854369,-0.03148036988165818,-0.20662297084503293,-0.15376472654016488,0.04402326554587275,0.017092855083515328,-0.034674328870749549,-0.020722759653924725,-0.021157237624428707,0.020730323219728756,-0.059260335281959838,-0.06894878171263196,0.08531029021649575,0.10152129134816701,0.026425373836173439,-0.16991726227840199,-0.21077505960347854,-0.0868050650487634,0.15357127681662234,0.1795176873373721,0.010584151638982237,0.02253168195796192,-0.13759015851116813,0.24271639348512095,0.011612483664662426,-0.031587896678140148,-0.08106779148547497,-0.13468072814303135,-0.12508418685086876,-0.2606370922299409,-0.013718968956205079,0.29499258069847386,0.1982266288105231,-0.0029839158701144656,0.001076104787528789,0.053994028195860837,-0.00921421998203334,-0.09777945153464465,0.017911410625969735,-0.08351122847874837,-0.08494282304303877,-0.18671986857125928,-0.23539248781647538,0.10892075001303062,0.04791573012783503,0.049478970401758508,0.40454748249323016,-0.0875797127189289,-0.03826694674365027,-0.014553341626323984,0.09480751860911686,0.07151128549788591,-0.027506151305123347,0.006989481146175902,-0.015102123641734402,-0.001268585560713233,0.00003912433012929838,0.0023595848585214256,-0.007053958746850086,-0.004697343784220249,0.0006593936730701132,-0.0019376966495701825,-0.003168978085513082,-0.0020212244858840995,-0.00641854865857178,0.0014737367385243034,-0.004772861602343258,0.000688858471796454,-0.001265918338254002,-0.0031654669197456305,-0.0005571431580249955,-0.006815374792423526,0.0041537958122265859,-0.002417642163295923,0.001219786336799453,0.00017184919930579253,-0.0014907740789524116,-0.0014125948743177683,-0.00522119773540607,0.004317915011158709,0.027814742405674145,0.050992050176036019,0.023997288309853799,0.007445911352062116,-0.026508720321743567,-0.24222067451682698,0.02562239431282148,0.3220623341487954,0.1515112642205357,0.0020923796746246399,-0.21602760667958016,-0.16934808600392979,0.12474529896342061,0.13869005552459189,0.006923228923684723,-0.09049689978233495,-0.0993522876453395,-0.003877265260732756,-0.023488655333550918,-0.008574272133042096,0.035985727005431619,0.08135707135948429,0.008722997445249988,0.021572012032300099,-0.013926663079589194,-0.049436268308232857,-0.07185207429786514,0.08705799267041167,0.08759605133942047,-0.05704117313827327,-0.15812633883655206,-0.15404641258439964,0.0467463182803076,0.26411650458109789,-0.021654670909105137,0.07395320306442226,-0.268428243516821,0.04803731312827354,0.40171249830340358,0.13760070467007816,-0.11338410604974778,-0.08588676676403907,-0.11990508648766846,0.10070895835663056,-0.17447509303324602,-0.08749123889321735,-0.19317747996028018,-0.1926166941702349,-0.23314408291144854,-0.13951943349765714,-0.0014144336481383487,-0.0013650191635627598,-0.00043127922960299164,-0.003114562981899943,-0.00279990317916145,0.0004626510512194856,-0.0004878420663765189,0.0006239705945707993,-0.0016147835314635454,-0.004042977385272497,-0.0006031497961421408,-0.00157641295441237,-0.00004041662413089218,0.0013883034449681063,-0.0013506013726146416,-0.000011820806389443613,-0.0015467446337775156,-0.002224708349414246,0.00013496145065634472,0.0006261090213886184,-0.0003103618063457333,-0.001563719851519579,-0.001397464130180477,-0.0014234721550271076,0.001167832090408076,-0.022295662992051079,-0.06346567683556356,-0.1477546333752351,0.07034799822110964,-0.17911740587113238,-0.0320858894302925,0.3139710574987386,0.326631386178618,-0.3158012987662708,-0.2179543322029051,0.001620797102200898,0.1942645009493512,0.3502453444652561,-0.03841677793419526,-0.055190021713122438,-0.032276045952352689,-0.15135489202306624,-0.11317941591440935,0.016295890896499349,-0.032718325107301018,-0.02672727975408752,-0.017645460768750847,0.04339780464553218,-0.08882068527268374,0.03488543446727981,-0.0045119230357444539,-0.028784044625488515,-0.12442050462214044,-0.12695442178086623,0.03649355377712696,0.022964225841909846,-0.029522870509787505,0.0005536493702503456,0.03179607988183105,-0.038721757004532109,-0.030866201534604289,-0.15804870350554377,0.019039242573573629,-0.17905487214956845,-0.10460978712949129,-0.13885687569079534,0.0669818712919643,-0.04880774229841943,-0.078114651059166,-0.08701833474892029,-0.05258898237912807,0.4216730296761482,-0.09583304183862618,-0.01398018182928981,-0.02358264851708888,0.03636826843469967,0.18051952271837377,0.47333438853337958,0.13353496470336025,-0.07300748516312016,-0.13709398418797184,0.15659568681555795,0.1317764885701211,-0.046930691630082187,-0.2640345499661468,0.09975925411010089,0.21636264506494408,-0.037087312952101509,0.005573079292012736,0.02689024805825766,-0.17085097725601479,-0.43068614388126055,-0.1424399845256654,0.2233895065344251,0.3803549947539445,-0.10882852213496749,-0.15225766229491745,-0.17038073364748328,-0.034666907714975787,-0.13807665530621425,-0.32632752049804017,-0.3949057568445543,-0.3917596263783362,0.4016185683366606,0.07383870052408459,-0.1822620573825246,-0.12099233277519152,0.03272786616609613,0.35037388931339516,0.15547945399043318,-0.20819431631519978,-0.6381649239091363,-0.0889409046994854,-0.23767103269601898,-0.14504222813411328,-0.2930270394535091,-0.25228112492161877,-0.11003262045257202,-0.15616018063967494,-0.05947504875162222,0.10610067183753933,0.028276696086401443,0.04811573339547675,-0.07637625707321318,-0.05613334612657857,-0.18847128358206759,-0.17432759240650293,-0.3788239458551739,-0.8594795108079611,-0.4975521840996521,-0.018799477678288158,-0.05269682650174564,-0.10408453067243176,-0.1175809917118152,0.5185423824019575,0.053677549788561578,0.13447359009688984,-0.20258644715033023,0.13963783422202406,0.2933900540771299,-0.2805812981556069,-0.14337569657796907,-0.1576586252811404,0.25734046663023477,-0.009295686341798202,-0.16414739233428639,-0.11802094887303391,-0.10305295867056393,-0.06612335281196688,-0.1323026760268798,0.33998487220023168,0.36384997639808067,0.08027694422663995,-0.2069800097049266,-0.08619826385369117,-0.033478751866360987,-0.14682196821750596,-0.17346112903268144,-0.26389893215151996,-0.039659621269962998,0.24944859368594306,0.17843009261477453,0.2844718160116262,0.14376045917140363,-0.06789494247385716,0.002832957051764223,-0.11415375252186196,0.2617386003247837,-0.040873310725607406,-0.0656727950730848,0.04442735866012912,-0.2029219274185427,-0.24644399923652467,-0.05585105290444469,0.009729158974984148,0.01449461069196456,0.08049309892148075,-0.15030524929681683,-0.20899982816248287,-0.49017803398631828,-0.013028896197570198,-0.1660801388088659,-0.2085370099900674,-0.4782496279736391,-0.12393156020685495,-0.06227658500015814,-0.37525278055640479,-0.19455062643017294,-0.037040453625646289,0.2664926201213167,-0.05141972835115364,-0.27629871087224658,-0.1297088859221898,0.034019181911395867,0.08725043923071416,-0.03165089441701442,0.01771604327116097,-0.09829425772561065,-0.11602558462639519,-0.1097111248498338,-0.2257646468501438,-0.2319944543707668,-0.3564824123347774,0.295825696708609,0.33019492471113595,-0.4033585375624249,-0.3388873083071838,-0.16175006904451237,0.23954641154785728,0.32044944005114947,-0.48649092195869389,-0.22061262042383987,-0.09094294376387212,0.3297144538971288,-0.3612720287551616,-0.13619284587661968,-0.12949850304228723,-0.15824540730634863,-0.22556016399658208,-0.1275475656028306,0.2893886516503378,0.14725532152072383,-0.15786401726304115,-0.3217296905645456,-0.11432575461467817,0.08196219030226292,0.3037068200963771,0.27348177166187806,0.030979882952375978,0.043272960579869079,0.03933973549372249,-0.09413013827889039,-0.14657708645192986,-0.48541014698834886,-0.24202346153023525,0.0702267885897592,-0.03397227739101863,0.05560458169758416,0.09881638644851974,0.3427278673685577,0.10760454601486337,0.46121470514747589,-0.11591078861105758,-0.3325235563483666,-0.2691472383096437,-0.13300721582134976,-0.18172783709994617,-0.16560893975753403,-0.2577693345310242,-0.1407279549613273,0.08387322138687999,0.12589825688976434,0.10321059260337275,0.22869271417755283,0.23951221159244585,-0.07974096917007136,-0.13893126016490688,0.0008673989169802664,-0.08993640751372947,0.11025635426060075,0.2232111216938249,-0.015128007682719346,-0.12295628048794265,-0.09974044606978698,-0.018991597282092419,0.4347076123340232,0.06535722343539639,-0.026006809806898264,-0.22143677841615118,-0.0658357364678158,-0.2928789767406402,-0.29491647688212149,-0.27808831177287648,-0.15856226661175275,0.36619976472266888,-0.07043785438189211,-0.008796502788146668,-0.020197427069171399,-0.02155371708941614,-0.0029008074253280907,0.02257934356531937,0.07647816620726134,-0.084736417003424,-0.16942729848974345,0.381775546294667,0.0018962736010523125,-0.29070213384925538,0.22434810386317759,0.2545591679465394,-0.3788099027467276,-0.1538865657733569,-0.07997178789894008,0.005595326044505707,-0.18437923012082747,-0.153626004583852,-0.047882607666059489,-0.20110223038652509,-0.1567872501995038,0.23909659206957777,0.24806904897744085,0.014533517943802768,0.05515071493950286,-0.28621650998959388,-0.106044073589162,-0.008065868718428828,-0.08839958095681257,-0.33676675689446969,0.1586293988892735,-0.02016714236902443,-0.10481074911536938,0.12135791057353515,-0.16799167009579298,0.5188275403868056,-0.03739046240643664,-0.06151158084973689,0.02530979647736716,0.21033621143180823,0.24027981140345854,0.010204345667099583,0.07732590684987599,0.020602561505062453,-0.19626270784651696,-0.12883885057364695,-0.09730052574933941,0.01462791175683158,-0.0003502266938407466,0.003027600738851347,-0.0012660136895890537,0.004358553392478187,0.0049502034325759349,0.0016990231321562088,-0.005318827320623987,-0.014388636158771647,-0.006954670934794904,-0.0011212634542034116,0.0008333707439796136,0.0025383004890435214,0.0007945163150163051,0.013533894752068258,0.003893810886252154,0.0013023260141434798,0.018420132282302619,0.032765587739886168,0.014246580707766422,0.0014496255316376393,-0.0016128183919127734,0.0014448731759054515,-0.006634481732971118,-0.005634208413856513,-0.00025416532348934717,-0.24194176274126415,-0.04743459912900414,-0.22626325595801834,-0.014854520428313397,0.008706908996300974,-0.2255717321645714,-0.13976026463493439,0.20172748158345184,-0.04558021600716516,0.028425170360378967,-0.10399888441880762,0.19232719879066263,0.17432978533217079,0.016382638565982167,-0.037924724741123797,-0.08907487713542617,0.1367665412519973,0.041255387057154108,0.06474565521927664,-0.05163523902288162,-0.39591058958914579,-0.2959260117039908,-0.2173992914440913,-0.05341973107104835,-0.02379253650277366,-0.008589870390928189,-0.11875393498019743,0.003381518543021993,0.14632407383153307,0.10107271759639303,-0.040378024990717988,-0.22183915302237143,-0.3692482065451009,-0.13628720512491528,-0.05328950075195498,-0.14773904248401135,-0.27023968127001748,-0.14131524865858756,-0.2583717142706933,-0.14100887562893184,-0.22218125414001187,-0.08075044785693203,-0.024981119328710077,-0.04425762627500481,-0.08538239185450203,-0.1279387322971757,0.18738872467847796,0.594890227721067,0.1704429090887404,0.015958822386537259,-0.006987061622418863,0.0013434769771742549,0.004098504308967713,0.0037477264072551029,0.00018916879813053419,-0.0038655482266533468,0.0008762706274978768,-0.0038158032040875318,-0.0027711023180834917,-0.0032509983673462167,-0.002762793050274104,0.002850876151171367,0.0006628898996037645,-0.0011219468911833452,-0.0026883335873609324,-0.0028101717874737198,0.0037160637580808074,0.004459512133999201,-0.00021820598958318586,-0.003809568846249617,-0.0012942940273606579,-0.0003994972069611352,0.0006778533739883339,-0.0015658872075741289,-0.001548945447116786,0.04090717709861945,0.030110299715977678,-0.0973928762464323,-0.3064914631541449,-0.018876371715712934,-0.011671642782477683,-0.2449157621070056,-0.19761976803232016,-0.4386849067562898,-0.08665767961067592,-0.04657773040857223,-0.1834848079588286,-0.056928256792355778,0.05299658404838486,0.24613066049799285,-0.10427230018905363,0.1840437693519785,0.09760487467745126,0.0717108089249687,-0.05941658687369087,0.1374046915569982,0.04184572372249805,-0.16017611863124599,-0.2321188295851081,-0.09043852702719517,0.018089882834422638,-0.10562618229309405,-0.20703070562317134,-0.46606721816240367,-0.23489441180814478,-0.13841167864301319,-0.11359548759466937,-0.12729686965786278,-0.10414841331625355,0.148232372184591,-0.253058648765549,-0.28941936162646966,-0.036065525858429727,0.1757822883606095,-0.05288541005493119,0.10688301472527696,0.2959417406629811,0.4462614438936063,0.032550754764886769,-0.02086300389051173,-0.06466840157709798,0.3851906660413758,0.018106904813902846,-0.13822897890040157,-0.11807518945998373,-0.0630493573042767,-0.16779191426593016,-0.15107062632766408,-0.11640510320458676,0.013526779210163468,-0.22800605723310764,-0.2815045214439012,-0.018609600427885173,-0.05367854563659619,0.3407888591839884,-0.34330394524988458,0.10356328817795667,-0.17304796496497283,-0.09955965689816114,-0.0423703236578359,-0.30694352132345728,-0.07613031865532938,-0.2200207769474518,-0.07217259488032132,0.06446414098921247,0.13890868607284338,0.21069978649659633,-0.10689367642852607,0.154817520522522,-0.03322435452473377,-0.1498454441878458,0.03971269613870072,-0.06479673840241891,-0.14344470785403319,-0.24787418139713297,-0.00225220417112407,0.14582441712241032,0.38158733224956428,0.03966249599982118,-0.07926730968914452,-0.047762442803478497,-0.07455193665556521,-0.08885615329956953,-0.13863949399202264,-0.07763346843813493,0.1975514092323636,0.054758389718601637,0.18807188068606962,0.0004567145427723482,-0.08818192278863929,0.17973753382701494,0.4178962998783845,0.21762862042453416,0.009802474288086583,-0.014415034785227255,-0.10287044672588525,0.038568873412095857,-0.11067085732977551,-0.11270520849896167,0.022360071963602354,0.16171103385609096,0.05013513305524403,-0.10328941527575882,-0.022947565158695984,0.02304366854604685,0.2678519734347353,0.12136676839957424,-0.22660158138866855,-0.2363463601736187,0.03374974050075073,-0.030380580501445686,0.013872023299906661,0.19727179650105254,0.015491382177056671,0.025731653761924334,0.06773852167377576,-0.05610589286536382,-0.035666341754755807,-0.03979465699580736,-0.05814119946974791,0.105846042269324,0.058772711353881759,-0.13022702555221767,-0.0646477579367702,-0.024800393827455123,-0.29755284080932767,-0.1669664780958072,-0.2182411811613345,-0.01756823540890984,-0.06157436888386973,-0.16153279104221783,-0.1294834222306986,-0.04211014453845818,0.00010621496708197899,-0.03615608322501955,0.03424851187169695,0.0712377753420605,-0.000982870884546936,-0.03620710438437087,0.043012117527252247,0.015974441863224225,0.13671056923362946,-0.003264226257926989,-0.04572231939360714,-0.0025328248171301319,-0.008885082527558179,-0.014202790976977818,-0.08933697153705668,-0.07494369401558092,-0.026065039169928154,-0.061579001539261348,-0.40561773963655697,0.20867496802594366,0.2514954995699747,0.01735593850241928,-0.01888694060843799,-0.13905063031951998,-0.07465417537040546,0.011082384757930598,-0.24617214944999786,-0.03147631402099767,-0.30810590375730137,-0.15077142922263735,0.131854046210086,0.01212117349134879,-0.017517875525311006,0.12796321354565066,0.21449276525088979,0.16692656881662758,0.11294545281047489,-0.08915052001857837,0.0599261692751852,0.1135204077772911,0.0017553508513738514,-0.025732960622070593,0.09563199808450344,0.08003827434904133,-0.10414532795707937,-0.11120502940289348,-0.06742781337359616,0.1325893427878797,0.09587025476989937,-0.17873776153348659,0.04522644856962037,0.1118287081636234,0.022664420292117746,0.4303203292163596,-0.03672858143326868,-0.09929263266981842,-0.13748927260865677,-0.13842140302459997,-0.0547515167157323,-0.17192127308651668,-0.1836122848070489,-0.005659540615340593,-0.07145359965235325,-0.1438480295734009,-0.05163799458056658,-0.11374674430852139,0.014678524439323824,-0.09245601615725534,-0.18097290141076026,-0.11829368226398968,0.03233001780644918,-0.006857001067811799,-0.07041871867810186,-0.20893713257000255,-0.16571078280910177,-0.054736599607181957,-0.1292807421453686,0.015127105669662846,-0.1948099400577318,0.021690479476728708,-0.04903866887822149,-0.06608670632121291,-0.08440192968064889,0.04367264505415139,-0.02086750848967836,-0.11371063901248853,-0.00204647073820493,-0.011877892170666148,0.01784602431875843,-0.0028177957035690085,0.0090276324612798,0.010137913087782252,-0.08429015944759026,-0.1555077134706887,-0.14329727824956893,-0.11352157696008368,-0.11437493258285848,-0.2017153289141098,0.0016693345408447924,0.0068237332613877818,-0.09898168846179308,0.07338354902529931,-0.20302358564752005,-0.073766932158109,0.0031500714283409527,-0.00948603175760406,0.010291247524486892,0.11524607581234557,-0.2677283177019938,-0.23013049045213097,0.059807948303533999,0.1536197384048001,0.0009582066761462098,-0.009044159991630025,0.019649712935884107,0.04092460630082972,0.0016991055439930096,0.021422064425074474,-0.09900929439066247,0.09532810525141275,-0.04547573089349318,-0.22327461688978032,0.1979014390405151,0.036992735470261137,-0.1196790745262341,0.12008949142397378,0.12893028068393559,-0.08758841845460845,0.08688925575698267,0.10872055978941757,0.19265894659834488,0.04739055861251526,-0.23039390907584174,-0.16182494160379708,-0.18595684436513028,0.09744768451185938,-0.18990349483790809,0.004054703041937108,-0.029786368709949216,-0.037405681797877978,0.039776095830676028,0.002020251139343796,-0.20490833258274256,-0.43115947980356397,-0.5526901684477521,-0.05586222139148458,0.06389272607198707,-0.13817194217351989,-0.3437152243573362,-0.02553996363195689,0.354360344078515,0.20041722305465016,-0.15485568493864888,-0.11850292156690555,-0.028515524751482607,-0.21305013245963,-0.0448756436647492,-0.11071243534128729,-0.12950299998148968,-0.20864654579012469,-0.09086944479909949,-0.001363667810439811,-0.0015685117725915326,-0.00414801694676624,-0.0027356423832430676,0.0037390895515735497,0.001041263692386666,-0.002145546967675463,-0.009993355668447267,-0.0001957006200676374,0.00873255486612687,-0.00033850091595667464,0.0005368763497294363,-0.002011159945204743,-0.003335407547064755,0.001897971800067032,-0.00507304277864114,-0.0014118510074533936,-0.008513786810296373,-0.011670477747017913,-0.0039260737578981868,-0.001280419254157976,-0.0021396473996491565,-0.004079902797598638,-0.006136883912362794,0.000887308234896514,-0.0006149095327995079,-0.02662162845592721,-0.1228907008556203,-0.03960483588600062,-0.10964723911973588,-0.0007290453410812061,-0.006615533958086786,-0.04669431366956881,-0.07570904990278175,-0.034023217577787628,-0.0312968038304447,0.21252935191389675,0.42689021298491616,-0.09852271430753069,-0.06126389623891759,-0.013270501234903304,0.1678206197626734,0.24065198915544173,-0.004987995697873735,-0.04034435120859217,-0.003928768001480171,-0.24628933195937997,0.009768441524978446,0.005763954490828911,-0.05800016048195651,-0.012393527992540364,0.012128239363371377,-0.009691650560706139,0.04691243405953434,0.0663655785077358,0.03093588180264919,0.09397169304711498,0.1508814537483479,-0.1894498421338253,-0.24592779807159077,-0.15708141172921404,0.12473148537371787,0.04541870708008753,-0.1761348336580533,-0.12609664486595274,-0.18387158774278934,-0.03747589777648808,-0.07184417595546612,0.17615910248915188,-0.0747896176689161,-0.10119345781261073,-0.070288893598497,-0.0031918119843953637,-0.05199389497720172,-0.24528825245679146,-0.24261736396335749,0.0041243527848434488,0.0017710593188945642,0.0003906763413503715,0.001548954213996967,0.0016239707018437388,0.003976936340528078,-0.000615273240926572,0.0014682327956166968,0.003823178869917379,0.0008565831800610859,0.005774753962377996,-0.001232947171324267,-0.0006914660497554164,0.0014771376408442639,0.00003625190759155951,0.002394165971009288,-0.0011277773232382786,-0.0008928839991943887,0.0008301742778873134,0.002240247952889369,0.0009017237624091239,-0.0007212681135248773,-0.0009974368615563834,0.002208062430896812,0.0055534742137176239,-0.033640893634079838,-0.009106599474963,0.10416843157740678,-0.033485285285313099,0.023016413043247028,-0.022587241006112845,-0.14079192976897687,-0.005554974077522192,0.13484536530476816,0.056068169659629508,-0.0035576993911776569,-0.2537280107739969,-0.2292267278912842,-0.1971332350454044,-0.13630439822291569,-0.07503255204658564,-0.17023011725523577,-0.11875479486967414,0.26202420738411,0.08863306174306192,-0.15497562453607009,0.03714244381922634,0.0322064439481641,0.1187015556993168,-0.00931866103411765,0.048117723501281729,0.24361849695310112,0.2159814621391753,0.11818190689310396,0.07800864095896403,-0.07821451002322293,-0.16083541144978837,-0.14850732494332576,-0.14715566750498769,-0.02724109607225155,-0.24105268819903118,-0.43301489615899726,-0.08693744636304649,-0.13348796751486989,0.05648867374913835,-0.05021272399766238,-0.15592123678584736,0.010725464064101253,-0.16696438184551869,0.025064693561410457,0.0758968844048079,-0.06870586645702452,-0.28930132137543376,-0.12046104198155781,-0.06752622488126609,-0.11837389091540934,-0.5431029577981498,-0.21158026454757454,0.1414068933094827,0.028900506221392915,-0.2724260376066494,-0.3789234950440452,-0.05808412699748725,0.1114869680080314,0.04547598659511698,-0.09308690474172869,-0.14783970373879078,-0.18631667294506625,0.04444884945202521,-0.10928980566211014,-0.07509314850104443,-0.06922860445785775,0.06998465982677171,-0.04669067169898223,-0.0025007149474964576,-0.007296406771500228,0.14174684050618659,-0.02932957218952968,-0.004473441403259845,-0.03226088788790569,0.1302658586845086,0.03337551878854024,0.10219084249051176,-0.133129834494805,-0.11452161831608997,0.13105960203359744,0.007684784135106524,0.0572161554458352,-0.21372929963179647,-0.018092300362507385,0.021044077882374867,0.11792186773780153,0.10932632026226821,-0.017377794987517918,-0.04433235820730793,0.12901490945547817,0.17297650668509199,0.31084552180050276,-0.017841942136587457,-0.12045022322570802,0.17084840122415743,0.10178879058538848,0.048275768686350289,0.00116455792530583,0.020900186135020466,-0.1714189497522516,-0.05434690081288915,0.10093690023852872,0.22197353577030336,-0.246322019311966,0.18554797532752999,-0.016328188730043347,-0.07869099951048717,-0.024922950760755869,0.056898585736581758,0.12036760395992485,-0.005512520238133023,-0.035407911646220518,-0.09911832445505235,0.10353300914799682,0.0892227839612751,0.04227879434438706,0.061165677918535627,0.09042766504380524,-0.16839646497940784,-0.030412850225075596,0.008332473094036173,0.06758833540174232,-0.009776983214790827,-0.06072177832726407,0.03669183426176981,-0.2728863392342696,-0.118894123637969,0.015410922721378756,-0.04347368049257813,-0.24621022154799752,-0.23299587402268857,-0.21761154712126319,0.18717712008744837,-0.034874093516369959,-0.018491628123534694,-0.010478373884183159,-0.010283647192067796,0.10004496532190153,0.06472900700647505,0.1366871603467527,0.13999170308046963,-0.0331671538563086,-0.06487136313656528,-0.002980141969653703,-0.05427778061201749,0.10676927568698465,-0.08769334736089185,0.016244693081265059,-0.023799078934079695,0.025049314241886973,0.1961236525978418,0.4230117265992219,0.34746809892273308,0.09837812669740877,0.04525418229411563,0.10273075645587357,0.2758113174263457,-0.017519153632213709,-0.038235947890223619,0.0300756327345072,-0.0908570374338558,-0.08494196023037412,-0.043143038091784258,-0.21573579203978628,-0.03861254280395559,-0.06385343186547053,-0.040814434498544788,0.08289470188611278,0.24227405701222488,-0.046041125817545377,-0.04079491711503737,0.05571450573903012,0.06332905161063743,0.12556013035688433,-0.01796060919704878,0.22819333900146719,-0.02917733045614395,-0.06819896042452364,-0.029619304499022379,0.09460985557238438,-0.05372262962278673,-0.0760719179460439,0.2600428401496468,0.12742402882340324,-0.18339809564897695,0.32149605769511865,0.01762391457654381,-0.1099850628229511,-0.09759888821658743,0.1646081060035991,0.11312338320719945,-0.3202546890088532,-0.19216962367749497,-0.1755885858217795,-0.06071652550376105,-0.09034368978086296,-0.11011120527194497,-0.1450833775297176,-0.025811423151820575,-0.19055619008254813,0.03518859680959836,-0.009100292856027245,-0.014604072080121624,0.27191455105842207,-0.12820750535404516,0.1372013683798515,0.1805079246532727,-0.00648145165312023,0.11582852575710001,-0.02724125151284986,-0.1781520683830591,-0.08903371144002978,-0.1189398649589264,-0.08110033384490197,0.03540254987668462,-0.20731012803633495,-0.24923785470235849,-0.05109273462054575,0.047472645523230588,-0.06576436554174294,-0.06419542876289757,-0.09567317539915651,-0.014082995864871504,-0.030104946600826248,-0.02682215023922271,-0.04654238429549253,0.006028168838012432,0.0026838090292716865,0.0026412313627268604,-0.25972594091016745,-0.21750091677499445,-0.15220558989347295,0.005739613596690255,-0.03411349542839648,-0.30621619049631745,-0.0687740499292827,-0.038332751757264377,-0.08448849215005767,-0.031237961351941146,-0.16584017703642404,-0.08484504468162603,-0.10077056807992557,-0.0176201797386909,-0.12914634414793084,0.18821927829542357,-0.12997426100459204,-0.1243333916001112,-0.1153656613804322,0.15000040843489444,-0.011705328409317073,0.03200600933683934,0.02525310109092853,0.02448600499041039,-0.04118210122947771,-0.019223000070138595,-0.1718516119101384,0.012343192747146393,-0.04933394438319632,-0.3411395925940279,0.2826121229148323,-0.18980094286901576,-0.03388865736647684,0.07396399021551128,-0.14292875183332655,-0.06985606435813419,-0.25615146040303896,0.11162778127767097,0.013542138047922715,-0.21866810723540729,0.015557183716964036,0.17771804007695975,-0.15863962568871269,-0.05876719814840465,0.09865657539995415,0.01661256245560133,-0.10191150638339264,-0.10187181556729903,-0.06704860550144872,-0.02303674824983676,-0.18781514115497179,-0.40245791948814976,-0.10791121205397561,0.3911408274182927,0.29819825815281505,-0.10534090681969831,-0.060648048230616497,0.08815656032997105,0.1261524157065442,0.19990156139662208,-0.04964653410553162,-0.2199350061672772,-0.21601631661964969,-0.17745973566706794,-0.06460369778889999,0.011004961401072773,0.004878957987246205,-0.0672555937504763,-0.04940638572948689,-0.017888468994073409,-0.005831168660835647,-0.0018243433978882319,-0.0013341453660543764,0.0014397442921980572,0.010366953002399721,-0.002853156493984035,0.004730330183104303,0.018076779215985579,0.014839291161791372,0.004777344337723188,-0.0029435898590824845,0.0025334544096862509,0.0029688390550971336,0.007082669060662865,-0.0038852553020983875,0.0012511626219348436,-0.004639418390569428,-0.00945922557042519,-0.0038703251678940196,-0.004210356882788395,0.0011151047101024398,-0.003284973000376841,-0.0016080353254210468,-0.005116026630833865,-0.006024810496579314,0.026550745215845888,-0.17419474246774989,-0.16350770999758508,-0.09186135238138885,-0.00806500917891993,0.055765391954097669,0.10440288231205021,-0.16761458102931796,-0.05372653047722344,-0.030201765983459865,0.5409062142053477,0.30215379085309065,-0.13474754197208198,-0.04477916152173206,0.0024894772698711316,0.446406078419932,0.09885576402703257,-0.009025141210048701,-0.04606405540484699,-0.02831247153505295,-0.10647555995765545,-0.06601890559913863,-0.0324537326046516,-0.07179435226841227,-0.01722930007781817,0.059918833809182909,0.12870650340632268,-0.03061942118785954,-0.19059630564187744,-0.11839862111919226,0.37255235621382817,-0.1613839405351328,-0.16725644714400257,-0.33055490820989,-0.20383786177235264,0.22002286926724458,0.1392660688909775,-0.0379051823840809,-0.11139690279904352,-0.08315508552015173,0.2902250066632413,-0.09421803952211196,0.2423852889336536,-0.06810375733478326,-0.061760273844188768,-0.2553638384023286,-0.12880087928856782,-0.06536370858314622,0.15918892605043714,-0.08242877111682884,-0.000320200077310778,-0.001564719608026409,0.0007886760330053515,0.0026517073605650416,0.00686694807844164,-0.0015835046226189535,0.0031027793356196286,0.0062901609965454259,0.005682128581182445,0.0037607967502167,0.0004491078305688528,0.0013713666483867254,0.0026535468459451337,0.005321883285916372,-0.0002004283293639916,0.0020559560591582664,-0.00047951069798974103,-0.00013024320754602585,0.0042933534522878479,0.00048295620885189416,0.0019415871006472599,-0.001700142809705848,0.00018439674016804768,0.0008546189581608845,0.0019186688324675445,-0.03674877928888117,0.06156267868955725,0.3265871955581085,0.09507292268725268,0.164947994078273,-0.05666114515469133,-0.07205838512293057,-0.0318773183250179,0.05153043206313898,-0.028833437858254316,-0.05790384166065005,-0.09270196324475084,-0.006327587551825008,0.22752433530284719,0.16673447298606346,-0.2271113537580446,-0.01892514237336843,0.0015449406761865129,0.08890440537745507,0.1997801252066362,-0.014992613712964993,0.050609175662600269,0.03703865447954008,0.0398126809814381,-0.06143764520473965,0.14382581922156818,0.02826963898423008,0.06402904327249319,0.09785156034744128,0.0511543350140809,-0.13695676423024964,-0.28487778172675468,-0.07660328627245348,0.1298462645695344,0.20556884902113568,-0.37267330114343857,-0.38325701344916798,0.1268783431258168,-0.15945268472419595,0.14281403490183623,-0.17164600584320414,-0.1088996504078646,-0.26115914654708535,0.008137464282681259,-0.06613901248291597,0.25074317495006956,0.021257946696872706,0.09402366886378363,-0.04338151188204469,-0.05546086305126988,0.039541214457262208,-0.10993092478342129,-0.23375280703322277,-0.037404511441798567,-0.164994885819654,-0.23208902984318242,-0.18722258605376133,-0.23502541550920939,0.03395481024829253,0.2105232583124072,-0.24568916963348889,0.1731945287452647,-0.2411807432149358,0.06384983517245606,0.07234472949705259,-0.24616502260548393,-0.24237713440220308,-0.10609859811273416,0.04830884845535518,0.03344395420289984,-0.044722354641256029,-0.10801994274592136,-0.21166341932554337,0.09951710268368078,0.14606791609875814,-0.14533568996552893,-0.032799528229599698,-0.12020368739078578,-0.10984593620652067,-0.08739295666376011,-0.09245140641177116,-0.022742217690808913,0.26989123700840958,-0.14699466636651224,-0.0676292782302265,0.05425729306373974,-0.27295026844086736,-0.18961458793715267,-0.20278551870790613,-0.08395141569556243,0.322693920809623,0.39271402530507129,0.3102582675941597,0.06225199720483265,-0.08916432350449581,0.19960065400379504,0.33587586883440936,0.19813799097947935,0.07065630043300574,-0.029559573362384889,-0.07265553417593895,-0.04726534230992249,-0.13889081184880304,0.041458157068940359,-0.002644016454215795,0.08883147686776112,-0.053914209190322397,-0.10124786597860029,0.15046687724661346,-0.01738626160279186,0.14654814794330335,0.15415412636271876,-0.1023974933761112,-0.07391687966321399,0.04719803935482041,0.04316011413944982,0.030106781172559366,0.15507233655087908,0.09450795445753682,0.04408125969880772,0.14098517213457718,0.06432481071994313,-0.01894394964967505,0.00509904422553465,-0.09930760830704297,-0.02259594005787593,-0.08018324852004995,-0.1878183063708985,-0.0658652296182126,-0.0693584053754198,-0.16222767997582339,-0.20841039168420759,-0.13496770154344338,-0.01874096671508392,-0.06812410457811447,-0.16542299892067303,-0.06287507451261232,-0.01582143803795989,-0.019409839866928525,0.030312220643816148,0.27437834862618706,-0.0349775817815807,-0.16535044534025768,0.028455425291841607,0.08328473113812557,0.06912314958061615,-0.02368581594338117,-0.1291089842585647,-0.13681297266690149,0.06289421693800757,0.011775350801332073,0.021196517202223744,0.12151045329300764,0.0005032313698585396,0.0138161401250416,-0.013707256868386746,0.0034143851052426774,0.05459592533643467,0.04523390931149671,0.006995487920957858,0.0021740591491147146,-0.08182618931885077,0.03663670586095789,-0.19134799472339795,0.01478065849278811,0.012910884174873697,-0.19843360927960697,0.05224654080342514,0.18154282659690663,0.18317749625894345,-0.029869211612619349,-0.03519660467789381,0.19723168545295553,0.2014331404354884,0.2625920799626253,-0.06570161522365642,-0.06257357262982728,-0.13738267706167546,-0.02287265050475372,-0.09249098426948814,0.13848278485868119,0.16134207985705915,-0.09036968893638309,0.15589066150096488,0.0065572267953703969,0.16672710259286417,0.10535485223541885,-0.09568474236999791,0.12762161249252558,0.23212425261165807,0.403124405940623,0.5475174357406457,-0.016549817640995159,-0.14750337711945975,-0.12102071983694385,-0.053306763673738068,-0.14877615807070988,-0.2332322957861537,-0.13614392460311743,0.09132648063148645,-0.011648961607508803,-0.06280161654494872,0.007560920666170783,-0.09587591097221462,0.05484415158516092,0.006062208709529968,0.07608324948750074,-0.0186803034722363,-0.15405978375651833,0.10482527561173578,0.04363057967878633,-0.1030364227815458,-0.05651117785866489,-0.04956287005791638,-0.021702247093807447,0.03580155169372019,-0.31232275223144986,-0.18668402620287895,0.09338386675252535,0.03968955033900138,-0.018565043309535464,-0.17219689876190975,-0.2634298393812667,-0.252908936260637,0.010770165487249262,0.059308616571371427,0.03790745311434763,0.0020087994607958608,-0.003109840849388808,0.041050238719334,-0.09311761210690167,0.05142023122260312,-0.04434243734705716,-0.01222169561468644,-0.049994115529509549,-0.004676416637357701,0.05609201259451272,-0.00462767750096645,-0.012781052075468685,0.13289072753894005,-0.32037747274234526,-0.10415459751120079,0.00034132955988960687,0.08377749924785713,-0.1939719026079037,-0.07428958741956669,-0.31517216018458518,-0.2554785188960148,-0.09449086590006507,0.15520588060366234,0.001522066596349893,0.020530953865933168,-0.04373460288830134,-0.005549557474078266,0.007310067160127544,0.007133715347416583,-0.1057603974983149,0.16712813346152048,0.03636828925788746,-0.15120321520832426,0.14277733230527646,0.03617542241757942,-0.06335247374049656,0.27738880119352507,-0.01889588647399891,-0.09809799386724534,-0.04648443770953045,0.2663954008975588,0.20096325744081143,-0.03159706674705238,-0.17968341675674694,0.22605357299635318,-0.1407429525393327,-0.3410084477922922,-0.22138138502954125,-0.018252374663477928,-0.08726562122658169,0.1256772005086309,0.010121904270443742,-0.034694924517221479,-0.18525434958172699,-0.1309514740487698,0.17199941007398024,0.024024435666044325,-0.05096100350481464,-0.0530801766196012,-0.11638914575106294,0.09094257812289596,0.3669670756177455,0.12173672893656201,-0.14676332832213327,-0.5342448016639865,-0.10338742453732923,-0.21591634952954256,-0.039609194053958737,-0.0745696175285544,-0.10816343204634138,-0.23468247704009008,-0.11061263329528858,-0.034453094410397049,-0.00043332394716517447,-0.0000774820532016652,-0.0013807555732624818,0.00009181072426254145,0.004909704361706954,0.0030830371731795918,0.002147931959696815,0.007713099552942484,0.009162745723019872,0.0071693502587631889,0.003677048897042345,-0.0006439326814199523,-0.00301532916186775,0.0053303269609762718,0.0009340511616774749,-0.0014294793671199773,-0.007641000756914699,-0.006610250940228919,0.0012696427650480478,0.0036715362210924136,-0.0002539455720789842,-0.006031757956760281,-0.003683701563550319,0.0011427830394345016,-0.003790626077893995,0.010117301285895102,0.06616071303638654,-0.05879384585016726,-0.11888185602474585,0.0064887352138720349,0.09040747427537056,0.030095838041735855,-0.14058867844047247,-0.10446799832385546,-0.04702406486709485,0.13532474639606044,0.2529004918202746,-0.06499932727117998,-0.05946998674010594,-0.022419226525724056,0.14116902527410575,0.0652598075147379,-0.09354837076861264,-0.05360239840541883,0.002400638411290392,0.18814112081731014,0.15222024438562058,-0.007640643680752905,-0.17978470065137235,-0.010068462994195785,0.01314064876279425,-0.004481734811194978,-0.014114796052895444,-0.04249475424615193,0.016673352566639076,0.12992682936083023,-0.024363392691999845,-0.16018741952584454,0.026548067735142915,-0.053108409882642499,-0.03576369595716805,-0.0903010402609777,-0.18194526603221068,-0.004782581810423054,-0.05112412758305321,0.17173650084583606,0.0664243800793882,0.019655660376991459,-0.3527126795784464,-0.20077777349026527,-0.06949566181806538,0.03723464059060438,-0.07781249641116411,-0.15635275008134598,-0.12849989170854238,0.0030380559401111774,-0.00021679196867509012,0.0004400583260006146,0.00009741176859686194,0.004567212873827205,0.0021657598156840545,0.0008480367593513413,0.0018797973996445134,0.002617351876934357,0.0035817659349845355,0.0061537477931885849,0.0015385051271490567,-0.0007132794375380306,0.0010013905914976485,0.0016071207648615638,0.0028860609293084539,-0.0025438641692670548,-0.0009537125563855311,0.0024140459323558746,0.0045996672801537738,0.0025485594012415329,-0.001488853508792187,-0.0009244551988682496,-0.0005961275713216087,0.0012241602458728299,-0.0027034909901729176,-0.06511826442790114,0.12407765003271329,-0.01870923198537558,0.028785036595302506,-0.032552473887627098,-0.11366713073567225,0.1607850767124038,0.0821184407261989,0.012628336825138708,0.02846083883639277,-0.16023186742173738,-0.10261067351925935,0.14119065711526714,0.04040104634090531,-0.036967931638053248,-0.04896442908432187,0.008198303034282749,0.2763935682318877,0.14886229876712027,-0.1983315850114302,0.022468186783695486,0.006779197878409718,0.13305413081658716,0.09447044708440947,0.051267036376698698,0.030073596657957708,0.1544032575160077,0.19808599506688755,0.11243414583323767,-0.02484146449261895,-0.025492842540781849,0.024320989701039604,0.01153476857362181,-0.032402607830221138,0.05059841213072675,0.14942240526837545,0.12179206094562342,-0.1908686178911588,0.1676397462625213,-0.011242406872996689,-0.1753173471913106,0.03556095588346906,-0.19334205429571039,0.023805839837267918,0.315229313972343,-0.11414651582111957,-0.08438213090046072,-0.08628873860298214,-0.06473157271131137,-0.06583456497404966,0.2761229986187888,0.11832193985460107,-0.14389403188356926,0.166353589458321,0.03190768669253493,0.11333594355232472,-0.14170264400606134,-0.1052496291510902,0.056726134992766869,0.2035876057599756,0.08524146296737038,-0.002014727835548573,-0.24345855366104858,-0.16788714680827902,-0.03338868955907378,-0.09527772229578832,-0.11249224066896584,-0.010528870898503797,0.23422523712336552,-0.02749981726555587,-0.07328086542666942,-0.14930397591381,-0.05523890535840645,0.10400442686908114,-0.04976732662247045,-0.0017000292671027257,-0.1686882229221908,-0.16653221378146688,-0.14110048041601187,-0.11164942681480238,0.05869352202002205,0.09883040173361851,-0.04962796919970139,-0.08184049811533434,0.10226806047165818,-0.0682154743931104,0.23759317943236908,-0.0017420950702121904,-0.009924958825019117,-0.05601199195401986,-0.0806196440677015,-0.07651719835233399,-0.04057577215829726,-0.017688553109144749,0.000013667998281099105,0.03904596086383723,0.029523346987852064,0.008028512029237049,-0.02950959746855449,0.028876269757992607,0.02573932312467586,-0.1841708982185009,-0.19772362678533834,-0.0316040688655255,0.004891931458903112,-0.0671624266994983,-0.12082665576600132,-0.0677339024101241,-0.060227949967832389,-0.006636029409201285,0.008807117000155473,-0.06803098206471368,0.07186854233608546,0.3227904146628083,-0.07602055255011259,-0.04015595784892232,-0.1712632708080606,0.09320121713482972,0.19216696301101605,-0.041475791585569517,0.024062207327308795,0.0655795791909107,0.0037327571908592354,-0.031094763246628966,-0.10639763727530484,-0.02728383516150806,0.091513182061193,-0.0722369988973642,-0.005300539732740781,-0.06453236865301669,0.08906650019787826,-0.1365827288440685,-0.20683378840127995,-0.057075700440985869,0.08364178276277913,0.04374702487704643,-0.10890191710959448,-0.12012672046668906,-0.045437561443783688,0.04886488350963188,-0.07044723762268143,0.0336944522772923,0.08940073633527204,0.033742614437329478,0.07254532474714906,0.01931534671128057,-0.10485011223861676,-0.009194321569955243,-0.006817495244203991,0.003209732110679864,0.026592410362970659,-0.2662594232180998,-0.08808775418326256,-0.009947504559149383,-0.0348907116231323,-0.07205665278080349,-0.11894771289442528,-0.2457839885040403,-0.20471962145299864,0.0366922942102841,-0.06862684676440995,-0.012583807828066854,-0.04921513293119845,-0.08409752076543482,-0.010592966965482648,-0.16119750018798824,-0.09931870396945919,0.3533888169111387,0.32400559465378067,0.009583165497087003,0.00530416229839299,-0.01821650128860223,0.0005413482025097271,0.014792170361691506,-0.11446665775934302,-0.13961370056578274,-0.0796153435812955,-0.21732343141338623,-0.2564852176909998,-0.13366880953145272,-0.03051768341760547,0.25249791337699359,0.2557873634691014,0.06303638547111808,-0.18174223385097733,-0.1190323311970838,0.18938173874775289,0.37974029579772308,0.11207473550006134,0.11605671248823318,-0.03226812921570083,-0.0013114261085369925,0.0028656470319287886,-0.06559699230069052,0.024282560305526083,-0.022757968681210818,-0.02785118994747932,-0.007836212664494389,-0.04783796956572476,0.08572492310149174,-0.00919718538325414,-0.01681164339716079,-0.02421571749067235,-0.04444426260241325,0.04239535180101686,-0.05825135502852272,-0.11848656079975062,-0.1035508403912607,-0.10870789284066475,0.08060814805749112,0.004698384936617713,-0.1580360456813632,-0.20954548036026594,-0.1098233874671908,0.037888343304428518,0.15650028764425776,-0.16026257165883074,-0.12972583827347546,-0.037299782901357787,-0.05780444455590775,-0.05255058256844068,-0.07451145850911287,-0.11893635982351397,-0.07166816555760439,0.005301901413667515,0.04178410592283246,0.01625509491974701,0.030143407897834905,0.07935360408230349,-0.012403871459790385,0.007780293557202286,-0.004192452256082941,0.055804552359294889,0.06432432819193565,0.05468317217541595,0.02039411832417281,-0.12154695824669086,-0.1038724629136778,0.06499235615754713,0.11291921774113895,-0.012359296452861102,-0.02687546027072936,-0.024311322328941077,-0.19227355603195249,-0.11700256914456665,-0.16394343963765055,-0.10150653744205282,-0.13141408671276084,-0.08624117500628295,0.012821487225006383,0.026541042494603364,-0.011337792377031347,-0.020848849789936839,-0.015133250051351145,-0.017474103500863374,-0.018521821264880463,-0.05821084349166188,-0.06516443147434993,0.337858848088458,-0.01777891951542129,0.028132971520319868,-0.08088695816339213,0.30400420072244035,0.20202975551340508,-0.01560776297935123,0.016790646623927154,-0.09042981053141583,-0.009231778077993513,-0.05036767670070722,0.00796906102780965,-0.08098919405818293,-0.04001960086801311,-0.000015257479364702054,0.032001853399927848,0.008658202007823793,-0.028898614007284969,-0.16162368617697496,-0.02570607384917581,-0.0008311186989167442,-0.058125832550896729,-0.06810544590574107,0.07412266509254469,-0.2642440962678274,-0.04206970258496359,-0.03565437857794718,0.07294294893419119,-0.046485620624189,-0.2743456413277616,-0.03682008976409764,-0.0668977559717853,0.24273329783038753,0.16431421259521893,-0.01167340355404771,-0.03152470270659126,-0.06885749430715511,-0.053040746148728289,0.010267166221495022,-0.09698513282811422,0.0010787495996185859,0.002931585783004946,0.000471785777616302,-0.001568729878736959,0.0008791245295857267,-0.0007356696604896663,0.0028771950438217428,-0.00121686545274742,-0.008186934976978273,-0.0032123260288025267,-0.00033674449676655865,0.0011377965414026816,-0.000036140915651088337,-0.0034114994555715569,-0.0010531374329113056,-0.0012614678310591533,-0.0002559537052423908,0.007895693766167483,0.010881622561793174,0.0074382183359306438,0.0035356874673606018,-0.001611095822810396,0.0008709294187591141,-0.0013897689894492116,-0.00437667898628988,-0.00255874793519113,-0.14198186005441958,0.03257135863396753,-0.054298135095859647,0.02920178433628336,0.0037046941545036727,-0.05088633908209315,-0.06898524006133283,-0.09580060199429678,-0.016985600183259818,0.028135857559175863,-0.13466473416549544,0.03510920352649168,0.05798223914118107,-0.04854285892779784,0.05246873198077017,0.20682784494482388,0.16311965556492018,0.14259667255246875,-0.013459709180478317,-0.030591558294898143,-0.10051324756661392,-0.044251157091302398,0.061307468108975807,0.02146651329297447,-0.004432000966189307,-0.03497708677246217,-0.046690012068757728,0.07233956924475062,0.0324371972508026,0.008919421992249103,-0.12924572211200076,-0.09847702431729558,0.007269675981663473,0.19998964644485463,0.10675512862964068,-0.07143019441274609,-0.08708339583911262,-0.12435705350209552,-0.032773264077196429,-0.0202623491076275,-0.029201266086131915,-0.018186009794977675,0.12914701890457476,-0.04548065224137798,-0.029861310478448517,0.02622947997227275,-0.12543969026332933,-0.012235071211784113,0.08446789901648003,-0.013253548874928903,0.00028787848284858624,-0.0005302284193156136,0.0008620984714670955,-0.0006243696738140663,-0.0010462065217741145,0.0001805199361619871,-0.0012421937710466759,-0.0029757233638820449,-0.0010395816368517107,-0.0017498743826059825,-0.0012744350659806637,0.00003462522097539022,-0.0010379243178673744,-0.0010386782392131944,-0.0019572435461236287,0.00013869676219239104,0.0007285487043891613,0.0017961410467874626,-0.0003098744474831247,-0.000053551980767062439,0.0007640615921832467,-0.0015330241522650652,-0.0009345760276403837,-0.0015362418958459284,-0.0018683575860833726,0.018654763015432248,-0.05525771280409725,-0.08494140935351317,-0.04412480137195559,-0.00033105374232834424,0.014743435967779705,-0.06138134368437981,-0.09830650462506954,-0.1566345573734198,-0.17336127913548989,-0.030272341847533889,-0.06182554111835205,-0.061051159381630467,0.011203805134370422,-0.1256693423462466,-0.13534360882593969,0.04836744831120238,-0.04344811810871385,0.10155918895052708,0.13122310692237275,0.12185307727893563,0.04927461949509718,-0.05806612345201169,-0.05905497274039036,-0.00533924820749353,-0.017393089474417663,-0.05219525447050302,0.006456156406817887,-0.09842375385537966,-0.134487025353618,-0.07871402284467409,-0.08843103713298617,-0.004876118876107144,-0.09385056474964175,-0.019898595955971725,-0.0691059561947111,0.0911025029001161,0.018961720914001023,0.040342727089553307,0.0761250242509852,0.02000267063638306,0.16733900368796993,-0.021747012151227039,0.051802533947527,-0.02085960627754079,-0.07211574399492386,0.1180798022263356,0.1134848649978851,-0.023209208544811536,-0.021482943599624939,0.013861575729264095,0.042469096528333288,0.11850666050910917,-0.3412170134143855,-0.576205066144317,0.33384064276575217,0.15299241537333448,-0.2672481694521196,0.2509003830829098,-0.44956662710171876,0.3324082509304263,0.018469467690221263,0.1952517731244125,-0.01241725991158903,-0.15907346230990619,-0.12110182492585653,-0.1711786272038051,0.15077957932650253,0.14050849956702325,-0.054590771925084827,-0.22706687257441594,-0.18421553230651115,-0.21348058103981439,-0.10309428179750648,0.013223691107215354,0.017519391403605409,0.1502518499316981,0.14374936099165176,-0.21456755938405834,-0.14116074309773156,-0.1201037534517593,-0.027637412526805958,-0.37978406200336448,-0.20512351205542726,0.016951794373937933,-0.772852269247709,-0.3210490381349902,0.013960441710830631,0.44247777114606737,-0.020267900160497764,-0.3501473758974597,-0.3042578274465481,-0.018017045959454169,0.05477326282732704,0.0828576680437259,-0.10385271166047389,-0.08755888983583132,0.007347012421585237,-0.01831183409142832,0.033975674059308649,-0.013098046312348726,-0.1173215814908728,-0.02606602001768342,0.06463404231867225,0.1932287290872574,-0.235044252238803,-0.19307605572211326,-0.21966493099622468,-0.10920079222529107,-0.12136458617737786,0.058275595968042308,-0.11120877252543606,-0.03831225715916483,0.03270883112533895,-0.3966567730133955,-0.1894927331997631,0.048034787765026908,0.1676096722815022,0.047439025673483018,-0.13515836928606085,-0.08165299109919755,-0.13558026257207218,-0.09815935927367475,-0.017474814610419364,-0.06360144557925245,-0.11045142233498968,-0.385777040088597,0.09192322581294131,-0.12076003836203894,0.019526388727763075,-0.04600340385058601,-0.06144654668640973,-0.02168661168050853,-0.014475629981457324,0.27035524709086636,-0.04398341076402714,0.19038623612424983,-0.060743487984125519,0.05973881239686099,0.0981126644061447,0.01898845595004643,0.215945135246218,0.09750873607453002,-0.1142095231546989,0.10321981849693568,-0.09016200435726897,-0.12497837401386208,-0.07807534499260939,-0.14620605801347556,-0.04115822248870249,0.007568630097164579,-0.07353414243938016,-0.31736952398038106,-0.13068848388547853,-0.09712550014179798,0.02539741045534758,0.06666736630814008,-0.15088038643610406,-0.5335190758357131,0.3853237535081468,-0.15339366829514759,-0.0073128379754211409,-0.0510522114031437,0.4092196553719044,0.010218231245717677,-0.06394698851503697,-0.26628113728019567,-0.22573790398539005,0.032615244981045728,-0.05255456526708504,0.0551607285673662,-0.13442581759326395,-0.3214290890815597,0.027782751484487619,-0.08265015357533819,-0.21965733179509565,0.014424818635123736,-0.056299241124924719,-0.07131494560589527,-0.03142204563877147,-0.31541673882317819,-0.2260267134458314,-0.15134873512554324,-0.29906077226269298,-0.5275041904863711,-0.6083713564977222,-0.15002266359620426,0.11668471460858908,-0.1612001877212187,-0.37485916100803326,-0.201615223238702,0.09860719682464023,0.2770227575120855,0.040517370068374369,-0.12438878588388873,-0.08467983476015737,0.18228375448607457,0.13425628706652568,-0.1439964635329896,-0.03598183515210285,0.025141599722588949,0.01956643073491042,-0.14391940569302923,-0.05024213840129206,-0.18598610349460369,0.020356444286726003,0.2787126919567333,0.08689110975047367,0.1441034928225777,0.38483094698614919,0.29238298628040618,0.35302029541786636,-0.11557778784821747,-0.07927882936281448,0.03987482570669648,0.3026428611366667,0.32010824765422576,-0.31990168739060478,-0.054950627474708638,-0.13868788853107928,-0.06502016700167003,-0.15557002454052458,-0.3883448300727954,-0.3771009357161993,-0.024617359684205005,-0.1432471224036462,-0.16973840896995996,-0.13110664337607196,-0.09436678391688443,-0.1713585776425174,-0.2500453028266095,-0.2178821143231781,-0.14545710232354726,-0.006625729335181928,-0.11408749234410626,-0.10558761876233625,-0.12580809184505038,0.1685370970617763,0.35528265167093278,-0.1348952563612806,0.11288503863303191,-0.005344945300841906,0.19916383252185333,-0.1260218611171133,-0.028400203173997053,0.015627406439352104,-0.0728366703701592,-0.19199253405437487,0.030536783024347957,0.21646361030633055,0.04362533547099823,0.11260823492277501,0.19098081382767438,0.05003958823311547,0.07346976404843833,-0.1211699437502144,-0.20623364353116289,-0.28180312242332719,-0.14172416723380613,-0.15968395350203455,-0.14909204133587498,0.11392568927715369,0.11076684870847267,-0.14602958721611179,-0.231257577547754,-0.03688967973704069,-0.04924495301755068,-0.19455545377103415,-0.24152544646680308,-0.19332600244862822,-0.23851521486096015,-0.18720369281252909,-0.10063883940111164,0.07413799938301745,0.05611353509900289,0.006112234280282775,-0.17855177436523499,-0.07782108482564369,-0.026267830357603353,0.061558404498862549,-0.11468603138792133,-0.283790452480953,0.02630596687478351,-0.09004528002511064,-0.0726008327302725,0.21752416325265104,0.30941917925841247,0.08764202683089097,-0.45355786888125018,-0.43534879897157688,0.2517316202993228,0.1952876077827192,-0.23070921646578647,-0.3716330664766862,-0.20652685635325478,0.1178264315544847,0.09951227561579633,-0.06557580820929741,-0.14594081557849093,-0.08592996354488933,0.002870498556300127,0.004392973237818999,-0.005035757250813547,0.003303805967232148,-0.006774149376348309,0.00043026000054126686,-0.0024604269406227334,0.015110772792442849,0.004964764586660313,0.004069577148478444,0.0022473495518885706,0.008714290013398997,-0.004127477454400646,-0.005178027337514106,0.0010037946926060612,0.0005717366557873269,0.0001754540232062166,-0.01348963274494243,-0.006867340891160563,-0.005207492776217469,0.0008294176746622489,0.0037497238154371576,0.002722932914030526,0.002717172428387442,-0.004174991942001444,-0.08992812224211533,0.008805288730019075,0.014073771342888338,0.03585406579023193,0.08430289576187965,-0.14016032548020447,-0.235772435661669,-0.18889706205665747,-0.05222383845378074,-0.04503188887297745,-0.40481634125588647,-0.47217675148911078,-0.2875077203823252,-0.006192514956598743,-0.005492692511274393,-0.11794732040179282,-0.026156005082211363,0.11611904045110092,-0.021423449088359703,-0.03358217083710593,-0.3650742461578736,-0.10199352297070873,0.15807823783253636,0.017853862631053736,0.030242027803780656,-0.037348020024817869,-0.07106561875657233,0.02708741387853504,0.015224560561309052,0.029173700118549894,-0.12739975960379749,-0.07536599948385245,0.07101172158935015,0.05702694538036051,0.3342094991751645,-0.3131371328633127,-0.08372341598277852,-0.22977610093819829,0.15839259590396266,-0.03692932538458786,-0.24396137908960445,-0.34180093498902039,-0.3851809023259875,-0.049132800751346208,-0.02468811843355984,0.17524960120922843,0.05284588513773216,-0.14371617160090689,0.11675963300104825,-0.0739091246590362,0.00026462206567404514,0.0013424511671652768,-0.000735726855447253,-0.0016506914254033388,-0.0030066387232742495,-0.0016592984693293504,-0.002688307810378837,0.0011585211746437637,0.000964426990936096,0.0005389653712722491,-0.0024946456469845678,-0.0012242074486644764,-0.0007300824885689464,-0.0008280441572383389,0.001360799854434414,-0.0018659806729859493,-0.0011115245854931614,-0.0020477913808602825,-0.00259832764020136,-0.004353541813243551,-0.0025844499150106628,-0.0005866284725762777,-0.0011956817312498156,-0.0024954218560837256,-0.0007387017903084219,-0.019936259900494775,-0.05382007514837049,-0.092118192754347,-0.06372985211292799,0.05977105408058527,-0.0025072354225048659,-0.11221547610400397,-0.0017004025825295188,0.12488644266664814,0.41675917329463166,-0.04813896563562384,-0.14630372616396604,0.06074261420133826,0.034405275305129889,0.050444719221959508,0.09620086240085886,0.21205343172764164,-0.12983711106427313,-0.17089048052135528,-0.187138602235762,-0.01788766970545114,0.0990135629121175,0.0051926248173665618,-0.08325923486258183,-0.06725607019153358,-0.0657758927396735,-0.1517545796576786,-0.0874909850683165,0.09915791127979151,-0.006381357607609524,-0.13161766474909804,-0.14442239990035048,0.13891455719132154,-0.1163335237093267,-0.09097180464372562,-0.2223513670646111,-0.30696296167797845,-0.32191219960329978,-0.005605496189860223,-0.1278857583688915,0.28927994429200568,0.05829187679370439,-0.09119622102878444,-0.026292824090332818,-0.0504757404404387,0.17571610168762337,0.5202513619295485,0.30650686161309129,-0.05781058576077561,-0.06182935374399539,-0.14957486505555168,-0.39091625110365438,-0.36079101802679078,-0.16177873152597833,0.1773615056100703,-0.25950859190326416,-0.30702870988655175,0.06121554520920212,-0.2589208616212309,0.07107149799374385,-0.26852052042083726,-0.0741973678029267,0.2833200273778424,-0.06863619114172795,-0.30735504153923595,-0.2290808811464736,-0.18341848465442615,-0.19448496994049983,-0.15900945075833018,0.2668642867097505,0.11465091321943694,0.2326636084872562,0.2627591484323336,-0.00761947956944111,-0.19275671061896613,0.1502146755418242,-0.07182775295724249,-0.30431230976195947,0.23062913604327893,-0.01550651507128335,0.04473433525769564,0.19922703337741136,-0.16058400613904268,-0.050610881717578628,-0.12396758781018515,0.052601529819615727,0.5077354932010514,0.02723499033027856,-0.21039930199736979,-0.1600073309174187,-0.29817339683594015,-0.16975102032685353,-0.12913759557858846,-0.05520777601238122,-0.056171681601086969,-0.22936834323573897,-0.3283504964845539,-0.16609221249262352,-0.14818687426886913,-0.011988019925234768,0.12978086265400663,-0.022855053381642306,-0.03254548303921451,-0.0895495928904955,0.12936171413594189,-0.046856844124209037,0.09990043084938709,-0.09846801684014929,0.00875576716455365,-0.018186927823756913,0.33887932049454236,0.19309975416783199,0.13133299362871329,-0.14026002895964316,-0.17892026957042343,0.1397057345196342,-0.03607451073517776,-0.15712827978495037,-0.280104922293283,-0.2619234774855755,-0.12010717151295115,0.10558840982590384,-0.11429923379351494,-0.07735508511187668,0.0012895354745020636,0.20691238883124109,-0.13015371104629099,-0.13829934334608913,0.005225333698437567,-0.0221860385256308,0.036434098877564307,-0.0232164508135486,-0.04384131967174418,0.10797890692440139,-0.044715928159338568,-0.2277964399338137,-0.03910273275440325,0.13717552136590487,-0.11006814833013928,-0.09131164835744397,-0.16870294251206958,-0.10596815022471395,-0.1390662196349975,-0.25917755355533375,-0.1188424819370259,0.06420416181031932,0.2573892395792647,0.2001375878456532,0.10183674918851027,-0.06651863358103726,0.07392440105261265,0.0468356868906375,-0.13663282012648879,-0.14665812776138149,0.06107131961993239,0.03752413062285918,0.18994626098180585,0.28420133513311976,-0.0579276896271683,-0.2515510140772497,0.13991616206140743,-0.08795309913345839,0.29895896677838626,-0.31017427152564489,-0.22603437651661249,-0.016300084452247899,0.24699233382540479,0.137209904252597,-0.34721497044832336,-0.34759712917855309,0.02399208962363043,0.3980528733405576,0.11981383663143226,-0.1781880793353238,-0.1627724082978056,0.2105310316591169,0.005795021632944517,0.0949133744483628,0.13914193886088928,-0.12605343966666569,0.2046213026740663,0.0795327378401969,-0.03550363835298295,0.02328858715494421,0.07921222633995318,-0.042942295310684479,-0.02724754165273472,-0.04522977445021239,-0.05330662296208006,-0.0924261677846814,-0.17513510304471684,-0.15789798964181815,-0.021469931443415296,-0.028867060123033834,0.00954202267515907,-0.3326657878694657,-0.034298164705238217,0.08943887569874758,-0.054129462093956189,-0.13213476191600255,-0.19740343325452579,-0.04461188005719665,-0.037138682474095806,-0.16677280935225728,-0.07031073735037862,-0.08562303526798051,0.0003213731603170382,0.17455995075451398,0.26976865699381777,-0.0736805838001059,-0.03721632830031917,-0.07860432121369239,-0.022838108089753785,-0.2043059817866056,-0.026632130770155014,0.0767474564234818,0.14537343502271894,0.2410846413118443,0.269470442952365,-0.0788687386294441,0.16470905112721508,0.47996273132316827,0.6163210613858667,0.373939904714063,0.08345614442074388,-0.037613502883441288,-0.05277060269896339,-0.031020418488315928,0.012367149257091365,-0.00031842045297433136,-0.019352199350847127,-0.20585286732475434,-0.08250221162429265,-0.1591350582515003,0.11577325474857989,-0.10546938145754414,-0.07989533066838949,0.16185756830703575,-0.049451370875470659,-0.11440533603925213,-0.01985348167506147,0.1491034047801171,-0.08386562129844882,0.02317173950484813,-0.025432270573268836,-0.02717662214462658,0.3455972717146035,0.22631363817147674,-0.05953384246435605,0.06462445404398877,0.03082588783464719,0.03919540302911785,0.011198685224584896,0.06143531864829453,0.015508843317442248,-0.0024523706430261648,-0.1446382191606092,-0.11472443865140518,-0.016655957655148807,-0.034939393862399619,0.06604288411226637,0.06130207498285764,-0.09864244835076328,-0.25064781334738026,0.028200710183933283,0.29988507607574979,-0.20746122154189654,-0.17351826667534285,-0.2664817932399583,0.13453144950583419,-0.0007994195757320679,-0.21695399424196724,-0.25011585889270507,0.23952407662526199,0.17410406060924919,0.0054698329115005169,-0.018485868603923477,0.05687437573780599,0.021269849919154709,-0.018327690554334164,-0.1531579523554951,-0.3194969588561816,-0.23809169710646206,-0.14499694167273859,-0.07829731794774525,-0.35296341722508525,-0.5021804780244494,-0.5308805150310345,0.2620459163992013,0.048703909902578879,-0.02835370409847028,-0.2682268039340385,-0.41909505137044869,0.13872674159446167,-0.09945769686720421,-0.0487742734307529,0.008396891356310744,0.2234680336016822,0.16870544769833596,0.08958077016667746,-0.010077757273691689,-0.0019820301961857948,0.0005397768468563514,0.00007565088533907924,-0.0047254315903645159,-0.008755152685740175,0.0031058277473410228,-0.011715510372964814,-0.007950742097466863,-0.010975894200040488,-0.002280615900118494,-0.004486590479479892,-0.002979098657208486,0.00520512898174856,-0.0058102868819030419,-0.0008026728349655321,0.0004261422396160565,0.002256397113934055,0.004172076241763084,-0.002729305804244583,0.0008829061941095087,0.005255240205322285,0.0007658949177284251,0.003133453988483423,0.003888044571755729,0.14185329744565842,-0.16556916596840977,-0.15358147251304408,-0.036926221748500086,-0.032127776215776396,0.16120386003443269,0.1582526206473166,0.08274009349972368,-0.04459684708304491,-0.034481604939157649,0.14328374520985946,0.05577021110585825,-0.03702061217442006,-0.013512394068434545,-0.06580142800310364,0.5776239816500429,0.25423318221904436,-0.09192487609184177,0.01842074818372456,0.010501178144390293,-0.25887257335048866,0.13184201659209003,-0.10723465778742794,-0.05081028560072963,0.027187288978854267,-0.009997498228475984,-0.014319256096467833,-0.006484874825838748,-0.008349596558150409,0.0932576324114337,0.027547954498840029,0.15378437973640725,0.18760936043911947,0.01595020202640666,0.0007434939377051895,0.2535252332738059,0.20676571897595229,-0.03572400689780683,-0.012071929565338901,-0.031629222198207029,-0.2118198552294616,-0.2543997257087629,-0.2249552281645715,0.35661550184423337,0.29505217628769755,-0.2090966325267686,-0.22655189546011399,-0.08822063444577438,0.27426609276548238,-0.04278940304061437,-0.003966866536987598,0.0007741416494407373,0.00013431010301867308,-0.0016357659025890868,-0.0015341528107134038,-0.004124420035377161,0.0001552788072729498,-0.000920007246436882,0.0003931022343991966,-0.0017864393900002374,-0.001524377783424036,-0.002298384410143324,-0.0013325706966583235,0.0016983569388499215,0.00033385396017826974,0.0021835975566073348,0.0014578268820973847,0.0009342122409549603,0.0006674488522212864,-0.0014961754219954599,0.0043269950725844199,0.003346351270451061,0.0012025320476893927,0.006142398660312216,0.006170982732026749,-0.01584080637706861,0.03629624723533595,-0.13944438709711777,-0.15221752220579727,0.0669607813245452,0.030555380040677608,-0.08455745529166958,0.12439885478596047,-0.11285420292911143,-0.25517629917329057,0.17601928581955765,-0.05459786108527748,-0.16367062436448755,-0.09719142463108632,-0.03786235702070712,-0.03401363975737765,-0.08961663421472729,-0.062296655533398147,-0.35579424205178869,-0.15206532049053304,0.11620150230041382,0.06777282162579723,0.01791145445274362,-0.0011872388312233365,-0.15612610903443123,0.05067993436866767,0.04990691202690799,0.0947908887981416,-0.044849283192876638,0.13147289609692679,0.15554138466852616,-0.16876579425728098,-0.08510926322052869,-0.09525563931958957,0.05771550301174661,-0.4847781782445711,-0.48104352835359828,-0.008312215929647347,0.28239179348820117,-0.0009084450246645755,-0.3341143383062213,-0.3390247416069708,-0.13393018742404415,0.2180511401207011,-0.022268830153782429,-0.2786888650571794,-0.33266640812814277,-0.28256668863577846,0.08118861139145177,-0.035684532097551308,-0.0695699580439069,0.11643088048878767,-0.009804646123290451,0.06665497083990331,-0.075832663043696,0.0103375579933591,-0.05297508616633577,-0.1776324469855913,-0.17610823769822907,-0.06447639542042874,-0.21136486435828068,0.038403646836176367,-0.23564357210815874,-0.0950829663416719,-0.24129771572163173,-0.14802660502104818,0.223307632946453,-0.11070008656955882,0.027574840375018764,0.15923628748474284,-0.09090994806288533,-0.09760702232082065,-0.009040665961237883,0.13364379586283216,0.0717275357262252,-0.04988959891012818,-0.2584304439978624,-0.19002796146584437,-0.02618514524190608,0.08651655189981256,-0.07411818648686727,0.06977744874851427,-0.07520437034512076,0.01680657681019555,-0.022254411423436258,-0.08352845493185167,0.14271911561099624,0.002069859820544184,-0.08153308214837372,-0.10947418523650719,-0.1405687415425586,-0.1989349574532852,-0.064113697083017,-0.022876159842917109,-0.0624030525561401,-0.1098075786120077,-0.09406821027602017,0.05718078672037079,0.02642559775640247,-0.030261700739295337,0.011775323491140333,0.05195766550542222,-0.0315357967459395,-0.11361798586113783,-0.06207441116395388,-0.08765443919922708,-0.06873311696508823,0.07469089767571385,-0.0821607721519948,-0.19534474368540365,-0.13220261155764394,-0.0065158745501648989,-0.010190346164137845,-0.12195893317346834,0.0011182093439518876,0.04799342670811503,-0.011840618373288675,-0.3379018913937356,0.18063332727906226,0.09665250507228172,-0.10396471693741957,-0.07714927728025263,-0.0037033317082603089,-0.07187526262064402,-0.024832174019349116,-0.17222112725836179,-0.16812009569366308,0.09182270812730552,-0.09980559253851695,-0.09415269246773334,0.0768769802215313,0.07580924554142607,0.12407025371161397,-0.07565203849378334,-0.05288183917543009,-0.04388271491869744,-0.00909012580590672,-0.14116100929796808,-0.10419381481229141,-0.07163397291138588,-0.0763233003717091,0.12846964080693983,0.1439025549168776,0.22247672032286004,-0.038341612854218349,-0.10672504075609048,-0.054766139347889219,0.009017994958771548,0.09678305683938089,-0.0234241911389352,-0.02734209266225599,-0.06000642645687538,-0.0676944177259157,-0.04603937397443509,-0.11072752218010922,-0.058940129920703607,-0.09345757827098753,-0.07457217347986028,0.17125001416558736,-0.06075284787590569,-0.018249139305731748,0.2961366373345685,-0.11591538923204095,-0.2142917963280812,-0.19219629841558645,-0.0383136932678397,0.37714165270494079,-0.02992820951007178,0.030894415631243088,0.01903734130537274,-0.04724931175482623,-0.10910200279655122,0.07641694812697113,0.08885693705828303,0.06796292011523653,-0.012655407399735768,-0.12795353878098734,-0.07092950309476144,-0.2998648343064748,-0.041541419653724497,-0.16456240757521554,-0.014372309596783666,-0.023140002495966123,-0.10388778614500545,-0.07405412714765658,-0.17172550738766946,-0.3458054528389323,-0.22324865935889386,-0.042770521988626,-0.02344441708104799,-0.31737186541679626,-0.32960877576393196,-0.10647208475040562,-0.22121790064990905,-0.16574561446366016,0.12702556141546077,0.3399546844814251,0.07791911235166285,-0.08171445637304906,-0.01882982209149312,0.030279346003254674,0.0382703107822085,