{"convolutional_layer0":{"weights":{"numSamples":6,"k":1,"nr":5,"nc":5,"host":[-0.10407527763888124,-0.021720281394617379,0.1480073568180726,-0.07371674403731128,0.5541823678449436,-0.2500852639543937,-0.5717564795775643,-0.8781597391888252,-0.3856406724475447,-0.6922980637247626,-0.5515232154160328,-0.5210940085982189,-0.7123680934204286,-0.951010715296557,-1.539023843240808,-0.3020198005737717,-0.21639896758027855,-0.3894626111948021,-0.12432351583316942,-0.25784032864339087,0.10468132576542654,-0.21125939562805252,0.7610826860618113,1.532017167593717,0.5821553675533341,0.4643807367749657,0.3221276138313809,0.11471616955655506,-0.3982735868236384,-1.0396742087345288,1.192051765240368,0.4399890946347521,-0.22488346962652074,-0.9050952916083769,-0.599435740029135,0.6802567932107176,-0.10333416087964763,-0.6759057920180518,-0.7350495934279517,-0.44507958450184728,-0.31631417704240558,-0.6621975678551053,-0.7706097225745301,-0.3357725308617569,-0.19922681445976654,-0.7535530084405148,-0.30560852437954258,-0.20463038364014989,-0.08918556385065112,0.07016376588789555,0.05647289755553459,0.3543148776297688,0.06068658156850436,-1.7691747246308638,-0.5979193606957783,-0.07361423357046035,0.43781708416809608,0.9376347509601124,-0.7786416058938522,-0.659468099054461,-0.053462692540750197,0.3330392894062136,1.4263778772345666,0.9547913153510714,0.0015010248687190348,-0.33410546179173436,0.05225015441538648,-0.539347996006677,0.2038825012316295,0.4523294250908107,-0.7816363333221208,-0.6229170644105426,-0.780690385635368,-0.04377934424239674,0.5135039242533559,-0.0019650567424170995,-0.00166016914213318,-0.0014521883350912999,-0.0015457796956106643,-0.0031871876779307154,-0.0016721891004563047,-0.0012167774659918878,-0.0018925504926035227,-0.001863816674934701,-0.002562690755066032,-0.002347264212919636,-0.002046963101824143,-0.0018707572435674102,-0.0016923033614766154,-0.0022635712067312597,-0.0027916594487401018,-0.0032738857035139016,-0.002726957344672058,-0.002260918765155754,-0.002196364977280294,-0.003656092934231317,-0.0036740612645124726,-0.0033386101467681365,-0.0024382063778352377,-0.0028344248931302209,-0.10458990450276415,-0.10892850803000781,-0.4829764511565336,-0.18810565854680567,-0.7276605826350872,-0.1882098571806147,-0.3851288507081235,-0.4696114100703041,-0.7734338468283755,-1.6640165801782244,-0.3156622692482262,-0.4868233388366794,-0.5771250349605835,-0.32528827388082706,0.5571115195574468,-0.12951254008032055,-0.5542686515901932,-0.6377490373886372,0.10347222575379638,1.2225990737002626,-0.4022347221841263,-0.6868948015669557,-0.6167503039133588,0.04121439469934836,0.6766887360742515,0.1801557712068875,0.4847611244042251,0.47915168811856048,0.8882453612598578,0.6972624610919461,-0.6405005555833327,0.29759842719670867,0.33509552111181875,0.427313946883783,-0.49546355664453475,-1.0606142936234849,-0.38306882056079269,-0.4207231575970508,-0.3571364872436301,-1.2329461500589556,-0.7237951789768126,-0.6351482303857888,-0.990960674938481,-1.0834676740499137,-0.42124279366586839,0.06590991191479094,-0.285915774358546,-0.4998813029245372,0.025122379816087359,0.2666466184558523]},"biases":{"numSamples":1,"k":1,"nr":1,"nc":6,"host":[-0.250242277101145,-0.14671939981620175,-0.9007704789772684,-0.13200771236153495,-0.09062434973066795,-0.1701336899122743]}},"convolutional_layer3":{"weights":{"numSamples":16,"k":6,"nr":3,"nc":3,"host":[0.03099214602233353,-0.07069831444251176,-0.7386872547696834,-0.2998423059841601,-0.4039906461883063,0.008834132457738392,-0.32007314265089106,-0.014009656232603817,0.014762124437210521,0.22959272196874076,-0.4195669532945542,-0.1831729019116798,0.513574167493079,-0.2812132438158457,0.5191869983032091,-0.007238285703853558,-0.41930054595847845,-0.048856722983830477,-0.23646651480849818,-0.1361123179579018,-0.3817004300036124,-0.24870771481596108,-0.2772553819659861,-0.4870423284759109,-0.43098494945659729,-0.1755045296807222,-0.27231404788428989,0.0024783533286656556,0.001199323563618588,0.0011429685683263349,0.0015441784149317912,0.0015996563947480705,0.0022378450348838508,0.0013026227913596849,0.0008340105999731697,0.0025842078276160638,0.6434407791762383,-0.049735200558109139,-0.2938925287181079,0.44083860646922348,-0.2040055586363697,-0.05817929827476279,0.06800166280041892,-0.26827957338614058,-0.2764003909027626,-0.20009372382590405,-0.18220212008761617,-0.20638577892869459,-0.22612658413619769,-0.300469175864291,0.15281052042283659,-0.4294353247878858,-0.6648291542465035,-0.48098870193382667,-0.20842545955188644,-0.2527910184701748,-0.4973770017116109,-0.7902460714825007,0.34132456043451089,0.8080587925373766,0.24427757208667306,0.5234186558858114,-0.4825584690410268,0.13045364380773886,-0.23323925978413738,0.18305459547832254,0.09521299880988551,-0.19855900151558415,-0.07084229780458842,-0.08257758838480514,-0.11913522951228323,-0.13770717862351743,-0.221271057657668,-0.32541402598169458,-0.16159838010322195,-0.3644835638413073,-0.14989061725958606,-0.23108785622411685,-0.4069082481758833,-0.6557591027337647,-0.03416710869334092,-0.0039021206642412019,-0.0038152372587357656,-0.0023572898215068977,-0.003952479828841933,-0.00266097887854652,-0.0019156357616835747,-0.003553989386047575,-0.002580794513406514,-0.0007346155492565414,-0.285415898432754,-0.14015170966596419,-0.14305334974239107,-0.3908240378327371,-0.020507515993740619,0.1704350393206534,0.37766014475150597,0.2516784615693396,-0.3619462256971949,-0.08322584288649597,-0.0713396186685501,0.03571557501913304,-0.10068913741920019,-0.16849638705075338,0.027681323288761045,0.03486908911006902,-0.075334220870928,-0.06964525702276207,-0.8428225679100627,-0.09005390685213102,0.4273160169878664,-0.34701102586119017,-0.6557857038509704,0.5321302111113141,0.04197883075030625,-0.4702580286415157,0.019451447219657436,-0.32641841183932299,-0.6922069269542912,-0.5944031505948147,-0.42741813199856679,-0.2808707551420231,-0.5433969017934074,1.4237410987849153,0.13966017687194039,-0.266913983223652,-0.14682534005613263,-0.2561928787584884,-0.056908197827163959,-0.2855179829862808,-0.7444728965568968,0.3348271896587106,-0.3611123148551867,-0.1772707093619439,-0.04593726358852807,0.00023878502652166262,-0.0005958188409174282,-0.00015912919063223237,-0.0003809751596508335,-0.0004392219321575088,0.0004981202235919566,-0.00019787208900282007,0.00046849009895437037,0.0016109091299912123,-0.36761140336839479,-0.20792178883726704,-0.6612128201916243,-0.5703226426525317,0.6792752634700211,0.5524877114047273,-0.48584737401174529,-0.9004687509201336,-0.194540115860787,-0.22169500622763545,0.255101196593708,0.16736595930409099,-0.012990611653723299,0.029793396672291904,-0.555032954203218,0.07759627427025441,-0.43633447236719438,-0.23421306668757559,0.19779733679698195,-0.34185488561752966,0.04429948587813831,0.29267106137166767,-0.33349954894551228,-0.2670727343216596,-0.16315726253990577,-0.05102322507006808,0.22658218577591777,-0.25843787109129937,-0.3471457428265695,-0.44521980439825245,-0.2781795872472937,-0.3792821370968568,0.6587208304046056,-0.17029275750765866,0.018434732320179324,-0.20177435533412009,0.09461880333794969,-0.20881863934623816,-0.15266316580411108,-0.5439724562184811,-0.3322285144242787,-0.1934523808479752,-0.5164609263979171,-0.40591772308718945,0.16913562071158484,-0.0011893920666632226,-0.00014188846281008066,-0.001543884630393229,-0.0006057625077195421,-0.00017390138331458067,-0.0018800657014463808,-0.00044424331882051733,-0.0012584039475173415,-0.0021977399015004714,-0.14532602749905555,0.0643653699863682,1.0071598381507617,0.2487619606872282,-0.5953339019987847,0.5436039061148753,-0.2253658829688387,-0.6500207314599144,-0.5300138236114118,0.5251624017198822,0.18874972076922753,-0.37864924055954066,-0.320045481531747,-0.5232790993638457,0.08414873388790445,-0.5363765265571474,-0.0451877467782237,0.1720205630286532,-0.33089257943957597,-0.20791841442261328,-0.29145821642500899,-0.2735460778910515,-0.5817240189232267,-0.6340423998743681,1.3945101346215967,0.4353605049731141,0.22412007758814798,0.11731191927973228,0.2690219048942958,-0.24141107737660787,0.3730069800240554,-0.23276225016702282,-0.21080864865381997,-0.8479403771309805,-0.5698075793999776,-0.5380797631485443,-0.43878191594972656,-0.2151875192085782,-0.18676807591615653,0.05833979679620956,-0.2507059686143509,-0.49909927259288647,-0.5480992692260464,-0.18322729863007626,-0.2403461878896549,0.0005185576563963609,0.0007827959980066767,-0.0007023108218332936,0.0010575234535511657,0.00041591993562323975,-0.0012173726170637322,0.0004405850058009896,-0.0004037996830504696,-0.0005207445974115602,0.024875051086214178,0.15834785599497284,0.23713049495721592,-0.46122631519987408,-0.49008787925105776,-0.15016976434519384,0.02049854868182595,-0.5214609003917637,-0.09456367262726427,-0.05838986889045256,0.010520351951696488,-0.3631550443611279,-0.15633196660594918,-0.40739552099558998,0.07671317488151111,-0.44120648981381396,-0.21776243327443615,0.7695469327532214,-0.8152574225581494,-0.6800825954597337,-0.262192292901625,-0.2485873435910804,-0.39296181513048175,-0.40634560606295086,-0.3028573897112943,-0.21737042793130394,-0.2603681626571309,-0.3829243597726646,-0.39300031927022169,-0.2654434683487315,-0.15192651105395325,-0.3147960571923406,0.07064001408546672,-0.1603777959459364,-0.8272142220983221,0.697897694957464,-0.06214326303574655,-0.012533239741301862,-0.5906629178098684,-0.4532643897616255,-0.8940773337913271,0.056708589692425908,-0.4428191230997112,-0.0056383978983961719,0.8210812837434565,0.0002814672375329819,-0.0005387936719069342,-0.0013508110971236644,0.001448028032970387,0.0002391216067318045,-0.0007570526693501247,0.0019460160372355863,0.001205279538372175,0.0002630771695904332,-0.8611482855413538,-0.30122953871081906,-0.280417578659803,-0.36811431345210779,-0.23012199944511,-0.16727552764053034,-0.15256464011765806,-0.09090616610101266,-0.12548392795096989,0.3277484990324261,-0.5141134991564664,-0.17301562524625384,0.5862997940249441,-0.4682049784670185,-0.04722625725005173,-0.5644577632564654,0.15422550838957353,0.0820598582963937,-0.3240978606780959,-0.3954346625416014,-0.35539715580308986,0.04329126701211146,-0.43832878184100368,-0.46523172659915948,-0.08740800777467081,-0.20349770689402817,-0.27013928495541969,0.3701017690952995,0.8997412298992088,0.5852087427231045,-0.6104613909466694,-0.6219595410697326,-0.23945042102763387,-0.20866770154345938,-0.2822792949165328,-0.5273516259704881,-0.0631748400353974,-0.049710444482743146,-0.31803469225396438,-0.08466641704170347,-0.18804722662178606,-0.10628323879118419,-0.05774495948870128,-0.03827337527441907,-0.19678413064814066,0.0037245453908775849,0.004361537097771589,0.004067342878998315,0.005979425439431215,0.005502290518116587,0.004730310386383221,0.006235043396599003,0.005641882343799512,0.004384149306841094,-0.1848401148576649,-0.27416778635516017,-0.01293595828476993,-0.6660695653555608,0.1672175141472636,-0.06116292775236177,-0.37465917784535437,-0.07096639531183689,-0.13599289034121868,0.4877976289385133,0.6657039111399589,-0.6457115051638888,0.07544969771396096,-0.33940687093637819,-0.6294121009867201,-0.20064492600840706,-0.0994181334164927,-0.07352792633921039,-0.08251397931357936,-0.04698835806315855,-0.03435635707536479,-0.06788763986703563,-0.043252709353002707,-0.047584287513630339,-0.062419847963115757,-0.04893665044183447,-0.037815733827187409,-0.07334944765057666,-0.047304541522032398,0.01817780222863646,-0.05942164680794624,-0.01934433635093325,0.008943422711218929,-0.06868693202935382,-0.048845829751911328,-0.010593909215734535,-0.05218449105001486,0.002309814776782324,-0.029866992767810575,-0.04006894832308534,-0.04323136242462924,-0.021953504221073118,-0.04377731438566944,-0.037056229177473327,-0.018959342083639857,-0.00016610723319701262,-0.0000664139681908415,-0.000007012863463956074,-0.00016921420333835863,-0.00008864696888432442,0.000017127863224899224,-0.00020802691401984185,-0.0000591264298580622,-0.000048864664928201,-0.027211983356096975,-0.041333377473034078,-0.03861237684821394,-0.006233140193437246,-0.01556920489656776,-0.05197312973243514,-0.02609396443161244,-0.028339349405996886,-0.050097868191424737,-0.06902164736072855,-0.031830655649964307,-0.07461527758734647,-0.04695734306941131,-0.021611225897454207,-0.0715257774877849,-0.043101463378322869,-0.03349002180999785,-0.06113861219927191,0.17891556828453807,-1.2248029089831212,-0.6948406173207831,-0.5711292424435837,-0.26291231081690127,0.42824020862430298,0.04406641334022079,-0.022223786788576867,-0.08330864007795122,-0.17985442153881024,-0.03770462851310125,0.2522098415577064,-0.13436910593392546,-0.318431553112246,-0.5479994527406812,0.045623774530455827,-0.30677904555165949,-1.120972494961674,-0.4495622810432308,-0.36718296448850487,-0.5167292922100344,-0.8226670797697666,-0.11408336237987195,1.1170465401593169,-0.46707783874828337,0.6753951780281903,-0.3518620391403806,-0.0019050434903169027,-0.0014373461625012982,-0.0009473181942570818,0.00015763763303536907,0.00004455008851141103,-0.0006358803566852601,0.0013502661782002434,0.000846177866559285,-0.000626312813875297,0.0030032506114827655,0.15045731001283572,-0.1806578181112218,-0.06299004954034848,-0.42788059303303818,-0.26308187482411568,-0.21971548311533779,-0.11969811294940715,-0.2559406176737003,-0.2729482926637357,-0.3439757693699508,0.17489307111423828,-0.05287909508499708,0.0802301362254962,-0.4469151145892228,0.014026666161854919,0.5932488391938544,0.3849488682581256,-0.1666095170000376,-0.056371807182555567,-0.05882515004579721,0.5901115988006432,-0.28843099634810095,-0.5235838280945157,-0.16850096277541697,-0.42550570877469276,-0.2140909592015835,-0.4838539968589118,-0.43280653042812769,-0.5052583022437144,-0.18585602708758559,-0.4751660423897777,-0.22553872074108573,0.5137053521848551,-0.19156426596003399,0.34788648774301847,0.09970802943526089,0.746730330257738,0.4555427539253346,-0.14387556745171163,0.17682152076656536,-0.5480028662524059,-0.4713949331368298,-0.8623633911847821,-0.17767627728397118,0.0017324515380421505,0.002100330715075826,0.0012659151967056838,0.002454469393907781,0.0015034041541897089,0.001008139488050466,0.0008634750554676576,0.0007052520652000371,0.0007762852082600437,-0.8602549262783718,-0.5865979042081041,-0.5115953622572356,-0.04519940759498851,-0.24875843764307663,-0.2869661717691769,0.30492671051661238,0.34399012130724507,0.03632630825784261,0.4185038020990579,-0.2146393600583564,-0.16912634700761146,0.13809670277290299,-0.38547266474328187,-0.6834706793355466,0.009397693450340592,-0.7611955532055386,-0.1606612511095481,-0.6039687267598238,-0.021595247267392298,-0.23462578085336686,0.5809967694187599,0.3751494142937513,0.0829165576756219,-0.3169550877347225,0.27829423329356098,0.07547517347267884,-0.3577631828108796,0.8721347323181405,0.016521406156910176,-0.4246448196470624,0.1155741165139628,-0.6180566390154448,-0.7157669232144,-0.910850857364571,-0.02834801524999987,-0.2096143267611307,-0.23318727961184727,-0.4782364980581932,-0.3535281013518739,0.3297388660771187,-0.3209642750944062,0.32238497065114027,0.41377654324442189,-0.1665062181352151,-0.0011093262812356844,0.0007473153892232268,0.001609070950710067,-0.00010288272719735681,0.0006933698824400552,0.0013067637780232835,-0.0005354239909736672,-0.00019553333925277037,-0.000045674953969501619,-0.17162177568357757,0.13249665899992373,0.5297735362510941,-0.390085029605888,-0.36721010790795247,-0.07394699394564834,-0.7260421749921847,-0.5260886597776822,-0.3453994369199508,-0.48443597309458377,-0.29415062154992147,-0.30043320606019699,-0.38666653455064,-0.31985654001328575,-0.36459227497556548,-0.14449631487925217,-0.24863286151966203,-0.05151419661939574,0.011613224816655029,0.12578543507467758,-0.8509548797547488,-0.5516876759802991,0.9805947346842273,-0.3354285649555686,-0.726944994106574,-0.16217006551657929,0.3824599914018215,-0.43751422590131336,-0.6296182478311517,-0.5588549234928336,-0.1453161508003512,-0.10620868306544885,-0.32109805878586619,0.2459437671072013,-0.10534266759537324,0.23588666820734353,0.13544172634062677,-0.16438091835051953,-0.3499039652233517,-0.4497654938137376,-0.30887653877695228,-0.02447285403204653,-0.32926832508348238,0.14011598115137054,0.005884517335810301,0.002522350320260365,0.004181413483229066,0.0032005694101584476,0.0032384851257200367,0.004248143584289091,0.004758957975463173,0.0047180842247807499,0.0037840151388059686,0.0024300192001447979,-0.7749894489604875,-1.0386566004554892,-0.43650625756588287,1.226769322289747,0.03157007112351759,-0.9007525369464292,0.2599404647048703,1.1943375119546025,-0.4093929456137311,0.05399003191679618,0.16981059939470304,0.19236485437851529,0.7250502646402243,-0.11977712597563457,-0.44808039832543686,-0.033609001476288268,-0.3563913998200829,-0.3182419480202962,-0.02680353084189405,-0.5841074595984267,-0.23095996956968255,0.13839406232740907,-0.2990524825445243,-0.7622409724652343,0.28145737927197886,0.1133407577978218,-0.8727081817752866,-0.31545515476922506,-0.4382738823439543,-0.06681928065749021,-0.3143996423757742,-0.2457568068856866,-0.2210327912814058,-0.34557296794791489,-0.35398035239007727,-0.5225219017414713,-0.26886113690046917,-0.17051742521451644,0.4750388572163512,0.45504996419112689,-0.23507294203682789,0.24197455873677047,0.25215114251801637,-0.3273728197600382,-0.22964041242830905,0.003994667463574413,0.002482146784073364,0.000764838914601526,0.004199536253216611,0.002459621813823396,0.0004647011328850661,0.003620358123503727,0.0013504907917774223,-0.000894210427199247,-0.23193573295144499,0.5615032485574155,-0.4003562253896522,-0.6891218011650907,-0.5114195091855398,0.007442313727068772,0.36939531738283246,0.19923167338890875,-0.09507358986961689,-0.4627453162083885,-0.48668247648038928,-0.2770160720307915,-0.6930979921583915,-0.6737396612033697,-0.6233557041797344,-0.5564828390984015,-0.4592594786831746,-0.9651161525256042,-0.0019658156680461039,-0.0017485197546518418,-0.0015513732180560828,-0.0016700193114760163,-0.0014983436177570158,-0.0014608502498563619,-0.002416202523303061,-0.002013323744367807,-0.0016733792490542202,-0.002555249648584451,-0.0016669766704555099,-0.0018128000467915644,-0.0023675435382488234,-0.0012297338343465114,-0.0015710159561545942,-0.0027486230811002169,-0.0020289266183041237,-0.0018988629693281654,-0.001084866346520451,-0.00038954708158589897,-0.0013333701927123027,-0.0011840860268950153,-0.0004880081053061977,-0.0012677914280376229,-0.0013006475566956758,-0.00006900528749469315,-0.0017191154227556938,-0.000005821342662517819,-0.000006063458601858696,-0.000009421088307686883,-0.0000031084630489310056,-0.000005978397484785405,-0.000013213075744150133,-0.000003968822280411427,-0.0000050220994611101928,-0.000015734605286105454,-0.0008029284049647738,-0.0017388105563433594,-0.0023181635515987758,-0.0009165414262226139,-0.0016276854654081244,-0.001999609448010109,-0.0018742868450689794,-0.0020245264211630248,-0.002766548889892882,-0.0014600010221440512,-0.0007480004644837932,-0.0022698471071825817,-0.0012305684506473407,-0.0009561684685893347,-0.0024664166384660549,-0.0021450117371961225,-0.001174167299363236,-0.002255680547882435,-0.4461151289337503,-0.23376000138651366,-0.3689803021573902,0.13185401180317816,0.056687722872076507,-0.2546766537970269,0.23542514727939338,0.17215958529031628,-0.10304949524701702,-0.1723657945511764,0.13597879279421364,-0.02474778546085866,-0.2962162780829171,-0.5167498087669277,0.4279997257891467,-0.45117641028224728,-0.6209892378762644,-0.3320373054535738,0.12240851028474624,0.44620788074778619,-0.43592566207739916,-0.19607151758294492,-0.12308362871125153,-0.27811184102135008,-0.6031266296078379,-0.3486587902409449,-0.08438975174431758,0.0013626892172346492,0.0017462680728366715,0.001886887872344426,0.0018475743626747642,0.0024357186123844935,0.0032543691536306206,0.002239290271026457,0.0028422334496523559,0.002287177739946773,0.12563461336112928,0.21490838025305154,-0.10943065261404866,-0.29967073634633026,-0.27662325237569709,-0.09842805402036727,-0.1064451454951421,0.11190053676105986,0.0073469351341197059,-0.2726851329415892,-0.3926381430331663,-0.12100149105226163,-0.07817891722099596,0.6026215623029297,0.5671710813671924,-0.5918462418449941,0.045975223056891719,-0.3665027837176048,-0.0586036095677285,-0.03568872774189451,-0.027201923361539604,-0.07640635858576529,-0.03979585915916158,-0.039373872755526808,-0.0633185258508448,-0.04771825181310691,-0.04200274945741284,-0.07170852603035881,-0.048418128206037597,-0.02344611623307947,-0.055500889258679329,-0.021583366016887038,-0.008044985930546318,-0.06142411168208898,-0.05303180796678664,-0.026187583967160794,-0.04217715898936107,-0.00848112718257504,-0.012790120320400974,-0.02313252181027192,-0.04092799221215671,-0.040201727579648748,-0.03637917825577306,-0.03695553043352683,-0.027367227672135787,-0.0002885157535418613,-0.0003044121807325568,-0.0002998857637826016,-0.0002334964129102758,-0.0002989614304179359,-0.00029872398267398665,-0.0002484444624559866,-0.0002896962682223887,-0.0003311513970347373,-0.025605547859266703,-0.033395141970088988,-0.0406392397008457,-0.0017942074944659499,-0.01337471352292576,-0.04558447818094481,-0.031448682821684708,-0.040626605116901418,-0.04640410678705694,-0.04180615759881584,-0.029283418654101207,-0.06743985162193546,-0.02222497199577292,-0.031497007813493998,-0.06824645773682352,-0.029751872904294233,-0.030578891400696304,-0.04887521243602485]},"biases":{"numSamples":1,"k":1,"nr":1,"nc":16,"host":[-0.111215262489668,-0.8120004561260098,-0.09938420302755129,-0.7698391454285536,-0.157014234393262,0.2856681166922822,-0.16296954132581488,0.2020682532319285,-0.21361230187205858,0.03930194465294457,-0.09581194356025089,-0.49377172086188228,0.7368436390727867,-0.06818252679208618,-0.29569982042466727,0.22546954870587086]}},"fully_connected_layer6":{"weights":{"numSamples":1,"k":1,"nr":30,"nc":400,"host":[-0.05782301303114405,-0.15923610074033837,-0.22952330562701896,-0.4134363679316023,-0.24559044107589718,0.44527155407534999,0.16575863765320235,-0.11628866747503668,0.06868746019105783,-0.1766487749984764,0.17495908943499634,-0.1596338347444152,-0.2884790687361774,0.05492220550690061,0.14728641128128157,-0.20410881748122743,-0.15342177602292565,-0.10473900430549929,-0.12550391636131554,0.027013974438506,-0.07968603998774043,-0.3014025859701138,0.1539689693268192,0.020846018344702557,0.11220517088360135,0.3441592816122984,0.24820769519919468,-0.2711957692910531,-0.3989767793350619,-0.24188942705729586,-0.1850796308928492,-0.08974455064647662,-0.17908644957122522,-0.32234047524467937,0.05530604503039406,-0.2560284728775675,-0.024629065711899674,0.0992943432218159,-0.0005922959342790564,-0.04672657555754771,0.014064661654946695,0.047451515178301508,0.1330726347541349,-0.1573120360350508,0.03311056419878074,0.16899360585739429,0.24133282228333689,-0.13953145045168148,-0.056490731948830728,-0.008088481900793218,-0.3261733647795332,-0.0675818891721204,-0.20867069836936542,0.02318001677573233,-0.0625609666144871,0.007373687007048264,0.030514740847423475,0.009462399783541033,0.01648341482207426,0.039785677654320786,-0.12299374134333581,-0.10143321281383829,0.05213846506448992,0.0952301998315952,0.012593279805412784,0.2543954507445795,0.10174116879224635,-0.1535175937843911,0.026683008064844764,-0.04473362244757928,0.3891406702529423,-0.003340165444791053,-0.11131973386800859,-0.018433087012012088,0.3463190457222956,-0.06718229748227403,-0.1511306194402686,-0.17674235531845315,-0.08337343658075704,-0.01371046258752951,0.27895280852323886,-0.010386967093958243,-0.1799598229424788,0.09495624864936568,0.08614030106801027,-0.12600330312595957,-0.23246133697323877,0.03810198864510775,-0.09309567145716132,-0.02893201526633723,-0.2379064657143228,-0.19320953746260906,0.03145242061566505,-0.017188075569110923,-0.20905867109974583,-0.08451056411448521,-0.04820246383602137,0.307579312831073,0.048670627040612559,-0.11795825135702654,-0.0502136727627663,0.14741133323672948,0.05839976268137924,-0.1621919829832341,0.24261056156879025,-0.16438003551699954,-0.1327306520182069,-0.1259366603611445,-0.33523483053446109,-0.10936100534381752,-0.2509372432138946,0.21757400083983167,-0.2514836388508568,0.0275634507609318,-0.32775629073299247,-0.0013420228482921805,-0.16996494050906425,0.13749420075925904,-0.0813649613120809,-0.02908179530099901,-0.21377440986564515,-0.35802224715554245,-0.27403455612580315,0.10811137143285674,0.2099882450619375,-0.022820078650738125,-0.03168544665207667,0.01601929654436628,0.07131558207360633,0.05898573400462359,0.20758051957393548,0.009017431165240822,-0.1606629772213058,-0.17799105161718205,0.022330170240104708,0.22009584827173687,-0.024950081828508397,0.3366638893700147,0.05157338210256073,0.0652653266986876,-0.23830631005759027,-0.1400901888584338,0.2592612163033508,0.03745427992697765,0.008449603349871014,-0.14929841687883967,-0.14822519804507892,-0.12823422769266988,0.4676835230395796,0.37850311117374899,-0.004621371187988587,-0.003698665804321427,0.004920260295102782,-0.036965350677155357,0.005876792204161104,-0.02914245818636896,-0.02764190076727286,0.15560391609438038,-0.1849565200973247,-0.4141262159301134,-0.26315155346733279,0.0012974574848932043,-0.20313611916948749,-0.1175222407975683,-0.33211123589879668,-0.45682563135864576,-0.186252741850914,0.8090029704355157,-0.30781510651437718,-0.23073864377088849,-0.10959479813538846,0.06524653596303802,0.4704761393867607,0.1661448489784005,-0.5310852715247375,-0.0024623751970226498,-0.023359878368889487,-0.03343734416141492,0.031212801529493348,0.030636027102583769,-0.0015685178113152299,0.0039053501434320079,0.026891872306635334,0.019399345808373947,0.031579311198793317,0.03321089672007959,0.025939604528316196,-0.003132198594473786,-0.005807984687340779,0.04800167051653804,-0.005569814036517147,0.015357056221537604,-0.015486743411916361,-0.005260978279893791,0.04636097254750774,-0.01482729562242848,0.02787129928017841,0.01752102675870528,0.01932717871779733,-0.004065616462600955,-0.02261259607468712,-0.04851559135875924,0.11051668262027467,-0.030196613142243288,-0.05061546535723593,0.02932279068327592,0.19897922509873929,-0.061338858570040507,-0.08283400447742662,-0.06809649806751388,0.5456412952125496,0.08397081216786284,-0.13894386131244025,-0.08760722649024284,-0.009359156002140707,0.023076526744656327,0.0076286706930347139,-0.30017429684885568,-0.11587883856724293,0.123887196039591,-0.16948857794355882,-0.33808149242406207,-0.44232151190525567,0.007104558640030076,0.02770314998289761,-0.06545309917501788,-0.09439671877493884,0.15494311700012254,-0.06419216751674675,0.06577952983430811,-0.061741451218451429,-0.07620126458507067,0.13986367301851869,0.08856404228081494,-0.0030811025090168059,-0.17566044446544436,-0.13715586894719293,0.08943231898399186,-0.1257649671471279,-0.25540793824997295,0.1045906810006382,-0.2641874766322785,-0.18082521248417444,-0.06121122073947295,-0.40245471297456555,-0.01437386077892322,-0.12260313804684059,-0.0021623641309899738,-0.05856557021289387,-0.010837993386035165,-0.10314693964466819,-0.02987450780909332,0.19758122621921082,-0.14444429638239857,-0.004406904995203426,0.010742313975604372,0.05243059368841711,-0.03336382012932051,-0.15409526850744019,-0.18507952340772486,0.21409948092946963,0.43328952861839617,0.06857507406397531,-0.3068947243703576,-0.37447440144016466,0.10411334486499702,0.029375458931800204,-0.009226022416214834,-0.1982100239581522,0.07552044047510485,-0.08414944281879323,-0.09878607513612432,0.0029805612838357039,0.0803795023465038,0.1722860096177389,-0.5008598032332982,-0.05804026825983618,0.0385625416522976,-0.12334726972740064,-0.19723031255077778,-0.27005978170953456,-0.1987011020491395,-0.26757513194071766,-0.13985448455649159,0.20490946256227247,-0.3117646364934366,-0.3691055387036925,0.3397454815095562,-0.14555270566921306,0.06228658740618904,0.2432669383282157,0.20469257359560606,0.17768188911135875,0.10444142234712733,0.06369793761344195,0.14853441410739433,-0.1338332029414149,0.035801716560595168,0.16894842149461238,0.02994519011405231,-0.28366746170563708,-0.41701354434454365,0.03063824124917466,0.12026127208170241,0.05829623063803432,-0.24836827823089076,-0.12700131272723587,0.4579111819113596,-0.04450427043312994,0.14192215575915796,-0.025918251151428683,0.07095134156989884,0.009294308276677224,0.032217881590395857,-0.14081103281406577,-0.02549269412147297,-0.016963875594443787,-0.12864879014169626,-0.10368671443678868,-0.11843746439053739,-0.10637088269906064,0.029149074971440884,0.2339456971345633,-0.022754974762095073,0.1431268812009392,-0.0005340448401587174,-0.0008336938709511212,-0.0014124231572194249,0.00047365411100874153,0.0010747271789185846,-0.00010099071738918031,-0.0002127263464333349,-0.0005049454013204408,-0.0002396726133065026,0.0007775327976152396,-0.00032365721482920275,-0.00037656331297410524,-0.0002794082604179025,-0.00025770414790350773,0.0001646699178464546,-0.0005074245047761198,-0.0001284466266308219,-0.000641655436952502,-0.00026281537654306415,0.00013480817408985997,-0.000013723526343660099,0.0005110602847983479,0.000006993804530876119,-0.000054081565712279486,-0.00064121872346316,-0.04819721560530818,-0.06075750681281696,0.054352190842740798,-0.07466079784429013,-0.019159490830397965,-0.14425150174246943,-0.08161129930596654,-0.0793901478084998,-0.10301653938448241,-0.13221967128456769,-0.3642873392812048,0.28521665277176358,0.21712826281121279,-0.18945214686606305,-0.1705503215126773,-0.09598651964770076,0.4042173451879877,0.06723803532638152,-0.3738716580422753,-0.24911000640205406,-0.03310617137858474,0.09062223334205018,0.2711942426906676,-0.2937568325002017,-0.17518463665325183,-0.006410187256043727,-0.02127834050362648,-0.029853716173099445,0.023606434534528404,0.026328123976056836,-0.010467583011079819,0.004521899312890277,0.01334511351150406,0.004650356800661806,0.0208523661374177,0.02103527521419279,0.010234111308687283,-0.004178763588452894,0.0075045539909661079,0.02192473013511949,-0.015273086496239409,0.004659417512738783,-0.015752892534845028,-0.0016932125080678298,0.026078853963866449,-0.011127209731594416,0.016605368100855567,0.019436291881181519,0.014316505939300091,-0.0004900214402437814,-0.050061883672646956,0.15386155013264536,0.16685960016314214,0.03506282989763169,0.0012236685708978018,0.09582144952272373,0.041518550436968146,0.24176218815218487,-0.11994709303852128,-0.293542076335526,-0.22450701578496233,-0.30818935438658887,-0.026612422847809865,-0.00930295556530194,-0.03460377478411841,-0.17981957987738604,-0.16384112618279546,-0.06921381942256119,0.12044216951959716,-0.09453806185123398,-0.030839544785538268,0.01650642288983912,0.06989352521356379,0.19612397599671889,0.04457543269471557,-0.2485446977373151,0.04161231205823354,0.052715778752333537,0.009060400710485212,0.15372931217575726,-0.2477389906345394,-0.2563356302524749,0.12464377961488778,-0.2032118547435149,-0.02066119379223681,0.05635698085223802,-0.28056736068693557,-0.17313487072232523,-0.07745711706923202,0.015084220351482396,0.11715662114303202,0.1780216516882053,-0.15658141042435007,0.07309181443441169,-0.031602691568491398,0.14206911182289,0.1751780365221785,0.06477523033893036,0.0631660609801919,-0.006452263515606122,0.0756967536306481,0.14037255377076,-0.04560778442514224,-0.3944818034413938,-0.10846354106860741,-0.06337310913926092,-0.1337211387972963,0.04025217711990163,-0.0402546173662313,-0.2212192394839307,-0.2565538520335876,-0.26648976595103837,0.06415189555619097,0.10880935092408883,0.1436310381359612,0.08335829158728227,-0.17791393132483206,-0.1171053035589037,0.3035450580585701,0.019379204899336829,0.17819168056289115,-0.05079303994553646,-0.09006472008098117,0.032279413078220058,-0.3628306075973603,0.1490330082624488,-0.07024454612901272,-0.023132447042513196,0.13906636961161573,0.12604477423570108,-0.006556154329531607,-0.1365916985810817,-0.08288390741061139,-0.20727576602258394,-0.17424619735257955,0.011374959408580325,-0.170282429751239,-0.14863778020068189,-0.2576353187897477,-0.1666403657020938,-0.00008957769919620313,-0.14852397526595996,0.07470786364342766,0.19319094106936697,0.12514385776335466,0.1529216757926595,-0.053286112814515677,0.1485342276566713,0.15292651547870929,0.041695602015703787,-0.060564304458848718,-0.4163024790663466,-0.1828291992775558,0.2568118125995409,0.19739179825315068,0.09001752315345832,0.24452887157741555,0.10497363565592782,0.08774435434710359,0.09705439889787245,0.3317869508561489,0.22548367933594502,-0.11598161514062039,-0.11579001222105845,-0.29380237275294127,0.09189135454504835,0.060568946292918108,-0.11257057015641836,0.09606518650691444,-0.1283414867245204,-0.17022647462749336,-0.24074593831863337,-0.1061253664816242,0.15906149684392627,0.0713295046520604,0.02576217650631788,0.019425344593668165,-0.11676996807357902,-0.054653102060188477,-0.03496213225640243,0.029415366527219806,0.011652504118696037,0.13348020557680818,0.012670613430840175,-0.23309723156218169,0.004085950692773898,0.14192330173853977,-0.18144354888832368,-0.0962143570978792,-0.13210917408644405,0.10926194634542368,-0.4040382102015611,-0.16106220118973217,0.2546376302182646,0.06750952698671423,-0.1059437076334154,-0.11480101450508044,-0.1746602394962643,-0.08015407126963038,-0.08053779520904868,0.00127100177832819,0.0010967564550671276,0.01371401241731794,0.024806913066065144,-0.017224546415187729,-0.03650337056400333,-0.08871378497216819,-0.09965509820685513,0.06668164586110094,0.5459757367757314,-0.11767474115430744,-0.10936457084979208,0.18372023473793334,-0.059224011976711347,0.2500768071204196,0.025759446244705904,-0.05717188502299458,-0.0964763225496926,-0.2931554540446379,-0.46481786662817167,-0.013801665370488095,-0.008489242922288795,0.08565755674459406,-0.24056324570256569,-0.05027416948805553,0.013706838476224537,-0.003790967437528138,-0.006752502866514011,-0.03199529265480786,-0.02885796115811387,0.020656207988507488,0.030849246890209907,0.0166215413419832,-0.0070456438316834099,-0.012313048955134524,-0.015383281645434372,0.0051704093510101119,0.0016258974073030328,0.010170868217365908,-0.0010464898241041256,-0.00887999270330454,-0.05022691130811915,-0.008771568553917774,0.007862473379193575,0.0028611158587044129,-0.029507608866504284,-0.0247118805016912,-0.008838115433631132,-0.013399756679398899,-0.0032783935837568166,-0.002023083170537797,-0.030545498793608556,-0.09241545550547324,-0.029772237878082424,-0.06525164496387322,0.038698507324017059,0.19399374367951095,0.32236552763564477,0.22520544050057929,0.033120932061914697,0.1415188495341409,-0.01769717124334743,0.16681636173947607,-0.040587912119796978,-0.04663754304264227,0.04272250905693832,-0.1938965405750778,-0.19280557240468325,0.035298447209913829,-0.044261653681232058,-0.01727219993500314,-0.338073665287777,-0.13021625879461783,-0.12514038979548196,-0.014677111654137388,0.004330619378835022,-0.015436367074532299,-0.2208425589567011,-0.4098862051953701,-0.24735433065948105,0.07754136786708954,-0.02440874011789373,-0.35954411709158359,-0.5560143718205576,-0.31589359871575709,-0.05844300834272218,-0.0748222814805529,-0.09822227307494823,0.41594147295428288,0.16511111626790662,0.016093824571827815,-0.03387628957782765,0.36792312998342677,-0.12753287075741133,0.07639658092079227,0.0554640798458737,0.05346910081267368,0.02594565963050881,0.0360165102998862,-0.0033054186059588016,-0.032406889677455748,0.012832711927310847,0.20089326008020307,0.0941359888847384,0.27402797794714625,0.09070728465476868,0.018862172117993543,-0.007635970359154887,0.03500203135739409,-0.0034602903208814539,0.07341581664284258,0.01138157514774911,-0.14346111178809763,-0.292190103255932,-0.06803183677020364,-0.0024096691119294439,-0.003346161052525957,0.06472385478365811,-0.11221617864588859,-0.014091226168740553,0.026493723224750695,-0.016597577588162775,0.2089242101770334,0.12585589147669003,0.02333992353226674,0.012996798645191146,-0.01889255524000514,-0.0943097720249925,-0.1119794647811704,-0.050540438377717617,-0.11799604020632648,-0.3166094836535039,-0.20260235541791553,-0.016898043798681669,-0.019963278542207229,0.6486521236215608,-0.19802403564511873,-0.14826885348761546,-0.022636985485321418,0.07353796269354059,0.43307432792495256,0.27608983450012239,-0.14751681663991945,-0.048858370876445799,-0.014176223544833972,0.12219552268712626,0.08491152745889645,-0.15478180328095493,0.08751937451110954,-0.005169806968177197,0.03968339878552593,0.05852049624002404,-0.1261278443070117,-0.46348673729573239,-0.3829673610423246,0.23261325131966563,0.21304249810833268,-0.12805799142855349,-0.10850419358252277,-0.020521793343430979,0.09547166832787231,0.0957393002526741,-0.2068555438694524,0.05235209416074494,0.053090454427614727,-0.15198550923964478,-0.003239074295966936,0.09729764285665427,0.10974016395319566,-0.12623812775693619,0.0034280243640361135,-0.2486619394490012,-0.012195999258813253,-0.056845801413368177,0.006384722031377698,-0.0006391448541331184,-0.0008265391028463905,-0.0006754233952026867,-0.0017037945314273113,-0.0017698454900518415,-0.0004065022519527434,0.000020484167587605638,-0.0004446076503418403,-0.0011296187302336553,-0.0010031048669892516,-0.000955457148771983,-0.00021579516630581167,-0.0006657085419315314,-0.00035189140936988885,-0.00036720126884525335,-0.0011142584727286333,-0.0013334926810250085,-0.0002457813235272679,-0.0002673551355000542,-0.0008804072961728236,-0.0016214867828952525,-0.0009891512355950628,-0.0008512665439892875,-0.000387227666367488,-0.000896739653443765,-0.04647255722117419,0.00005269968252412747,0.11357186241774958,0.08149603658272596,0.07282302589441295,-0.2958582699458205,-0.23144330045385193,-0.11468657724423279,0.4004645481600415,0.5686672351890586,0.16442643261593935,0.46339799318254,0.22069427732825945,0.24656079567008117,-0.00924799139997787,-0.2389939849839102,-0.09632048833951132,-0.27315701209838458,-0.14145724224486176,-0.08365389044529959,0.14941721083159199,0.15921717291679936,-0.01606961344100655,-0.015493575983272269,-0.15957910036380894,0.008312982957296125,-0.004373884198962326,-0.0025319793528113425,-0.03058538324777456,-0.03193063314729425,0.019948934124895624,0.030344061378455704,0.011896436883015229,-0.004036867956810628,-0.016682697828743485,-0.013502487595909083,0.005175933417654305,-0.006997934921758251,0.003391947413613281,-0.007534931021021051,-0.02044733056460032,-0.034244802577257097,-0.005053712110047088,0.0046714272055616849,-0.006677619333023931,-0.035049841437206328,-0.02085823994614154,-0.008061747734069322,-0.010216825994789793,-0.0015556731063784563,0.0054520258314931248,-0.1273309497946396,-0.2807632014901389,-0.2796200468837009,-0.19996816571986512,-0.13986278535299577,-0.14955511313294335,-0.12762563761042129,-0.17662475866722866,0.00429913799814523,-0.0910090725780329,0.04516564520867941,0.10174244120123392,0.2563087949430258,-0.023259566265925816,0.10166172463634354,0.40929256689424,0.36268524939932958,0.052597194670042559,-0.17122546367826042,-0.03933044454087978,-0.16522496444969293,-0.08144890926022482,-0.24492835487606846,-0.08356845724750967,0.08466157872831742,-0.20987487057696894,-0.4312574413189405,-0.22232761766684212,0.006820369116153056,-0.14899780648917583,0.04087613774121295,-0.052939359504583099,-0.15606410800380428,0.041248477953256198,0.042235687627557399,0.33615577014064909,0.01075341807417259,0.1292855308452946,0.13904733492419245,-0.16526763797856007,0.022641838849819,-0.0007529445981029726,0.14736126817272605,0.060619849662357287,-0.03275622934969135,-0.12558742566219736,-0.050248453165668369,-0.035904089407803419,-0.015717355506643998,0.04666836924870443,-0.10358449476495532,-0.197157684353088,0.04827818246489969,-0.08839083298797188,-0.15529422831012996,0.1169497338648705,0.0994990505704525,0.22468295458244068,-0.057195615320614959,0.0777866823630891,-0.06290539327740573,-0.26775493865858238,0.04078415373520193,0.058278206181460779,-0.1333642593054315,-0.17106925146588698,0.009126880647505359,0.08769636283237635,-0.0006957705243727001,-0.22746428556095134,0.048364706193098499,0.22981647443683554,0.023011206285804887,-0.002751679301561405,0.04310425948164649,-0.14158637330843608,0.004765335396223945,-0.23624603038165693,-0.1276635096616637,-0.037084052245587587,-0.18574616188218982,0.07062037958657662,-0.10371883353123666,-0.13921359311994128,-0.08981909138979164,-0.019175388045447478,0.0658864911918268,-0.09951807602304085,-0.09793276630595262,0.23208252381636339,0.04309771029921952,0.10872230393787536,-0.06478466731578728,0.004542330426503493,0.006148608478407079,0.04944637293031399,-0.1836423281683553,-0.18075372773356969,-0.072915232773913,0.1217466749359561,-0.014531651519135117,-0.24259179593242323,-0.21456589681141828,-0.21978702803051113,0.06823517024368799,0.060920216465805056,0.11658853857816987,-0.06936134208148009,-0.16194625045363329,-0.08496614058160103,-0.2217280892851727,0.011658586743685872,-0.028881734220991555,-0.021058962855935827,-0.20799250976624837,-0.18073223778964812,-0.1382813833295843,0.16596850109133155,0.3001668026358189,-0.09395884403215228,0.3984953831595746,-0.11303690543233693,0.14858291225867968,-0.048301753498285148,-0.06306234599829813,-0.1311106886589689,0.08605465344105154,0.012906509767653375,0.12115994395734574,-0.10821539762022002,0.1009930322586733,-0.015344638859339243,0.040044572298347177,0.10289325997877998,-0.24916696130519154,-0.05950187945861532,-0.11372917399472883,0.08686569267086962,-0.0640626854850779,0.1785147851375148,0.22825786413481395,0.06708603439303178,0.15909420519302393,-0.20607833076531349,-0.015016567993418599,0.22014340091533866,-0.5032860906567807,-0.24486529043423284,-0.15869914783266785,-0.00042555625631796214,0.013453567399067761,0.061375333924958117,0.015413064579509582,-0.012418389607751336,0.24081193355933873,0.20884403882508077,-0.08060877073741298,-0.015475778982791693,-0.18341622197738914,0.4148453261854388,-0.02464903709120619,-0.13224480659042318,0.06471958590026769,-0.15575808419978214,0.04997268587234655,-0.057729990625667897,-0.14217991936807057,-0.19160639677026279,-0.04140317918880902,-0.05813070092792142,-0.2042623148201184,-0.09454811102256922,0.07876846271254576,0.2068858890346596,-0.013324448559429672,-0.03320682929867731,0.015333494574352604,0.04180019479315544,0.035443221004194499,-0.0034124249453795685,-0.01476716431338369,-0.0046683613077075259,-0.0026182524764421356,0.042066485438956437,-0.01582867131683077,-0.0030388363091966364,-0.02297501012999701,-0.00846771517777055,0.00706446523920109,0.011664970774914302,-0.010646036765433066,-0.0015127575901649909,-0.005001992581827195,-0.037448705897704426,0.012024304594224192,0.004130270893562467,-0.013498174645940956,-0.030433738681246198,-0.07661394694027411,0.0016977018188793988,0.3502953552130162,0.17391332398331395,0.02895540649292889,-0.034213365900862869,-0.17079851410565434,-0.22335194289881447,-0.18102633884292383,-0.25445708619432047,-0.01962938595196704,-0.3198418446025356,-0.21564593891924645,-0.3774288222722612,-0.1492526707094712,0.07122555916588386,-0.25540348930762199,0.06691912518601231,0.0888658893265703,0.37746067513626227,0.19498402787335698,0.2665589580033645,0.3240639048864107,0.25328817943237999,0.15546774495191405,-0.0025846357412115416,-0.020441313293278204,0.21574915647264215,0.4483465423881071,0.01170948968345802,-0.0038835832307216355,-0.06870048955895425,0.1363819770871102,0.1858909768723071,0.12777654612737705,-0.15378876276622972,-0.024970451299113625,-0.146753685614858,-0.04592757242445267,-0.11977479746432036,-0.1608113333789884,-0.056908769366411277,-0.34242251427005357,0.11518192235242995,-0.30850116527574386,-0.11933519654153903,-0.011225455379475148,-0.1278946511475827,-0.32402947928664285,-0.05041626435448074,0.07460284094250752,-0.0825613781869979,-0.22562103637248358,-0.203904207232447,-0.12331981359753129,-0.1969075849349097,-0.011619686401740659,-0.06373482647664,0.025684917455579386,-0.21890286911340807,-0.11937211601063191,-0.07123280972832069,-0.2649150709157036,0.23532060410622447,-0.07399125461517044,0.061398327711092309,-0.00016880542030161516,-0.058321639160349877,0.18390439583153865,0.5989311508671449,0.3388973264147104,0.09205860274631898,0.0835935516489144,0.2557363230746347,0.2600566234225768,0.10091637817029554,-0.12260603830172608,-0.10475026510286112,0.04155257177306648,0.01308568241426569,-0.11211799615016714,0.002286132402618002,-0.13847432423852086,-0.16732843306799889,0.10936442882281988,0.021388563675158777,-0.02255964470853076,-0.05052293511323826,0.15844443147626298,0.029094054675511368,0.01221908871563804,-0.254279566068824,-0.17155091546149188,0.06941726749725834,-0.02425714952787838,-0.00745561862707736,-0.02713569477651945,-0.26480557796020745,-0.12905161630869695,-0.010419059468917819,0.08987476369911246,-0.04681415632294087,-0.08606982123182014,0.20631612838384248,0.3058530111644352,-0.03043607256079199,-0.16662841401772747,-0.08622815595424395,0.10279533656915807,0.10637969423290307,0.16906678646531185,-0.18092772720253687,0.029878076738499166,0.01327897436985868,0.10298707283782008,-0.03987561550268114,0.03017857695606446,-0.17379026504165866,-0.025068599974503018,-0.3640139759031707,0.07649624489563943,0.13568435684355879,0.01896001836551084,-0.20241413957985383,-0.14371958793856627,-0.2666122832494992,-0.0006780683327433368,-0.0010878773978718637,-0.000005945708476145762,0.0013031738440996903,0.001031825174018971,-0.0006153446149430119,-0.000005853193661608168,0.00005069350081031278,0.0003609071481026028,0.0011887761297949206,-0.0003000962094327359,0.00018271428053072829,0.00012639982861892976,-0.000013408627820548026,0.000185542497988725,-0.0009552363091125825,0.00003567288218508022,0.00026726596497492737,-0.00027386096750569666,-0.001976981648914078,-0.0005336547588120376,-0.0008724973433868403,-0.00014917125643606292,-0.0006333711590372259,-0.0020432696067964539,0.17318985239460939,0.12895324193434166,-0.0004896928488500277,0.052186585272430949,-0.04791079078107932,0.23558347075674675,-0.39188145171427776,0.05881089865569856,0.003274581990149035,-0.1496062502476601,0.04970913841619648,-0.21716474505820924,-0.13502023651480359,-0.06628787049405012,-0.059413889020917588,-0.08265882407667681,-0.2950374029971384,-0.09759173394172213,-0.22480469351655736,0.003444189790169463,-0.38037872807749986,0.12680429322681609,0.0686922510032874,-0.013039575554398225,0.3353472636713765,-0.0013475097679176115,-0.035717305362949928,0.011048333001582367,0.03843030425045033,0.03436341952583256,0.003665947969209266,-0.01620246073161179,0.00042939463176049075,0.003794922947911298,0.03755820272786866,-0.006906989846431624,-0.005541040560960248,-0.027481836122772025,-0.0067079647058857689,0.013369521732046652,0.019049256457743119,0.0013138875800198706,-0.005808818044980899,-0.008453047612636593,-0.029673823065358035,0.018228018171053279,0.0050439594437836228,-0.00816867322049494,-0.023700054446152337,-0.07228051088683167,6.133184331037743e-10,-2.398428298788092e-9,-4.388543488465139e-9,-1.2442688014727876e-9,-3.3842984275802817e-10,-2.3746915758994448e-9,-3.078340890766689e-9,-1.165116156212793e-9,-2.1500796840291096e-9,3.557324685192509e-10,-1.3398074691579563e-9,-5.5140278639404839e-9,-1.836268315161439e-9,-1.5775311751326037e-9,-2.6375762144281405e-9,-1.233851235354862e-9,-5.743423933161231e-10,-3.6954542766889307e-9,-3.6028280287608176e-9,5.718754276755311e-10,1.6777504702490233e-9,1.328078905288022e-9,-9.116528372527313e-10,-2.3908096318647884e-9,6.052118186120266e-10,-2.8549507865739524e-9,-5.991271590801934e-10,-3.408961568841014e-9,-2.311673040457509e-9,-9.212296616332811e-11,2.5324798525615757e-9,2.053965677111994e-9,-1.6041150945721332e-9,3.0232859872227168e-9,3.0772077725218217e-9,-1.6480848193240414e-9,-2.1657691206418769e-9,-1.2449087474185408e-9,-3.3626432600609257e-9,-1.6631485278368364e-9,2.9499524918623126e-10,-3.1845389298616888e-9,-7.823597244716872e-10,-2.4060185377432885e-9,-1.0353123782220527e-9,1.1622836848232434e-9,7.120074094166237e-10,6.727861103422905e-10,-1.1793884446559525e-9,-9.443909370229723e-11,7.943074389558719e-10,-2.520917995263674e-9,1.9857684390582806e-9,-3.641239806116898e-10,-1.226107846100289e-9,1.0828982449229893e-9,-1.3970592789980635e-9,-4.0946823384391629e-9,-4.142363826909012e-9,-1.1165195977005946e-11,-2.0468863090817727e-9,-4.4480747684822938e-10,-5.979134795576758e-11,-2.3884158647808286e-10,-1.7801508237020242e-9,-2.7596772260234787e-9,-2.9314370532585899e-9,-3.2354731506434197e-10,-2.7174412864934064e-9,-1.089022013156459e-9,-2.5053587875738367e-9,2.5786615803577048e-9,1.0487632023010203e-9,5.89843832892396e-11,-1.1177594035802006e-9,-1.7542632410644039e-9,-9.946609525710582e-10,-1.434356370715588e-9,4.743850345449107e-10,-3.412046074173461e-9,1.1717716288742964e-9,-1.9534155463088679e-9,8.865664837680704e-10,-1.1390875961470783e-9,-1.5749676971324876e-9,-2.408629171155765e-9,-1.869705931927739e-9,1.3288944045605478e-9,-6.632640900854795e-10,2.0579498184874209e-9,-2.865577375893711e-9,-1.5763613289523095e-9,1.7991017789469514e-9,5.318735902840319e-10,-7.43491187033005e-10,-1.3343965989883607e-9,-1.8598113683354504e-9,-3.955464501023918e-9,-1.1212759420345182e-9,-3.5882282980561449e-10,-2.224005343288874e-9,-1.2411046115866977e-9,-8.793914741550363e-11,-1.5721913150075825e-9,-6.478239269322861e-10,1.452282470184703e-9,4.6282456760880259e-10,-2.2838451374920349e-9,-4.5481859401490069e-10,1.5541493529885054e-9,-2.6215469469668899e-9,4.078598207362587e-10,1.2637204033776397e-9,1.8035696125006933e-9,-2.3280096184151594e-9,1.609929280564342e-10,-1.8809764491062554e-9,-2.400670829708283e-9,-2.2163318615968404e-9,-1.3522399375181178e-9,-2.271820584451819e-9,3.789711645463309e-10,-2.7895738438641674e-9,2.9259556985349685e-9,-8.292805491456452e-10,-8.12478333798298e-10,1.467735307578395e-10,1.713472614305681e-9,-2.0581976513047165e-9,-4.315639996140513e-10,-2.294054453552614e-9,-2.649495796293524e-9,-1.0041906099107792e-9,-1.0375440957698854e-9,6.777549633477278e-10,-3.0719070071477057e-9,2.9401644903369028e-9,-3.622344207490973e-10,-4.583352783940507e-11,5.216040847721141e-10,2.1700868189819877e-10,2.509592334494656e-9,2.8943111308621469e-9,-9.39907360783889e-10,2.076514151665377e-9,-8.607480622035042e-10,-1.5284431673743729e-9,2.00593137188337e-9,-2.304043462999066e-9,2.6943972404059256e-9,2.5544814679829438e-10,-3.0799136718304739e-9,-2.205476130458903e-9,1.8548742021314608e-9,2.138752630323567e-9,-2.1618251818585697e-9,-3.348702081666254e-9,-2.036555198103135e-9,-1.8466252618029596e-9,-3.845972285468705e-9,9.406675507107356e-10,-1.2809946388525249e-9,2.1333434287020725e-9,-1.63224510012644e-10,1.3100289149926323e-9,-2.4951589211367366e-9,6.02082831863974e-10,2.9726100669628539e-10,-6.017671521570495e-10,1.882738064895945e-11,-1.1893790091134188e-9,7.839141605847251e-10,-2.3320855187275398e-9,1.3419771280147612e-9,-3.2410209397523639e-9,-1.0326071164575013e-9,1.853565479518671e-10,1.6584715369017256e-9,1.619041168696666e-9,-2.213874838964116e-9,-1.4753421057374706e-9,-1.7567477629821099e-9,2.035730421464465e-9,1.5777190742957903e-10,-8.208404774217759e-10,2.017222201504285e-9,1.2406294798884593e-9,1.1605506006617686e-9,4.913532253156066e-10,2.3509526966625866e-9,-1.5462046495274629e-9,-7.879639611453496e-10,-2.4916440947624707e-9,-2.0638499132404986e-10,-3.65622170824771e-10,2.37354805006262e-9,-1.7372796582166594e-9,-1.3154728135392725e-10,-2.4719126836875328e-9,-1.5263063841344647e-9,2.389094069610005e-9,-4.501508376368927e-9,5.524048374677456e-10,-2.295475208366262e-9,5.033455911199869e-10,-1.0092468309793686e-9,-4.3522024448302457e-10,-9.567639526212426e-11,-7.602021907056924e-11,-2.917921008436179e-10,-2.055718340275205e-9,-4.570545473093805e-9,-5.486077508671232e-9,-2.5332506238145969e-9,5.78363706864486e-10,2.6688494505639444e-9,6.831181828181258e-10,1.2116377674222564e-9,5.874445467643842e-10,3.0012850876673909e-9,-3.180905681255384e-9,-7.627044228303606e-10,-2.603822288773778e-9,-1.3028846296235194e-9,-2.517846889800628e-9,-2.5321415548143737e-9,-1.6531057245732983e-9,-3.1715360611418297e-9,-5.238588178241324e-10,-7.50563053301177e-10,1.1929340363817714e-9,7.361928649320727e-10,-3.932292504909112e-9,5.514396012853378e-10,-5.6951837953893766e-12,1.657735943668494e-9,1.0123609337511335e-9,-8.890647919468691e-10,-5.827437243436432e-9,-2.2053783987272686e-9,-2.826054898049766e-9,2.192948924867815e-9,-2.7230451168479447e-9,-2.5381760020607507e-9,2.4764287904427346e-9,-1.6369175688935268e-9,-4.54513918379446e-9,7.277271174729462e-10,-1.889922461753395e-9,1.015445843547706e-10,-2.610905083342806e-9,-1.221194969914136e-9,-3.156514782561449e-9,-1.3144182534331426e-10,2.7181095063604174e-9,-3.0555504413384509e-9,-1.158289644751232e-9,1.4927948944642198e-9,-2.8951926154286369e-9,9.745284676341114e-11,1.2842811100377567e-9,-2.8254677213838546e-9,3.308571945995746e-10,1.3741417208783507e-9,1.0209967841575693e-9,-2.7699153342710177e-10,1.6046635209739902e-9,1.2206527343784458e-9,-2.8160947573847517e-9,-2.5065732924297555e-9,-2.1605955063631966e-9,1.3461892801285476e-9,9.615977682375975e-10,-7.504848228917442e-10,-2.52724264271723e-9,-2.906013051051135e-9,-2.2682373826644009e-9,-2.44453807020672e-9,1.141332380635483e-9,-1.7161780650383568e-9,-1.3808210070299594e-9,-3.851609881397805e-9,1.7897388068275495e-9,-3.640665329079202e-9,3.907671417539269e-10,2.2156179718914695e-9,1.0266206817943048e-9,1.630657896264894e-9,-4.662689438466749e-9,-2.0666076392214465e-10,-3.100387771998383e-11,-2.1398686043371715e-9,-1.6541529290991354e-9,-2.584345164315035e-9,5.038300056904909e-10,5.833690701696857e-10,1.349538798457549e-9,1.9366368284401888e-9,-1.1512793838742877e-9,-1.048684600393262e-9,2.280415340043213e-9,-1.754515351720651e-9,1.9532247763192518e-9,1.878465283210436e-9,-1.486545819404652e-9,1.0556453325658059e-10,8.075946238316961e-10,2.3864045005471025e-9,-3.3169464691019299e-10,-2.9260003663432967e-9,-1.5548542718010207e-9,1.550996924330224e-9,3.7678593304756197e-10,-6.173410998456633e-10,-3.170252306973976e-9,9.632776752868577e-10,-1.1326277592554804e-9,-2.3640838587838434e-9,9.479561918805769e-10,7.825860725968918e-10,7.923008577111861e-10,-3.4601825126397307e-10,1.0105458618048359e-9,-1.1783097517253918e-10,-2.2730796169057199e-9,1.9670652410819907e-9,-1.4197073833984078e-10,-1.452164922920217e-9,1.668202724673216e-9,-1.9610082187190299e-9,1.3886133642661625e-9,1.4062819586487307e-9,2.716501375508838e-9,-1.99718026401562e-9,-1.6267084239168072e-9,2.0627215809909726e-9,-2.2570249116794236e-9,2.4043242107749685e-9,2.7252706552056238e-9,-7.331468581723138e-12,-1.872362861356528e-9,-2.556914237302768e-9,-1.386188953930964e-9,5.728473266545758e-10,-9.980263110969104e-10,-1.3508792701134632e-9,-6.356530299840292e-10,-1.868256430261117e-9,6.795045532497938e-10,-1.6338721645786207e-9,-5.81020138596058e-10,7.783537430275976e-10,-1.3367670333991812e-9,4.114637361709557e-10,-4.897530516323287e-10,6.200316505157361e-10,1.0926955806787538e-9,-1.2151830577869508e-9,-1.6713873911705542e-9,-1.2609114046234407e-9,-3.009105375860288e-9,8.999030142435001e-10,-4.047134799599677e-9,-2.578239705211763e-9,3.773928563795769e-10,1.4359653484359776e-11,-4.08334791249813e-9,-3.0557949002267644e-9,-2.8708320892964195e-9,6.910569157650983e-10,6.210927264197764e-10,-2.9972743448370428e-9,-4.120692137989205e-9,-4.805712932699993e-9,2.466060315077005e-9,-4.6967673384390754e-12,1.6135842378549925e-9,-2.725370710607741e-9,-6.681008400499757e-10,2.2054149702281768e-9,2.9078135622289829e-9,7.447374349671255e-10,1.1673292278171182e-9,-2.3281777050628755e-9,1.3646730523125397e-9,3.0295009288487787e-9,-1.6624478805471958e-9,-1.0481128892434605e-9,2.5693586988130108e-9,1.9167819015950387e-9,-3.860301291871242e-10,-1.9348088148825315e-9,-5.079077076833193e-10,9.245631011125719e-10,-9.229854823892101e-10,-2.3461230218329319e-9,-9.512866680453135e-10,-1.6703785419248687e-9,-4.329659244608366e-11,-1.6965660190826467e-9,-0.011625621217650456,-0.14150697292974505,0.00885827998918109,-0.082353428838541,-0.12215478848128696,0.018785820382920937,0.2152043072572678,0.18791202854859763,-0.16035389964318354,-0.32134334086925789,-0.17838830352721239,0.2452904894802853,0.014818589578217898,-0.17780661701272544,-0.1090052460955939,-0.2240885244174731,-0.30874990499387636,-0.08321240015314807,-0.041131168608189067,-0.13273786973307609,-0.0793563467518392,-0.1786203880738696,-0.14609248479776014,0.12950988857799723,-0.03969588678553948,-0.24890175221567233,0.04758275230396449,0.12004598133933414,0.15923339310579558,0.2088128025859939,-0.09351906283483652,0.05500628878202988,0.0013910628192937139,-0.2236597752568452,0.037183500302744486,-0.14887209998006294,-0.2911832747651762,-0.1897940098830551,-0.10735621780959194,0.028638570466045289,-0.11533736216516477,0.13909274378087367,-0.126853579153849,-0.0652390609700387,-0.018928372728928036,0.19534359725273857,0.29934102806686549,-0.012518392995502457,-0.017953229892736266,-0.044228108953086178,-0.3969959150928013,-0.009907716712016663,-0.014369955651797247,-0.28423372831238938,-0.5564194317293685,0.08669518206620597,-0.0658789472833765,0.18155804619629463,0.05305991907521856,-0.36294856786040005,-0.04127389517604345,-0.3221182821043173,-0.09383665673726494,0.18655509662524948,0.07520742218866584,0.2734275906291519,0.013436275975052566,0.006631665114464201,0.33846972961762758,-0.14787356898186097,0.26503583893806678,0.17661620612394056,0.13933808566435924,0.300265440227986,0.22468718330466887,-0.2094411474950378,-0.03807429524047575,0.03090015921513867,0.11476237845084134,0.133564698698861,-0.39688666978478656,0.10930811081882805,-0.025512869759708766,-0.0032430181292480259,-0.13433695147300862,0.21252065737963886,-0.06193676212075126,-0.06772145996719767,-0.3267193895497713,-0.1426660101519309,0.040813388597018409,-0.00026622038496284975,-0.051557392510492978,0.06898547924263203,-0.09069197901181697,0.16611426670970773,-0.11232511982065562,0.018833190317196135,-0.15884951270722373,-0.038662204661542808,-0.026744566085371504,-0.22573012265080293,0.12790899253342445,0.44173978239042796,0.28642181141001768,-0.2916619886768404,-0.1609879339425001,0.0565995797967744,-0.012013370862656041,0.05084693289901731,0.2520727330042028,0.03227307050009209,0.11134697738578862,0.19087687527879786,-0.2578052768106537,0.1447679693482085,-0.0751966652017032,-0.3211411048802992,-0.11414590242461616,-0.1756685389285442,-0.1727657469001456,-0.23226064138423484,-0.19157702537556774,0.14581460507169623,-0.07615425609473889,0.0144082034568532,0.08153891741648478,0.03056910245825317,-0.2579383221909286,-0.12876311281031789,-0.11823907490210038,-0.006272678688506805,-0.283850207396193,-0.3330903432501983,-0.15186452404476787,-0.07470443111098842,0.17765295405731669,-0.21525672512912159,-0.3524933590181642,-0.06122240668667443,-0.3466340524168796,-0.16813860860635586,-0.34433949940224936,-0.039510163247590577,-0.049705043849406878,-0.09944611468705823,-0.12377858583965654,-0.13030794082364778,0.039770588302765998,-0.022199904451087019,0.0006633133594910128,0.0005995883644997589,-0.005138687147405691,-0.014445808305221967,0.03888694854701907,-0.04884146523558227,-0.17053901875547129,-0.06496941207335944,0.0021829062437077248,0.5628408684382433,-0.05679464041018871,-0.2219234333656327,0.008626174539765105,0.3113280159361804,0.5382439607982399,-0.026282109905917947,-0.17875475490582233,0.07870269315731334,-0.3423385923305352,-0.37661874917603435,-0.043610554360069057,0.01768046591867336,-0.024712020798014185,-0.17584417544590692,-0.2650443965470747,0.009736579931999303,0.028774564548210599,0.009182887519464917,-0.015165371851875375,-0.06445952208558906,-0.008205884736553877,0.008341171786935567,-0.005496420098999165,-0.022935062146664396,-0.036844105279553809,-0.016597998348500698,0.006937588562069874,0.00029215819607578516,0.008417048326405346,0.016499859194811278,-0.019008909142048944,-0.02773533354785119,-0.0008307969828126088,0.02397799097199902,0.034129352005829467,-0.03168651339638401,-0.022561059366254595,-0.012289012257553476,0.003215748151128954,0.0002928155979545289,-0.0005080597753957386,-0.07246528126499895,-0.13854676106752593,-0.14742737427373624,-0.05129716868647843,-0.22191524352337725,0.052913861980937507,-0.12144352428341719,-0.05100102721880237,0.06940734872720061,0.015994458842819339,0.23306795852303797,-0.016216699380107656,0.045678980505006436,0.022977119061965185,-0.05236614465419744,-0.048098741470996447,-0.05858881961383576,-0.028407535034440314,0.02048067689718876,-0.2984789622080444,-0.2884734313544346,-0.021834874797210473,-0.0031419524464162279,0.008883488254367534,0.024126695814161274,0.0739874440404714,-0.11098850495707294,-0.31547658243732998,-0.23177086184711766,0.010468535749007064,-0.027619348323271114,-0.451132505937657,-0.5934405678463535,-0.2930047864870113,-0.07122614996037265,-0.19625124068543904,-0.19718446555661105,-0.022305182722889784,0.00034604349999751505,0.08237622840815505,0.03645320524884691,0.030283545167888866,-0.1017889351386824,-0.05280962910129618,-0.04056459949080769,0.046966044348387147,0.28292116968685768,0.4039480127481271,0.11275654519184009,-0.08499856420364162,-0.07333963750664506,0.07440107170611939,0.10948215437403526,0.343688451582407,-0.09459906373187915,0.02698439958013102,0.00023645778753281227,-0.176618613513912,0.0367860440466527,-0.08037334532260984,0.19229140652041808,-0.07688931531667415,-0.10797083497515822,-0.1496586162198572,-0.21784175139696719,-0.30368339080806547,-0.068871015894359,0.027777793379122646,-0.0034657288417364845,0.07296222619079741,-0.03173589364099387,-0.10737547112275627,0.052010491644094349,-0.04801467043056585,-0.147733566296561,0.11961719502557075,0.12733154486618154,-0.1367158773356146,0.018064273744063637,-0.03043046415344294,0.11754675678978409,-0.03521264119811187,0.019908035282038544,0.09428471696747283,0.1278868700409321,-0.3442019734279195,-0.08313663560651831,-0.024762168444796247,0.0634969544373378,0.597696900832937,0.06592403407371232,-0.19570389415332699,0.0019173347618634395,-0.008394508596847175,0.15816749633045003,0.24127276728600895,-0.006256533275103691,0.11956838931340665,-0.008402922380856134,0.04267235528455989,0.18269421256533734,0.0016296224370865088,-0.33813029501253868,-0.6129657949904452,-0.03444583130283755,0.22069031821981198,-0.23246181395398414,-0.24644868869233833,-0.19903519785091476,0.09839454762279568,0.10850738885426285,-0.16700934366862908,0.071157386583265,0.17779634040067708,0.026229773861075606,0.22578175308670885,0.012599927787373572,-0.07201799699491166,0.22034268217714857,-0.09804686950424455,0.01547145451512374,0.037913400406585067,0.12484371852299339,0.01892056331649027,-0.00011244850228680589,0.0007658776182270192,0.00020902363145607625,-0.0007842844844480729,-0.0030228185485252705,-0.00034277639600059705,-0.0011857283449528366,-0.0006496280017204027,-0.0013061525977517664,-0.0010021909048040972,0.000033324098093835048,-0.000543594067717757,-0.00047937002725528257,0.0000841953323195184,0.0012193684066475644,-0.0009176707773936991,-0.000686662163824354,0.0002886066046681189,0.0005625880802218742,0.0008095136676080613,-0.000504167807214593,-0.0008524231542580251,-0.0009258343223788609,-0.0003015654332550729,0.00037749492516397817,0.00003443014393014316,-0.033922884012283268,-0.109790906431861,0.11753951939259978,0.10910269890808766,-0.1731990842750876,-0.3618722509513709,0.08324977351424555,0.35386431401712156,0.43037374106395928,-0.04649653643176723,-0.035802580285229489,-0.01893373374270023,0.38246642571836639,0.2807233756338099,-0.09130014899122353,-0.07405848306837344,-0.1691593900929064,-0.08605560441131353,-0.010462887025078588,-0.16000152970605259,-0.11362656565106637,0.01326273515975556,-0.012598837348533487,-0.07003917967716242,0.00334923603003821,0.015046301835908152,0.009459109507834169,-0.016047517404716259,-0.06101038567129434,-0.009384524076379747,0.008223105475789384,-0.0040638391146007569,-0.020908158139337348,-0.031147660714512607,-0.018689710867369589,-0.0013495476830418993,-0.0018362846434996563,0.00789398764548668,0.01354578241496728,-0.022715694808360513,-0.03174424955252457,-0.005065329942364292,0.02013033322145441,0.02188716774083544,-0.03391199412588221,-0.019387962827684545,-0.009508093316983199,-0.000556404383318882,-0.004084329568073932,-0.033362167606692059,-0.15006642581884725,-0.09048579864547377,-0.08958959408255654,-0.02073414981106391,-0.26785189309480647,-0.289225417470409,-0.08283050166610652,-0.16956356697353029,0.19591088453123485,0.07203408002820079,-0.26247258371094658,-0.3366067616661897,0.03460285085166456,0.036886860149271099,0.3543076419926227,0.11163893315703465,-0.16082700589175825,0.019014741657697337,-0.2200751180041698,-0.19343538501635447,-0.1895121205538896,-0.06413653874444168,-0.20269681718664865,-0.07405870276894798,-0.23479415423249748,-0.32038333115637759,-0.15895811981159548,-0.25276209010283759,-0.17915119417269219,0.47004482815434597,0.030073724307355163,-0.011467096688400219,-0.06598474046145495,0.00910474688279064,0.7145493738239714,-0.12327288345329982,-0.16475618622345515,0.09533001513352349,0.0378883000796367,-0.2105943061642109,-0.28354475183055169,-0.2428273300649167,-0.25250288459164568,-0.041044115092876209,-0.07117118049907595,-0.0033348225540951899,-0.10644662434240608,-0.06233968256131373,-0.034314520636729187,0.047589540138460287,0.07663974566783294,-0.18579269102178604,-0.019091186867411213,-0.1543889038794891,-0.09550488961683054,-0.18691371473207983,-0.10869858015967114,-0.012407794678741945,0.050130385209203289,0.06549104678123598,-0.19856549099567676,-0.11071808762498416,0.006347510910545457,-0.19422955283147703,-0.1535926809608123,0.051338062794235,0.282147018213698,0.037198864910308038,-0.022000845306930813,-0.33345506553860079,-0.019469230685905397,0.06016322874429121,0.2412157619045757,-0.031670979063567247,0.11578435687403972,0.06182005064689036,0.04825797749823267,-0.06984084004425914,-0.1551009190085451,0.2953848356520648,-0.09283446888121454,-0.18508958706176868,-0.206159851192038,-0.31045844454296298,-0.1435666630138368,-0.14929392874410447,0.02540256596786625,-0.13158843483546538,0.03447789351312007,0.17318880841129209,-0.16511715770168937,-0.22042432913274377,-0.17531492654310508,-0.07134786636282274,-0.20652072488159466,-0.18741647330169287,-0.18286591669553657,-0.06526415862028035,-0.028701525046565057,0.20279509608170577,0.3531129213198297,-0.015033729480415832,-0.03863045441258245,-0.22277794457335554,0.08490678099301062,0.4948411192322256,0.2296122066140168,0.23162413466907642,-0.18966978243969444,0.22311001368447865,-0.05240399475313198,-0.09722599570958554,0.010935093849346708,0.12505999848060846,-0.11494321116021607,0.0055145676007374139,-0.2022010064532926,-0.1737233430864369,-0.12359514305480464,-0.1278284752462018,-0.17550949779179496,-0.03787873723813538,-0.14916772713937216,-0.25587453715235999,0.024994188393764276,-0.04704175119576523,0.0015515390582849949,0.19354477302703775,0.07652843319056339,0.009773796577658277,0.024672328220423369,-0.008241038830799729,-0.030736022416891805,0.1613315858631234,-0.18792921169254077,-0.06214007229734605,0.11118961111833915,-0.15880655231173164,0.10216304684405517,0.18927316743783749,-0.006926045386486378,-0.024217583314939504,0.13120428788509606,-0.16699251810882813,0.060008099608134957,-0.10162704848152016,-0.28754369977130897,-0.21394309761168146,-0.06596212459507991,0.0003285317207319571,0.033269154631286709,0.06251071487281407,0.01973336403328673,0.023503553642907728,-0.031043662256154123,-0.2440683552679688,-0.0007329140400701858,0.2518113056428106,-0.3569954239314823,-0.10475419672580459,-0.1416117584118706,-0.03391693972433998,-0.18061045778791844,-0.3387253805459106,-0.15273233447471666,-0.12614346389712098,-0.12412591886660149,-0.13036359515468894,-0.011968900127970224,0.043799476074664177,0.42184448604956567,0.23534454647223677,-0.04429759073375332,0.19254972247027433,0.020833356214167668,-0.0017332810644262447,0.004006152693817115,0.022647462106505424,0.02166079090767418,0.015421701921554353,0.00015485442966333413,-0.01261441135311858,-0.009156093489285344,0.018925392875249425,-0.03626945183795759,-0.019634175041599468,-0.0168484155436714,0.0014153427900631723,0.0054136413203290669,0.0023914944703296375,-0.0032811095213194664,-0.0009590191155459398,0.00005111105251351772,-0.017179125989038998,0.003370104294828195,-0.01312333170883709,-0.0002769837993259613,0.0002702525955538759,-0.015128716121807556,-0.00356498345596688,0.16056073010412079,0.15960972677025005,0.08547813265141079,-0.005515732434222179,-0.09640781622762357,-0.06064134110246161,-0.2307947138390952,-0.15924682629501903,-0.028205443098462077,-0.22826010887223295,-0.08803026332352669,0.006327945769805413,0.1076599025539866,0.08366560615354092,0.21819153218909996,0.17738276006380264,0.4004999813301181,0.5137371465237721,0.09494388951318082,0.04111655840281968,-0.043522857067370298,-0.06785905435657692,0.22646793525025619,-0.026215616850693216,-0.04349630598575001,0.017176114330914276,0.2019363826442602,0.21530823546467527,0.004050567806800062,-0.060089199909404488,0.004711723768819854,-0.014600135351852716,-0.0019526282420548897,0.21968822182162194,-0.06044441986096472,-0.03887173712361388,0.20907215341309155,-0.21224673217777705,0.028738221755753518,-0.0606768554649888,-0.07768329925448345,0.365797195640854,0.23068634505749423,-0.08307091183558388,-0.027887896441726367,-0.045233510698119167,0.027624661148256407,0.13567325917251539,0.06107579069014859,0.09222873598126748,-0.01036167276885623,0.046171748726700507,-0.2476647920872769,-0.10150114724139996,0.11353918833324116,0.21161809845555169,0.20291793760488636,-0.006782659967902971,0.05838817381585394,0.15720082992845875,0.005637089619631093,0.07222504599516575,0.349447043318015,0.24379454077337973,-0.004479971511706882,-0.20709922374118112,-0.2016003020814211,0.06828039684056789,0.08959235937088833,-0.024588333418968365,-0.2009977595655851,-0.14659031050874747,-0.009981833863298888,-0.022944039685873359,-0.2045714173436385,-0.2370591293032846,-0.2526083747005428,0.0023078790870851267,-0.04203045355363998,0.1228519131517469,0.056369794361760847,-0.2664379495831694,-0.12385208362546617,0.04938565113088772,0.08793258783821063,0.044632382906923968,0.11906548252240165,-0.08776448765317382,-0.0126683247073781,-0.3658306408639336,-0.17480779191682453,-0.29726774197320918,-0.05023717720523996,-0.014743446660982695,-0.09462915083559868,0.04734238537298849,-0.07236770787297085,-0.10167218448893863,0.03947320094559261,0.052019643069314207,0.040364746046796819,0.04827787080604741,0.27448026009554207,0.00636201033012736,-0.1424661691984964,-0.03143523398236745,0.23353580962948634,0.27564625174397,0.11534213068596966,-0.5096770930035259,0.012642710368532071,-0.057689985605851628,0.23439619689957223,0.03647752672428292,0.003269642342822954,-0.06610562188065682,0.14396062542370648,-0.09179858050267818,-0.005121868863012374,0.046125722458154997,-0.07646530097875448,-0.03134045900983762,0.03414080678521187,-0.0647829178921582,0.0002664302431323438,0.00007042011230329655,0.00004741001418765928,0.0007700678567142924,0.0010757440926209802,0.000008926872707988319,0.00004948951848774864,-0.0004356481320020042,0.00012314204916629587,0.0009372888411808707,-0.000420883679316424,-0.0002436599683531487,-0.0005845346774534868,-0.00047022530918177003,0.0002595402004604661,-0.00052976590388491,-0.0005810762148742092,-0.0004683607494861492,-0.0005332832149675733,-0.0005317328149721278,-0.00033589180180713506,-0.00022106871608396528,0.0003408557099738601,0.0008677691695223753,-0.0002122939930403182,0.041527224403177399,0.08524555196565587,0.026903596467052788,0.003309992599796408,-0.008135460360915247,-0.15839799966121766,0.20766888429054193,0.24980926914731617,0.04988797155221596,-0.28908347207470688,0.19929717482545657,-0.17426962252958953,-0.12875820969375746,-0.1101651051560537,-0.022497350077585935,-0.09480525100279949,-0.10211627134327343,-0.015599607971326552,0.009643552437649049,0.19765659239426726,0.3218440314998718,0.0811928601159624,-0.4550894641539872,0.2548154518941495,0.30422639906754897,0.024275894007151794,-0.002344458399335965,0.006967094104504086,0.02379724277927944,0.027441486269773449,0.01705613137153488,0.0002495587323006569,0.0014100974980748218,-0.007721332425689748,0.03299910941899169,-0.029332507874294288,-0.010878485818793487,-0.012434171712172001,0.006098390729115524,0.007386378974090135,0.012104931223750154,-0.008994909194581588,0.0007667761906090228,0.000675067597316321,-0.01804517858225835,0.0037626491425771619,-0.01122547560531391,0.002153643139052342,0.008169024546368193,-0.01499105193789458,-0.04303969946361874,-0.15208744960027704,0.14829925260418545,0.23645487486308346,0.10187710144370751,-0.06354185240821667,-0.2809915337690609,0.3704151088424554,0.21861832776956326,0.0990724364420998,-0.05612088021327306,-0.14800260652233813,0.2659680903570215,-0.13122652247004203,0.15460089661336333,-0.003281324533416904,-0.015570089996866887,0.057449833040979249,0.17383790828563626,-0.10460164302765612,-0.028481884615466789,0.09975520925695886,0.0651832725711582,0.02069747967478061,-0.18137466162173555,-0.08415060121215987,-0.263836270777919,0.05870049643124849,0.1754774222428377,-0.06694145694389608,-0.16425321821060005,-0.11154361976762212,0.15698223256181083,-0.04941617023551856,-0.049668766174984179,0.09082538601163881,0.046736160530404077,-0.040436092240071847,-0.0850203564026381,-0.020721390541842398,0.08740996025975272,-0.1496782301769879,-0.20474960066567025,-0.1622360105915376,-0.018518333647576613,-0.00043437306186386163,0.019410127365866178,-0.036267538534372239,-0.015571633625365214,-0.0013216194096609953,-0.2816328868315282,-0.21086325134600768,0.12201839762113905,-0.12224165248766429,0.11071404915550083,-0.3143201665905588,0.08437917281823979,-0.10975497152794525,0.08943706266589688,-0.014653814182658444,0.008032063346217143,-0.012138343114389081,-0.0038397275199938097,-0.11314285183878294,-0.3318056483254089,-0.05850022017172452,-0.17883602314306255,0.001665453359441227,-0.3888913411932098,-0.48938146767367088,-0.0010307115558677632,-0.043592526357318247,-0.030828831879337928,-0.001045636828854181,-0.13874174709247109,-0.1604508412310732,-0.2512838219760874,-0.16252693477042888,0.032609535756226149,0.19441405525191483,-0.1798277845259851,-0.39036582549750956,-0.1558237414193132,0.2335366709305092,-0.1111846519268226,-0.26031270076240556,-0.1445618086030792,0.21779912325398025,-0.12848053256306084,-0.05050532724112411,0.00012688853989845423,0.18908246809340027,0.016848378468478508,-0.09929688620799251,0.007044421801029248,0.16331860538670785,0.07576961777988616,-0.04507151009701188,-0.055055252327726598,-0.0036332431002872756,-0.0805252019099792,-0.2921107916103523,-0.12947990616839556,-0.07011484162113817,-0.13734867127262258,-0.07748044709794151,-0.14123123091020108,-0.24230838537815603,-0.07277876011656721,0.019236556584154686,-0.14812867517436138,-0.3584656178048219,-0.14784801371122384,-0.19522829545076288,0.17623019490903567,-0.1375481058581756,0.037732884213458047,-0.034276175271091339,0.05966420056130194,-0.10176929006914346,0.48396530408815777,0.26287198087411686,-0.18176962563823216,0.032688818795708108,-0.100024951188647,0.05973118803379778,0.14870657710035355,-0.023435498126669196,-0.054270886188082807,-0.01650699081166509,0.05733177194055089,-0.06989082446810512,-0.012873518873219144,-0.18661100137521029,-0.06373490117809826,0.04848073773300603,-0.13879043367013844,0.2084465272853492,-0.12426731606753815,0.013561150093956452,-0.01585044601486544,0.05292542044942429,0.06637909312572178,-0.1013133940724724,0.10728066928649113,-0.01432611154766858,0.30300066092077018,0.22517087601488085,0.009515434215107645,0.06434147040517603,-0.0057487114783906149,0.004730767013622783,-0.003689695466455426,-0.0061042557045497178,-0.00545160081972177,-0.015334602032797167,-0.1377927303838662,-0.31496266840210959,-0.06375026820531976,-0.0455299425292512,-0.04466735409837574,-0.01663508961734027,-0.15699400847119733,-0.08980804263242548,-0.17777190087743428,-0.021421646769881065,-0.05698930329165991,0.009125028772516,0.01623333661567362,-0.06926286675086384,-0.013422999225061985,0.11405133741614315,0.2041341972145854,0.016874869032070598,-0.08549001592911666,0.027501472111965694,0.054653155625858779,0.01630021045205906,0.002413730220633223,-0.01009059473724819,0.04367841333584064,0.03572049933825298,0.01740898749403707,0.0004604294148791578,-0.001274522789433766,0.034648996630238227,-0.002938841570278357,0.017850096062055073,-0.004147099605901686,0.025328601708575997,0.011669584636523083,0.017785922926265155,0.017711613406444075,0.00412541682936693,0.03242107675183221,-0.014123589945819989,0.00237524779378271,0.008044752403531468,0.056300407927205548,0.032219826200339907,0.007182776760624008,-0.005146414061610625,-0.0816757184216421,-0.02885940870004305,0.04381692151797247,-0.0389082995128886,-0.2068042832104357,-0.22570861240012886,-0.08549237479890695,-0.0003590755050491702,-0.043804901751112877,-0.4511738800958624,-0.2552897274359617,-0.0037200914274542497,-0.0041489483828311,-0.12017523223048075,-0.4402626873030102,-0.2565711604250165,-0.01760227590449443,-0.047161349668889889,0.04220709240679497,0.14018528502737913,-0.02172761756929677,0.0014553913476583699,0.01713317966294779,-0.013917239790701339,-0.06716080310047322,-0.11469806616112055,0.03721224011835609,0.09109997257680053,-0.00012388123176654327,-0.08038178238423184,-0.14469892995247903,-0.38020222331607486,-0.05750192716535692,-0.03933719441592973,-0.13269758687195419,-0.1664898467490804,-0.08193245698298439,-0.06461543491422,0.0022104067882930766,-0.2857005404701033,-0.2571948374980238,-0.10342619875059175,-0.13137356942549439,-0.008428568033993117,-0.03255493514209967,-0.1219843949991992,0.00505145234123989,0.010137725572204042,-0.060677274360901558,-0.03151571629431082,-0.08457986676788175,-0.3200941975315892,-0.14200542338398088,-0.08142907128434615,-0.09439291754197182,-0.08767650001703049,-0.25189811396065206,-0.050628121631251559,-0.10458282769946521,-0.10656084369231786,-0.33385120538040416,-0.2758752423947982,-0.051336367238609129,0.015748004618514716,-0.07288407751215058,-0.3164815792099909,-0.1977723463169018,-0.048520745682981248,0.0020708496724282648,-0.14450485295551039,-0.042991288080183747,-0.0011093318309365172,-0.009740452985330134,-0.15687282604910758,-0.36754606319938945,-0.06297104218697947,0.004681579674715093,0.31148265499644597,-0.22454489512732693,-0.45274579698081149,-0.06119010161820188,-0.20471895164115426,-0.040445772532456399,-0.0033828067319527255,-0.2338636613711128,0.02353017596133534,-0.015585552217828551,0.12096701218904429,-0.020715126830597197,-0.18285132516458775,0.09967973399854763,-0.00019945008205493966,0.031343980119143449,-0.03954032004826341,-0.01498518317853137,-0.009962889596318301,-0.02627751832654254,-0.015819812779174826,0.12094965207615689,0.12381965279224237,0.01575069350715242,-0.009016299161896575,-0.12812516029530617,0.2065830694248867,-0.08014288890644476,0.16180207492056893,-0.06890754378546643,-0.012092770940849996,0.0993468667322983,-0.15484726852263559,-0.1399473109249611,-0.09578245464614488,0.1154551549889354,0.09714474719472771,0.11539921969389923,-0.20412117298915587,-0.05475406226709372,0.1590306013499077,-0.0680163994574096,0.08632606117219866,-0.019098056253851887,0.30441045325386759,0.17096014485046683,0.0004922934573694101,0.001887029726703314,0.0009017972601302175,0.0002951390152189525,0.00006893911378432198,0.000599696114719215,0.0011009867298036676,0.00030312948883282856,0.00010519758858010329,-0.00009887187516222844,0.0007014187084897131,-0.0006510255959911519,0.00020139704585809694,-0.0002317005085237576,0.0004951256463230611,-0.0003422826172134105,0.0003485197910445397,0.0007465026600453737,0.00043461107117932307,0.0008610330814369775,-0.0003315591761252497,0.00041787165824404347,0.0001876636466693224,0.0012056492197906684,0.0008153328941465532,-0.004693295252691464,-0.11760129218495309,0.0470876541736046,0.002924865178773491,0.0010024705100994427,-0.04985525377410616,-0.20451133710869719,-0.17952461108879465,-0.07547315047641193,0.010368805707664311,-0.10227673096983418,-0.269140000917347,-0.12923090602988702,0.09254910683266589,0.12663852217278213,0.022736599411278516,0.09420794131825426,-0.08924160236552038,0.029843647531712568,-0.03197708893341189,-0.12326884580212132,-0.3418061512907654,-0.1943771210117483,-0.04833746025106477,0.011841030418697538,0.02042170936004607,0.04692921448925127,0.008771414339808758,-0.007006085202206693,-0.019521994689217307,0.03545614949316153,0.034031494788433837,0.011659536285632322,-0.006375337092002383,-0.002397649278310695,0.025691388144151746,0.005760846426467596,0.012698508659391503,-0.006792234378640457,0.021213246019317349,0.0046056250919550068,0.009345584741890949,0.01307536328520648,0.0019476181539832593,0.028150016641323117,-0.013322171564458634,0.007080778224323306,0.006320634036226658,0.04508665018587046,0.023204356730618136,0.15444673386911648,0.050694393009292699,-0.058639784194249259,-0.0516380948201857,0.12192404812198171,-0.04067012320603559,0.06704741192671382,-0.12299707942042322,-0.26993060785907788,-0.3109200095816592,-0.06903436868907756,-0.2762535064722627,-0.22866992319779298,-0.21796074666374955,-0.2803888428989815,-0.1420868461062547,-0.1443689144048497,-0.17941906679588832,-0.07049076336106133,-0.12027639139682762,-0.05592879745731479,-0.16521725969742152,-0.20916278812968448,0.018739038663445469,0.04049618441094785,-0.23015314308516172,-0.09126861285258845,-0.309119155687185,-0.02397409350407937,-0.1448132980860842,-0.15019117754931658,-0.24558414069007315,0.09441062803626439,-0.1544711248461295,-0.0821813742802285,-0.029682966605799604,-0.3333470543060731,-0.043604293254018929,-0.17303219246326524,-0.0020519806367936025,0.04693360392596047,0.0348265593458315,0.06882855877641006,0.16632831119261738,-0.008428991962663606,0.06006710469674916,0.0666720227860197,0.21752593703420665,0.0875677086687209,0.011715861508649737,0.1959890232539069,0.1956300681974204,-0.0959408362132696,0.012119374052321474,0.08135797160585838,-0.4932885966085025,-0.06211844420192711,-0.04336665077419504,-0.013154751942161427,-0.3230520756992862,-0.28285061973219507,-0.0360886742844394,0.2812999504149649,-0.13021104704337553,-0.2248327662891416,0.19625684135436623,-0.15987959647415504,-0.0001448883112837804,0.14031218498697743,0.0029407501242963215,-0.1315447316276886,0.4818487376348266,0.0782129203140104,-0.007621157105741945,-0.12567590588574646,0.11970817830980878,0.01077102394467097,-0.028613473483589254,0.07672071435333453,-0.015131945342824549,-0.45334571373414425,-0.15486308713784595,-0.3146525401429881,-0.375806390979498,-0.20577925083683688,-0.05599503772489012,-0.1029079800575159,-0.15906945593442976,-0.4046912624802205,-0.28859115279577549,0.01649843307898976,0.05684312049623808,-0.08541517750535548,0.17347201208328653,0.056732117684649249,0.11106373112677877,0.13538325211444844,-0.24519457054427544,-0.0804570726618474,0.12116307269468717,-0.020622156241503293,-0.035443159016910658,0.078407693690651,0.06993279848782516,0.041105947658083657,-0.35869427045076848,-0.29616266526330095,-0.0348570872809849,0.40579736439091049,0.02577274605840345,0.40809298822858777,0.154210911357214,-0.2298852689167507,-0.1684760176037349,-0.00600360972009739,0.04237059139308143,-0.01979068355602844,-0.11269376157802695,0.150930393498688,-0.06829245299732317,-0.2162880442031291,-0.1039157873383927,-0.06915839309939766,0.13438302396093144,0.04721331368776829,0.021508890558829393,0.059159725622973769,0.07285488521603959,-0.17257472609744557,0.015829579000893814,0.2865980371622814,0.20674183423137963,-0.3520631564475294,-0.30837437576557788,-0.03416758344469533,-0.0006328548015289818,0.3274624288074773,-0.2526381137812436,-0.2945797533684463,-0.08578548253880153,-0.19641864531765128,-0.37674603708549705,-0.424234818390962,-0.026870000739775917,0.09354918593688826,0.05411461575155842,-0.1298606536043371,-0.3861219040465632,-0.12054643851687408,-0.09518969038056191,0.0008991528513159288,-0.000986481821977113,0.058160349070683268,0.18923152844261335,0.008344197342597717,-0.1579745558012416,-0.12905496698741246,-0.23651095270916057,0.5834480511967546,0.039115538655192,-0.1714439178870399,-0.22636729255702579,-0.15496493747775545,0.0605167981199063,-0.10354842178099233,0.37067795317361798,-0.11186796608524792,0.16796186961452365,-0.026499981112698947,-0.3111751097397601,0.11512175975855493,-0.053860774408065529,-0.19286663923893983,-0.3968376749307203,-0.34150501201629565,0.007608146604878407,-0.00457798380938718,-0.009810651519747443,-0.029043734950216898,-0.0036097322074498305,0.01648365298635744,0.01844386203295418,-0.007939705319094663,-0.029215005641356024,0.016312791296396225,-0.007388221327453922,0.013126971636361066,-0.017662677803684584,0.0017305541277666036,0.014066625091042994,-0.03663643023552202,-0.0584550718315237,-0.029922505931826345,-0.001320653798116696,-0.007181595764251011,-0.008165362894928417,-0.027961002963716353,-0.02022501050200495,-0.016087152644750813,-0.023157523002627288,-0.0042859711398202,0.012403783422037436,-0.09111971933811763,-0.03330533375815701,0.009867234258819179,0.06275097513006466,-0.06970369467677927,-0.24733244026108343,-0.22591521986652933,0.0346537362597257,0.18884479244627129,0.34756623594657889,-0.23130261852375906,-0.09732225685340763,0.021442810561690945,-0.18198247659311934,-0.00233939232414107,0.016451249868756649,0.0394489938278404,0.06414192844872191,-0.3427258225402695,-0.12287801448257418,-0.4375363715374006,-0.12866273179760649,-0.016250002565992247,-0.017801539196056018,-0.03947636290084504,-0.14224193630006297,-0.39880657424666979,-0.14179778055235929,0.04412848165414549,-0.22909815417680133,-0.62943387910393,-0.5987858773718882,-0.247795191310543,0.06852158971508578,-0.06432535163172244,-0.5073552545739862,-0.012184859015996194,0.09790753062133681,-0.03890162462029717,-0.19085552017537953,0.014667692639315453,0.4036990244848569,0.38664803745865547,0.007122352060727371,0.12653820946527698,-0.0761165884527438,0.2865925008841531,0.008726154321133209,0.05191626110170236,0.04450472056169151,0.2670682439362174,-0.10859642191489537,-0.11991191578780512,-0.2016489519422919,-0.13503806068159325,0.17202884466657684,0.06975661766615987,0.18880724250318599,-0.049334053435479269,-0.2418534788955405,0.028095811252923935,0.05542399200669061,-0.005586101621143779,-0.10794020762095889,-0.3695455417658963,0.058701820296909987,0.003701739410981141,0.13373795320173535,0.06775843607235349,0.09292122231533796,0.007146281891413539,0.06327636625692497,0.07190603647563626,-0.01197305337383542,0.2666553955470633,-0.16499216156609212,-0.35053068420942537,-0.1815413695230705,-0.08930881421771006,-0.2875451006999978,-0.08594580202500735,-0.17498828466418996,-0.05345355600423972,0.07677129769248346,-0.16130420049542727,-0.20867149875083977,-0.09435028882584781,0.05808608885187231,0.07643961514427789,0.4962530277673338,0.13113443991736854,-0.03913411665065661,-0.11829325098422461,0.052484587123181148,0.02007429671388774,0.10615741884926919,0.06805805892708357,0.0057934373979502,0.13313754376161006,0.07244584368951969,-0.320918848182767,-0.33310513236900649,-0.30594613088696506,0.3363878979988976,0.1325592026250167,-0.33899910520140416,-0.05313058898445136,0.14539332903296815,0.11778829939868385,0.2506076497030415,-0.5318704285130498,0.0523589082467401,0.3635480876726529,-0.27186055496946429,-0.19418815239242977,-0.07250713458257126,-0.04848833244807217,0.09708593038654871,0.011289456205375566,-0.08006241219332745,0.08817128883514386,0.041437714070385458,-0.04997124492246956,0.00019399778459266282,-0.0002541048173472568,-0.000815095026777724,-0.001763667785584704,-0.0006643010678186709,0.0005482555205572824,0.0002562750757852237,-0.00011712884593873579,-0.0011236602487284264,-0.00019199988053481673,0.0002713780444101278,-0.0007800705975828232,-0.0008182945295251395,-0.00033027189898286984,0.0005598643572519934,-0.001720998649398882,-0.0021094059222836229,-0.0007741281247947273,-0.00035115322893491155,-0.0010632914852536059,-0.0011025482980986212,-0.0014483485474508518,-0.0010481522079277917,-0.00033449492987023784,-0.0008546219089499743,-0.07212172518516788,0.054619120472887919,0.06276976777615101,-0.056508773649048767,0.005493919033548905,-0.4356789216986728,-0.1245054826555229,0.24660454949074726,0.2231413531936793,0.052801803130476828,0.0019056284082199099,-0.0669316448267997,0.0510654388732052,-0.05968734249165579,-0.06298935607117816,0.21880299572769575,0.1860405075352849,0.04655554698245927,-0.1998241069226562,-0.07457068850895736,-0.09594447064801855,-0.14479015658169848,-0.1870852072054333,-0.27961153454469508,-0.11479802014113327,0.012849233188681699,0.002612842996847577,-0.007839519424113331,-0.030267458043814489,-0.004216242229055557,0.016740919602855305,0.026143240225252046,-0.01220965454276608,-0.02302352200639889,0.017720305198601333,-0.006540899089872406,0.005770652009696598,-0.013564919175624113,-0.004262592762105239,0.01657040388845476,-0.024258181503322118,-0.04234046421028448,-0.02791476899712304,-0.007112195705596617,-0.017351747069064707,-0.0005967225488358399,-0.02307889017641089,-0.01959314492307951,-0.01780769806095569,-0.015357698888254203,-0.12723705059498303,-0.06916241815510624,-0.021231053493525565,0.050512176926040899,-0.05579772158158062,0.14366869698265986,-0.1594869048830479,0.06022578213205388,-0.02698641004507229,-0.14785984178415879,0.14386653226776123,0.375987269518798,0.010143345141228671,0.027906139364293066,0.16368050070672664,0.20155934501445603,0.10842887744515721,-0.1892712133295353,0.25023818496578778,0.21836301813191617,0.13878551098742146,-0.21116168076977533,-0.09320020806052892,-0.2282511020873021,-0.0572715121825605,-0.046505439786837517,0.31637538153846447,0.28051407371643707,-0.2126824737792715,-0.06966967018830357,0.07149864167166009,-0.0971423024942423,-0.32384748131136889,-0.30962092172174379,-0.09392577032789157,-0.10916613640384242,-0.2098272704655766,0.04517537827266627,0.17532180392483105,-0.11483218290424569,-0.2351487846654382,0.03567866171868894,0.11220229383942912,0.013000421212054983,-0.007542302543591161,-0.13516079766594783,-0.17320767425742965,0.08675583177212043,0.03243026826631284,-0.012166841143631285,-0.0006174408163131642,-0.1255042233814519,0.16166534502476349,-0.08888011948179832,-0.19941288576921674,-0.06540219564495469,0.005412136575656128,0.1100915704137245,0.5796608598141252,0.0730540750858072,0.01873835956082439,-0.046286228012805508,0.20980296990400588,-0.03298169578619883,-0.06877879798406463,-0.2114455318613099,-0.11997288821063153,-0.15103213812167069,-0.16490812222617935,-0.2423181323079874,-0.22162127712656599,-0.12273676024356829,-0.05686041849724385,-0.25306898742645786,-0.2054188568463066,-0.1856349229206279,-0.03694904733562803,-0.2274861601632718,-0.2855902888795124,-0.024800383775825904,-0.142904242674337,0.0070845492845359688,-0.010392549156921722,-0.3293499599576857,-0.17823346327274804,-0.11564877707139261,0.39421415013744939,-0.1000238437497179,0.028380784990513554,0.1403424634063715,-0.09898687261225708,-0.03436164284907414,0.07506717904430112,0.5104245806135463,0.09834832906170603,-0.04177674370561633,-0.23675539319710579,-0.010972966170119989,0.04616139075816533,0.017207661210767844,-0.0653008068156006,-0.11965554454527357,0.07064874327100784,0.06058628590034914,-0.3507956441698395,-0.18207726646850068,-0.2688033915614703,-0.3414984457797843,-0.20652343092628898,-0.3903997275077563,-0.3065976951869606,-0.2128370287892011,-0.11778242601675183,0.12284848877104657,-0.30615482490094789,-0.10608395049985357,-0.1425597780160502,-0.013029894497055921,-0.0768895059825523,0.20953589086476516,0.2888346258439438,0.19868336867959353,-0.13002523136197573,0.007051757455256165,0.16597680833217283,0.021943764893475438,-0.03969208212023117,-0.06986457897960648,0.06298144890236808,0.0935303490990813,-0.06950960677042069,0.0015346793953323636,0.16381600749777817,0.10694024048606606,0.09953123952455828,-0.167001170403879,-0.002275786365133983,-0.06732603695961688,0.1996828811634352,0.17092875806114875,0.06836074555569989,-0.11715552200458804,0.06388774010226967,-0.12573259012193339,0.03329151858023913,0.14383145920600563,-0.008233531268800332,-0.5547989636714678,-0.3670376094982891,-0.006514555167301294,0.0024660833176770307,-0.013045663772327984,-0.023468069401345327,0.07168831232894944,-0.04586361792248043,-0.017090138930930974,-0.04372209739358687,-0.03502382385973547,-0.24266541281610275,-0.38254289734398547,-0.04949963054375138,-0.041649954736166967,-0.032533690455713238,-0.03733770919976522,-0.3723610375691446,-0.050057079653888707,-0.12537949337892069,-0.004294239043605092,-0.10670812004926078,-0.24776321050197276,-0.07581981476966904,-0.18617413714823326,0.21262900332030688,0.3115041759074344,0.006451694250774541,0.013311428697821607,0.012651697597944519,-0.004192300280868442,0.01497999507637979,0.03263719133961974,0.0006548938646292675,-0.012343086272067457,0.016636395821991686,0.033582124006985677,-0.0010353612540022152,-0.007267539290062773,-0.018213813271631048,-0.0025765310612777729,0.0001610638794270137,-0.02542853039043802,0.014073382289459823,0.01258124579986735,0.010235885444838269,-0.010596691632350077,-0.02219355314754812,0.015581231248733552,0.002000666976377672,-0.003847528562024866,-0.013682768667670102,0.011796567766762606,-0.017052677634340115,-0.03297314710503345,-0.03507383401868969,0.18334402804180575,0.10517741223740287,-0.038156964377095498,-0.23330024153261234,-0.13498476542944383,-0.06383771246668313,-0.10779968319815156,-0.12283370939284942,-0.20350770743533426,-0.12043955301847784,-0.3448832418473433,-0.05441844300895066,0.17076193659578885,0.07598995229669918,-0.22612876515593134,-0.2348563309902394,-0.05827889057728292,0.13871753409669689,-0.01937867199107811,-0.23091133690340732,-0.20840612444040114,-0.008711063609803132,0.015025648127087264,-0.025284121325939786,-0.1361475687438465,-0.22370552262472333,-0.09823435472489919,-0.0007027682260169396,0.015826890039222244,-0.05706747774260798,-0.09553485275818664,0.20736114503146622,0.001154795490441123,-0.07178754815686506,-0.29753046492569548,-0.21872165755511326,-0.009625111301524116,-0.1258491132529767,-0.23317854240465336,-0.24898288793992069,-0.3460899737481572,-0.07821831111192167,-0.04315010179255989,-0.08325507265619094,-0.2504172668986299,-0.05978887678878487,-0.02774959377507937,-0.06385126430494923,-0.06712100138041966,0.033020711751970337,-0.049610435488896657,-0.15466389732202735,-0.12573319854668534,-0.13605383265119568,-0.26984415988077367,-0.4020823401328859,-0.3156906900673469,-0.10643709091553744,-0.411829382855224,-0.07305341114946847,-0.20540643139472926,-0.257265915795077,0.04172319234002336,-0.0573283490851449,0.10735344546429494,-0.23297751443027329,-0.08778703483898998,0.07443617858838797,0.29231654533750736,0.18319595035325315,0.039641257153616719,-0.014764621818399028,-0.08154028188306328,-0.13387536222879765,-0.012911253187727817,-0.16748932489915054,-0.0017322062121950414,-0.035018462306187058,-0.08042471425162179,-0.06869467325936069,-0.019774533788378253,0.011739797371951093,-0.15323265498993836,0.023937119391133897,-0.023258709840371543,0.0135202203374676,0.0512992462132033,-0.3658426538141354,-0.12057761623953042,-0.09636320966510187,0.04666499614276261,-0.004568424010922917,-0.04310255354260578,-0.09744166713289403,-0.16478700958717114,-0.009185310854638446,-0.021893720230467884,0.03946712728249828,-0.08319849230975438,0.0025952771913727915,-0.03889945621047157,0.04670565636775783,-0.14735339320114358,0.004646998618050146,-0.04106898856784576,0.23765217112355817,0.07523741787301344,-0.16133062341702196,-0.13892655738796776,-0.08983497290338406,0.06494266539495762,-0.10461927005355698,0.1705571296490247,-0.23152467280444723,-0.19193416414815879,0.017767783291572724,-0.15278814298063868,-0.0742301512135444,-0.16609909189900536,0.05578606824890221,-0.0384296309366215,0.04016492684167324,0.0013740555198513737,0.0008264592239789401,-0.00011269523492309423,0.00008864125405489968,0.0009546016892358434,0.00021158608220839554,0.0006325164687615367,0.0009282003615397067,0.0011467534231940015,0.0011503392404472538,0.00048214940617767837,0.0013071923416020217,0.0008280138648496328,0.0006405478547317181,-0.00037176819515096285,0.0021509701884161278,0.0017653935112845485,0.0006502090416738968,-0.000254989681190439,-0.0011885730926583477,0.0008864755555820227,0.00022015508849173484,-0.00013709913901033133,-0.00014845710598859906,0.001382655180017011,-0.05570917723874322,-0.09494983394389289,-0.10070697495936953,-0.030869249243319534,-0.07640280401914251,-0.1382822985137681,-0.07668871834251233,-0.06342380756497063,-0.10798548937322589,-0.06394128989779112,-0.14868352198156938,-0.2050242376714113,-0.006302913872675633,-0.03328256641598466,0.0027797679102873949,-0.2714873112924556,-0.020677269218079,-0.17417023760410686,-0.10160699572405513,-0.054139814602922557,0.03287352324510612,-0.2397209106691153,0.17098538058995056,0.0072073946716006459,-0.06703418086525837,0.007995286069830382,0.00949451669738313,0.000256776368219566,0.009377984675790983,0.024271673491060729,-0.0008974265453833035,-0.0089337263578396,0.013675455172685461,0.02392882611076635,-0.012588713156702828,-0.002441409998530408,-0.008114983573722279,-0.001084194501747288,0.005753964632396955,-0.023545323183432628,0.015060918686709398,0.0009137969355515321,0.008298977351983608,-0.006873524810372994,-0.019478350571983908,0.008660226789239129,-0.008855478520918677,-0.0012204027375404797,-0.00865537982327834,0.004045032952600837,0.00010353631267571986,-0.0000430659322427953,-0.00005002499210355868,-0.00013892779884064864,-0.000023997265636612047,-0.00028172446656075196,-0.0007653947931564936,-0.00005419110171439839,-0.00008541220927578416,-0.00005992166803432736,0.00014992953609144249,-0.00007262253438696543,-0.0001499681953576148,-0.000037487980601793117,-0.00006931272592833833,-0.00003821279082908318,-0.000185756015365883,-0.00008203046134429019,0.000020794505841258229,-0.00017967125614939147,-0.0000030783053293394605,-0.000029442075427949983,-0.00005655414721901798,-0.00004632737373755698,-0.0001473432061400121,-0.00024071801002623555,-0.0002021968082328878,0.0000725591776176028,0.00004654153905439573,0.00003795057042151232,-0.00003445965255507808,-0.00019174463376776056,-0.00014157226162398384,-0.00006517788082865439,-0.000017916432337915895,-0.00003052254779134087,0.000039990850420273879,-0.000029305604409139876,0.0003592915823290999,0.00010192001071362184,-0.0000797711661253723,-0.0000900226929983152,-0.0006463643555008576,-0.0003674511018432025,0.000001956949996714487,-0.000003683957560395351,-0.00006769004473943062,-0.00009102434408880683,0.0000028603166108196708,-0.00003473876065178436,-0.00004182143870554179,0.0003839919084634002,0.00027393237406626484,-0.00007256977197842741,-0.00033081612660889616,-0.00014034878059925694,-0.000019059844868175718,-0.00026736251339627096,-0.00010820649376673694,-0.00019468345075571744,-0.00017399291651901152,-0.00004908058745155279,0.00006637249450847697,-0.000016024296650446736,-0.00021994190297814945,-0.0001785022509983924,-0.000028706385084495724,-0.000023652621967260373,-0.00023143199015166952,-0.0002455356282226175,-0.0000922572769851402,-0.00008832542455879912,-0.000054241804161669479,-0.000024920320848642234,-0.00011593380787408736,-0.00004478763964529207,-0.0005443142295778696,-0.00001891957083662503,-0.000056274288030544449,-0.0000325978173405965,-0.0002213998255401794,-0.0003597970431005729,-0.000054281798021969029,-0.00009265279452937832,-0.00008687269472527896,-0.00011390167751953553,-0.0001429436577051962,-0.00005959023044315228,-0.00015693594895529547,0.00015372364585222663,-0.00008038756952102916,-0.000029292851408636858,-0.0001009167722911841,-0.00008906644705363858,-0.00017063392310855916,-0.00003247104869989922,0.00009198539470767289,-0.0001289672309842905,-0.00002315275546141393,0.00007536005764136913,0.00017162280270394443,