{"convolutional_layer0":{"weights":{"numSamples":6,"k":1,"nr":5,"nc":5,"host":[0.718162498856906,-0.0841498491662146,-0.03986639314375515,-0.01876944707729993,0.050011281358886317,-0.006081976351542483,0.0004318533901967606,0.00034552819493267027,0.0002618775215611257,0.00020556168500856354,0.00044020807230707605,0.00041396086479425373,0.0003547923046243783,0.0002854800183827646,0.0002394735825356641,0.0003726221567317952,0.0003849269008703179,0.00035786839269137373,0.00031078431402159235,0.00028227572626873647,0.00030922997243069446,0.00034372366382886654,0.00033432200055018795,0.00030165549838922557,0.00029057355655936595,-0.000045178845563344457,-0.000040528585104322528,-0.000036039602641027156,-0.000033800884139011587,-0.00003618740613863082,-0.00004591119463606563,-0.00004138941437985127,-0.00003831522805029398,-0.0000380221791282464,-0.00004186315436713375,-0.000045122725609310418,-0.00004152165766467853,-0.00004055292153468667,-0.000042360147087375527,-0.00004787304194385785,-0.00004388353799356041,-0.000041656086419991048,-0.00004268725351287017,-0.00004643953411658753,-0.00005342509600097862,-0.00004199040676202693,-0.00004088671210804952,-0.00004339224441219125,-0.00004847096179313667,-0.000055987522176379279,-0.000027137111226626446,-0.000022315474958564188,-0.00001796359081024538,-0.000015615153614332707,-0.00001760874299257314,-0.000027286517058675834,-0.00002248315819684406,-0.000019186540596927304,-0.000018360665949600215,-0.000021543609903924905,-0.000026269091009522275,-0.000022089737971227055,-0.000020420162335594449,-0.000021267326891738165,-0.00002578341770331012,-0.00002513979472941924,-0.00002202211166073518,-0.0000219582907465178,-0.0000243645241755249,-0.000030055882097557948,-0.000023458631727452748,-0.000021247441996972513,-0.000022324959276265247,-0.00002582769984436656,-0.00003200940179143573,-0.00001540071067869648,-0.000010440297327605794,-0.00000612632685180233,-0.000003893721155323631,-0.000006014681275595849,-0.000014969947118008106,-0.0000100023357621654,-0.000006594520794000066,-0.000005736742872777408,-0.000009023672438466077,-0.000013566807695891754,-0.000009126518891210736,-0.00000713674780951676,-0.000007781291695848176,-0.000012301552512029328,-0.000012188314626923962,-0.000008681893476966838,-0.000008115761646570996,-0.00001016661860211193,-0.00001578019650082788,-0.00001032912084545847,-0.000007636655461503656,-0.00000808878250267225,-0.000011169456828122686,-0.000017305734264605927,0.00001129525355141363,0.000012073253742705897,0.000012715592937286402,0.000012639341484604349,0.000011014491934428657,0.000013483736456093588,0.000014159934877295967,0.000014547318302996216,0.000014037903593396512,0.000011819468803830986,0.000015532454758275959,0.000016121262020071006,0.000016346444028120794,0.000015496764047141097,0.000012760852972133407,0.00001741135008892586,0.000017925251086080807,0.0000179818936579806,0.000016838688600134644,0.00001355815419473067,0.00001926275011592252,0.000019764198974656515,0.00001972998780742493,0.000018283447217952834,0.000014521084557340533,-0.000010140340395083958,-0.000007783232775815806,-0.000005272001499156988,-0.0000036319354585822027,-0.00000434448168180873,-0.000009633839747706543,-0.000007014982134874091,-0.000004751571610087135,-0.000003801084191369461,-0.00000543826306722165,-0.000008659980155283688,-0.000006161489254851373,-0.000004506808991233275,-0.000004413227619073949,-0.000006926978063009508,-0.000007778252927833885,-0.000005705821562846572,-0.000004777097161613226,-0.00000540174129736094,-0.000008523596873131213,-0.000006641261685669108,-0.000005055598077261204,-0.000004680130635287153,-0.000005783968177592128,-0.000009154246800700224]},"biases":{"numSamples":1,"k":1,"nr":1,"nc":6,"host":[-0.7181410454642124,0.08452748866111834,0.040167456431024688,0.019004316162677717,-0.049815647587841998,0.006566787338132827]}},"convolutional_layer3":{"weights":{"numSamples":16,"k":6,"nr":5,"nc":5,"host":[-0.04104042243029967,-0.02664875749840281,-0.0012135571652555082,0.02995081166591733,-0.021349539526477655,-0.021811185301679967,-0.009929290489105175,-0.006525703446353754,0.01248581913851173,0.04282077369994896,-0.021291659434151134,0.035747154483219047,-0.018887767918983907,0.02819607217061886,0.0371049877325349,0.037131811625623827,0.0012501673435942696,0.00013178722248983156,0.0003426366132510447,0.0012222941216416665,0.0009069947794659018,0.00032754358007493044,-0.00027298996414395864,0.0005467325918961599,0.0008904768572555217,-0.00000838804291864868,-0.000013463417151713388,-0.000017907862967320176,-0.000016065959598258457,-0.000012332024243593891,-0.0000066121263193171448,-0.000010790101344031888,-0.000015216621989517364,-0.00001445088943912439,-0.00001239823188288178,-0.000005077534396732356,-0.000007287396872062043,-0.000010485046011039274,-0.00001092754206728745,-0.000010972211315712019,-0.000005554604983802857,-0.000006624276766264047,-0.000008262770237908858,-0.000008911558514153122,-0.000009845448855576766,-0.00000766449540424526,-0.000008076921821486574,-0.000008124766261421088,-0.000008165772812906145,-0.00000916103637461588,-0.000006254788099594783,-0.000010492614807557824,-0.000013093396956771839,-0.00001060958028026478,-0.000007496725155181339,-0.000003718581075222011,-0.0000075808941965398359,-0.000010443377393447419,-0.000008857642916894373,-0.000007103061056729426,-0.000002490065306956278,-0.00000509264658238418,-0.000007142565737278755,-0.000006531052119569287,-0.000006246264180510097,-0.000004017145032047597,-0.0000052526313831319109,-0.000005865531288432454,-0.000005636352774092864,-0.000006042476057714017,-0.00000665033417286516,-0.0000067425699323081478,-0.0000060296057140426468,-0.000005696205934674543,-0.000006251088732873283,-0.000005056007069244831,-0.000008811367092611311,-0.000010233132079305045,-0.000007138431337172774,-0.000004367808405074345,-0.0000018961278903364609,-0.000005606289561963003,-0.000007443534477909013,-0.000005122371858664433,-0.000003544753633804229,-7.358894253550009e-7,-0.0000036266006622203187,-0.000004896809367275939,-0.0000034374117066431639,-0.0000030211188564951947,-0.000003015246394469715,-0.0000043673293764333419,-0.000004222394700554555,-0.0000032963944115503955,-0.0000035162163788351257,-0.000006317514807277362,-0.00000613675610409872,-0.0000047375694232382529,-0.000004034093472423694,-0.000004442602867243306,0.0000017148066296878822,0.000001401177356379751,0.0000034938304263503795,0.0000069570138641717329,0.000007454732371636454,0.000004558774253657605,0.0000036708021592133178,0.00000546307604667377,0.000009020567515083567,0.00000928164085684094,0.000005802176988419619,0.00000460066256994279,0.000006217359656590296,0.00000937421605450614,0.000009359540252324839,0.0000036387252108855877,0.000003317939747306022,0.000005514279755104762,0.000007975374431368223,0.000007647906579145439,-1.2335162810219364e-7,9.990170222150878e-7,0.000003935053410831646,0.0000057749461141787749,0.000005434894611727175,5.342003339677282e-8,-0.0000015418633410713549,-0.0000022668723357777805,-8.507121713501036e-7,-2.903952588025311e-7,0.0000016309669384166114,-1.2492169747857457e-7,-0.0000010061004235640159,1.4809109610516778e-7,1.1356963659890179e-7,0.0000028627239798339646,0.0000014104421064035303,6.921224757082724e-7,0.0000011124562459176037,2.5976336762688538e-7,0.0000019745920777750824,0.0000011612196600498864,9.219100985869958e-7,7.881854174804277e-7,-3.7722281885196587e-7,-3.667862667816477e-7,-3.6030557680659267e-7,1.4150826803846006e-8,-2.0532989808474036e-7,-0.0000012694444608183438,-0.00013711751338342463,-0.00006363026308537139,-0.000007822949121435816,-0.000078168083216309,-0.00014639382446762715,-0.0001624417138135943,-0.00006429953052617172,-0.00003297558831021005,-0.0001240367001499234,-0.00017966407208606136,-0.00025453050588833593,-0.00015705967205280992,-0.0001528118748071234,-0.00025182356385861304,-0.0002804188643714128,-0.0003116451237104292,-0.00020236001771613445,-0.0001892092194284455,-0.00027162663048593865,-0.00027746807563784566,-0.0003364735835445999,-0.00023538867498347016,-0.00022112575684521356,-0.00028373814299380225,-0.00027587993343080854,0.00003305345249245805,0.000023307498829505476,0.000017238438428162828,0.000021624656653838099,0.00002940163149708208,0.000030351441338795817,0.000021054442277588098,0.000016780401429836627,0.000023153681414599284,0.00003149606698132173,0.000024466115629225626,0.000015270733879907567,0.000012386349278371833,0.000020282733054688163,0.000029606708363850635,0.00001971470611430989,0.000010452339775450632,0.000007967219357118518,0.00001637163656270513,0.000026378788886526249,0.000018768476904488104,0.000009813630036214856,0.000006752305133728581,0.000014485472124284,0.000024642517181028879,0.00001774360074022674,0.000009345523324214995,0.0000035838716186672155,0.0000067533225692918899,0.000013581582141857144,0.000015226320473665071,0.000007130749885836558,0.000002806119129598783,0.000007832163824432402,0.000015362405191916468,0.00000993799044125003,0.0000019407658615627437,-0.0000011791453968019668,0.000005295286082405241,0.000013780433999559273,0.000005926632012054047,-0.00000204710325517491,-0.00000478844349728128,0.000002138014973361283,0.000011095382028533623,0.00000568154802461358,-0.0000020137050600041926,-0.00000525230967204195,0.0000010208724050492279,0.000009850113592375102,0.000010830494947357958,0.000003151683066958893,-0.0000025066282109569724,6.879670078058156e-8,0.000006503919195104658,0.000008257696890059793,8.316986695605123e-7,-0.000003490845177627643,9.534799991038259e-7,0.0000082174960268038,0.000003080411406902915,-0.000004290874332047756,-0.0000074415803113667388,-0.000001512550512714239,0.000006758801893515792,-6.324423933534755e-7,-0.000007991027927915289,-0.000010779540289673842,-0.0000043920502821013738,0.000004305911878564758,-6.013810344190968e-7,-0.000007722085727630822,-0.000010998291530663455,-0.000005237576838095839,0.0000032543633167755025,-0.000013667926790626313,-0.000016416115065853545,-0.00001903768057827103,-0.000017839852644661358,-0.000013897114890493384,-0.000014964658010175473,-0.000017654652316091773,-0.000019761421936152203,-0.000017484226101582747,-0.000012767971607535953,-0.00001735620857770013,-0.000020248508902591238,-0.000021838344192271087,-0.000018728571171772357,-0.000013477792605800232,-0.000018853324176563128,-0.000021967403447397126,-0.000023376103281487704,-0.000020050713280398613,-0.000014824695984022736,-0.000018947280002180287,-0.00002201608061790687,-0.000023489646440003387,-0.000020404771161427055,-0.00001545545623685173,0.000005264086004260355,0.000001779160886510527,-3.226305965066442e-7,0.0000024794839780180028,0.000007305934986155441,0.000004158501198871524,8.306727960250874e-7,-5.088176734213288e-7,0.0000032784651649519147,0.000008408653157535043,0.0000017883998747693703,-0.0000014965393261048353,-0.0000021848582221111977,0.0000022107472375070146,0.000007540169741425235,-2.730058029471471e-7,-0.0000035300737831743015,-0.0000039681731084918358,4.682277953891199e-7,0.000005643463144398148,-0.0000010440273201559849,-0.000004145206527309358,-0.00000464528032195463,-5.670409535734504e-7,0.000004260505831249836,0.0003486758560116061,0.0002712814310201642,0.0001746405575722261,0.00021183630114774123,0.00026603603530801507,0.000395065392137977,0.0003004647019834341,0.000235752707362315,0.0003206338441262826,0.0003668300374886897,0.0004860295561093407,0.0004030464268137095,0.0003773941708725587,0.0004982804463463865,0.0005196582713503222,0.0004859483018069322,0.00039922007941035003,0.0003836865985508288,0.000526576997966725,0.0005318133958822836,0.0004532610499058423,0.00037972727702916264,0.0003678828479425795,0.0004950345247984358,0.0004911290593959246,-0.00005992509627891689,-0.00006156830898730204,-0.00006826493718380914,-0.00007382702417850392,-0.0000728699400884171,-0.00006385681416700631,-0.00006697095728844778,-0.0000724597231905964,-0.00007632477432220554,-0.00007448109261352086,-0.00006747212648931011,-0.00006903720573912152,-0.00007173973094407398,-0.00007561434692300047,-0.00007527358283441659,-0.00006803913861462897,-0.00006694966983160773,-0.0000673313328261677,-0.00007265939156385476,-0.00007586558929924455,-0.00006676276409495867,-0.0000649563701685144,-0.00006488114811757798,-0.0000719261891849057,-0.00007840338014254455,-0.00003200573247476243,-0.00003495794691741676,-0.000041926471585755819,-0.000046464769998722109,-0.00004430208720546529,-0.00003671159668236971,-0.00004125901143645693,-0.00004678387692152714,-0.000049256752203025907,-0.00004597869369957348,-0.00004100874300123208,-0.000044364957917952486,-0.00004695218125564646,-0.000048901224186134068,-0.00004674542701898609,-0.00004206205119644473,-0.000043051397060574389,-0.00004324112416739723,-0.000046134888034349728,-0.00004702226036112187,-0.000040911167801394129,-0.00004097248511833126,-0.000040486279725266287,-0.00004481346903034932,-0.000048649642032984378,-0.000018815701206681905,-0.000022522839109090229,-0.00002978409515728545,-0.000033985413983087858,-0.00003110641213130442,-0.00002405451852749156,-0.000029493082160161546,-0.000035194682058957089,-0.0000370298036662569,-0.00003281368324279223,-0.000028728643716681275,-0.00003316286086734303,-0.00003578706036131072,-0.00003676704156819596,-0.00003347374311877886,-0.000030016048298159739,-0.00003218792818678793,-0.00003226963076593962,-0.000033913631109365378,-0.00003346971524530881,-0.000029057453138082657,-0.000030158037173997895,-0.000029375238705507167,-0.00003227083854432373,-0.00003462842911552261,0.000022907259153098609,0.00001902269070445276,0.000013756745222888929,0.000011365104382689506,0.000014330465733838665,0.00001838899512050887,0.000013255796143784875,0.000008978690855722456,0.000008606778123730789,0.00001314194715702803,0.000015046085898094127,0.000010199208846753654,0.000007811980821055248,0.000008631973969949437,0.00001308572132336214,0.000014178265569755627,0.00001046202916375404,0.000009767063028201782,0.000010645071048057607,0.000013647214180549083,0.00001416374156719859,0.000011213668040392011,0.000011377401099747401,0.000011920247443473004,0.000013672230987908846,-0.00001220452929858999,-0.000014370545598598889,-0.000018994512430447358,-0.00002196377007257266,-0.000020559769785036995,-0.000015585177346263209,-0.000018576513291957475,-0.000022521791559136655,-0.00002440174497901714,-0.000022199195607162385,-0.000018368615772221806,-0.00002061924302369842,-0.000022933902918943206,-0.000024386891195500644,-0.000022743975363536997,-0.000018964163814107595,-0.000019915357179306564,-0.000020855576818741165,-0.000022733616414261534,-0.000022773711578665235,-0.000018452352677904638,-0.00001889641565752999,-0.000019310054456379606,-0.000021880312334147839,-0.00002346849876712637,0.000054321332660517459,0.000001551066721241196,-0.000052657292388168138,-0.000005950256910540735,0.00004477140973216833,0.00007780187316584988,-0.000007687932354588384,-0.000051060000745760867,0.000014084869458800619,0.00006225577539329851,0.0001697968739359692,0.00007477064912798466,0.000044387377848565278,0.0001146077513670218,0.00014717570649074247,0.0002519832286097771,0.00014100538063797034,0.00010331769783425644,0.00016573742115315177,0.00017271309105367126,0.00031570623103142605,0.0002204083664065428,0.00018203117333975738,0.00022337111693985847,0.00020729248456828514,-0.00001795063259654448,-0.00002449112428301163,-0.000026348634637914639,-0.00002176096463508453,-0.00001610062676285453,-0.000017694974354244526,-0.00002447407615352353,-0.000026086834034184596,-0.00002075159577128648,-0.00001481913405030003,-0.00001887185456374753,-0.000026177039648588433,-0.00002815477973844304,-0.000022458648917792719,-0.000016161659623763604,-0.000020337654306910918,-0.000028120139772049779,-0.00003077761473272963,-0.000025194952135246908,-0.000018515972952880093,-0.000020479752999730467,-0.000027926014381674563,-0.00003101646128220851,-0.000025865345186488485,-0.000018928342210777704,-0.000008049804330426118,-0.000013360917867111104,-0.000014637939638693565,-0.000010743236144972223,-0.0000059623590160131508,-0.000007150093443481349,-0.00001264962173354183,-0.000013854914992697957,-0.000009463174152287336,-0.000004595523693925098,-0.000007610949965123845,-0.000013553815082942739,-0.000015268384372623185,-0.000010739341386857155,-0.000005706809514056246,-0.00000856989285673301,-0.000014932471575696323,-0.00001740257193300755,-0.000013125300289060493,-0.000007868552531699837,-0.000008382226911238596,-0.000014513464289513286,-0.000017458986715196395,-0.000013628087009308395,-0.00000822720793627341,-0.000003509857891033179,-0.000008294932287232503,-0.000009231086959588568,-0.000005445502770301739,-9.093921864843562e-7,-0.000002255135171351417,-0.00000720050069681822,-0.000008132580725690868,-0.000003984248243402344,5.190112866819134e-7,-0.0000023686962143019436,-0.000007758374955097058,-0.000009280876370357607,-0.000005130701294798482,-5.867554555472612e-7,-0.0000030817780260405129,-0.000008887941141584069,-0.000011242217574209509,-0.000007456263780249269,-0.0000027783897462418567,-0.0000026785060074327465,-0.000008287662702336098,-0.000011161086368509347,-0.000007868904466076218,-0.0000031163927983081197,0.0000164577914222136,0.000014892243168990805,0.00001504137729329508,0.00001761895749487895,0.000020568431106662645,0.000018426378949734037,0.000016841709929908505,0.00001679873091303974,0.000019275715819683264,0.000021925356602668495,0.000019199822334703487,0.000017293791865006685,0.000016864504849274447,0.000019013644543526238,0.000021272841808153316,0.000018879624332460874,0.00001673445663606206,0.000015947426445571824,0.000017660147479848617,0.00001959362419535507,0.000018774866657865544,0.000016813165839643898,0.000015927729577855086,0.00001723118068493894,0.000018878006575119029,0.000001990379146013933,-4.6305796763269388e-7,-4.798221455807116e-7,0.000002921241270671866,0.00000691209253774929,0.000002685518280577769,1.6481932456205783e-7,2.4301409444659336e-7,0.000003860837673671301,0.00000773915442370608,0.0000027166306559241359,-5.132734209267098e-8,-1.5828802383401538e-7,0.0000033321923135818216,0.000006910224264396323,0.0000021452450813135546,-7.406765233468454e-7,-0.0000010831993864479117,0.000002067445494195249,0.00000534119591032194,0.000002024789335970893,-5.043372485413679e-7,-8.472714208454356e-7,0.0000019439965988559296,0.000004914101244010569,-0.00010765079670946332,-0.000050584008760169278,-0.000008895546935461177,-0.00006816375499584813,-0.00012134833612664958,-0.00012502533337650017,-0.000048281935928403568,-0.00002675521675272153,-0.0001020875320959635,-0.00014472865861229052,-0.00019216791811450972,-0.00011509824973295938,-0.00011514159567863302,-0.0001975662159520096,-0.00022018599918803545,-0.00023381311586304304,-0.00014597158240296968,-0.00013765445163658487,-0.00020659086411241423,-0.00021286657421207828,-0.00025289976112402503,-0.00016861737242155082,-0.00015684660560829437,-0.00021001054335053173,-0.00020777659060951592,0.0000244734584082705,0.000015142709927145599,0.000010853471563883993,0.000016170596960871547,0.00002282569151124779,0.000023054080142279068,0.000014137559740927906,0.000011238729510891498,0.00001812894503721616,0.000025105138601396045,0.000018956063917774276,0.000010064183851701528,0.000007776113630094132,0.000015610345715868804,0.000023424107140766703,0.000015198036573757304,0.000006142983145291056,0.00000355234111341941,0.000011523323777231305,0.000020249487607476355,0.000014013403279910158,0.000005396276219444527,0.0000020892934808409494,0.000009460784932467027,0.000018785153699469566,0.00001317524836416219,0.000005287129054774752,0.0000013379479662873455,0.000005385020626505803,0.000011030876955970914,0.00001206766374022593,0.0000044967478719416,0.0000015883083706187074,0.000007009469075336437,0.0000130238232411855,0.000008612135637257565,0.0000011040795715280923,-0.0000013669169385099457,0.000004872796089626378,0.000011610303189160802,0.000005571272393811288,-0.000001994729638278661,-0.0000047712295749398538,0.0000015242597959702264,0.000008918804798059618,0.000005063392564667111,-0.000002118916249963239,-0.000005544570995597999,1.4257570496926347e-7,0.000007834271480960576,0.000008061883992772093,8.411952640005059e-7,-0.0000029886306032040587,5.513076580124706e-7,0.000005854369503197496,0.0000069878675325286438,6.114480225045885e-8,-0.0000028359862765266397,0.0000020261620044313525,0.000007752366891360847,0.0000036676650437604934,-0.0000032123116104379286,-0.0000057115735274973509,-4.722099439416437e-8,0.0000063932805537901469,9.017524425566796e-7,-0.000006020824255467163,-0.000008837303612745948,-0.000003147622024410401,0.000003866473609009418,7.12269278802962e-7,-0.000005857792738034555,-0.0000093158274175749,-0.000004247199746010899,0.000002946368085099553,-0.000009047630375434047,-0.000011885836096122555,-0.000013765341670673543,-0.000011689036824055703,-0.000007799322090371631,-0.000009237721902003933,-0.00001191249320983022,-0.000013507381288575455,-0.000010818912065009159,-0.000006600211344327135,-0.000010701415289353823,-0.00001348648160033039,-0.000014858854061882296,-0.000011796911903463786,-0.000007370115364176554,-0.000011973397840851336,-0.000014872015239955517,-0.000016229568341500718,-0.000013213811573770509,-0.000008872981393164642,-0.000012100174828813352,-0.000014801927709283004,-0.000016222024052165288,-0.000013558470897468812,-0.000009496418333637912,0.000004358851488884779,7.249397197702463e-7,-6.383544623011913e-7,0.000002980031645962576,0.00000775659181433004,0.000003851000936074905,4.2683817747233638e-7,-2.8084468600850489e-7,0.000004073620338159128,0.000008899633630712602,0.000002204151619554388,-0.000001163794320438132,-0.0000014857512352659977,0.000003147326448315945,0.000007948255010663124,4.887074864906192e-7,-0.0000028232717780619035,-0.0000031161540161740688,0.0000013450567135180772,0.000006005856968783753,-2.527165770756022e-7,-0.000003251273337303434,-0.000003634882354788172,4.2559131778135509e-7,0.000004851853324637455,-0.00037846405919074845,-0.00026747797739511896,-0.00014381185882519204,-0.0002170840956777155,-0.0003044964964651336,-0.00043931911036133154,-0.00029053326495285755,-0.00020472879663282817,-0.0003330694921085667,-0.0004109120283590994,-0.0005903199512377614,-0.00044772328801205775,-0.000407660228703172,-0.0005739856701529526,-0.0006173620598831665,-0.0006442511634547406,-0.0004852397744600762,-0.00044570057278101586,-0.0006257845253943631,-0.0006377491922282349,-0.0006515209438630379,-0.00051208808001712,-0.00047262320556557864,-0.00062311248072753,-0.0006133206369790221,0.00006526720093407303,0.00006709173035568646,0.00007349810033972564,0.00007766160279481397,0.00007573241186992101,0.00006980168279265899,0.00007296804620227085,0.00007784162977148407,0.00008003009541992286,0.000077173138964694,0.00007398860516621205,0.00007596093235809302,0.00007816573883713886,0.00008031983654791536,0.00007883199984051437,0.00007493853898359721,0.0000747445870150498,0.00007490230287484922,0.00007859504358658526,0.00008046188279051965,0.00007390534160183702,0.00007307020708035534,0.00007290285000718134,0.00007835547101319645,0.00008327998341940562,0.00003238348366771381,0.00003520451930958757,0.00004162673816943587,0.00004494549844858552,0.00004212510938081186,0.00003731278709772488,0.00004157304794565365,0.00004633093615860365,0.00004741431313992843,0.000043489657305007108,0.000041834606104329658,0.000045212549151663998,0.000047226388947541798,0.000047810572212104767,0.000044910614198258298,0.000043110332093111537,0.00004457899958220328,0.000044497120664448689,0.000046149182512076949,0.00004613790472658908,0.000042160364588663729,0.00004282354134424455,0.00004222941244253174,0.00004537883909701646,0.00004812780491952238,0.000016807740048190888,0.000020193689545664009,0.00002675657591285159,0.00002980532212980345,0.00002642100321927172,0.000022073905809335299,0.000027004303171892629,0.000031819532298448318,0.00003238409894689734,0.000027705744324651574,0.000026816454343356774,0.00003104039328981962,0.00003301180949259783,0.00003278058466561374,0.0000289450657343293,0.000028249501246552773,0.00003068075512430097,0.000030447738759003315,0.000031026150945124008,0.000029900137873689624,0.000027451671351185459,0.00002897700074729513,0.000028084029233809033,0.000030000193237788457,0.000031501146257968639,-0.00003200713162948644,-0.00002850681341942583,-0.000023883662032567994,-0.000022152244482533629,-0.00002517805217892223,-0.000027827347819507118,-0.000023243836112803618,-0.00001969415478651,-0.000019952166043842964,-0.000024385472141557888,-0.000024615664621410944,-0.000020178027437205198,-0.000018364788708877004,-0.00001969463351583502,-0.000024018355536430897,-0.000023710425191590669,-0.00002013680559707847,-0.000019793643406660557,-0.000021048100109953598,-0.000023969694014221687,-0.000023693150910364906,-0.000020768708570588268,-0.00002111226430770336,-0.00002190416579787143,-0.000023624635188143667,0.000009376675610029368,0.000011416098441487484,0.000015762723495459886,0.00001808831558017982,0.000016217143939146547,0.000012713529770436736,0.00001549865428854301,0.000019017938006398488,0.000020130811303657227,0.000017463863815194379,0.000015553847067959174,0.000017736122495774397,0.000019700125950888075,0.00002042434015382656,0.000018265813750972293,0.00001627808726070295,0.000017384336046146689,0.000018116451337934944,0.000019356078315667445,0.000018813715282385404,0.000015897716853858837,0.000016560016993783884,0.000016856762822309988,0.00001883654061892452,0.000019765860695324937,0.00011999455129306354,0.00010380823846709737,0.0000941932199565972,0.00009962993468377793,0.00010890210239863797,0.0001289677323677627,0.00012340280015916546,0.00012378788568623235,0.00013379604213963476,0.0001380425480622413,0.00013371861783069113,0.0001416050628877658,0.00015288188626549735,0.00016952371074751158,0.000164948176346301,0.00010304097020508086,0.00011552547612640602,0.00012802403627760139,0.00014718451493755803,0.0001461361289037312,0.00005698309816195857,0.00006570181701259809,0.00007982148634472784,0.00010136664258752878,0.0001070231990695914,-0.000016375540718331725,-0.000006121747574640593,-0.0000025533768067200454,-0.000009251892145420375,-0.000017581302029179937,-0.00001579245228502726,-0.000005601025713540378,-0.0000030722800959886495,-0.000011129763337323198,-0.000019636552055410843,-0.00001262770956895784,-0.0000020002046337666587,3.6102472295383489e-7,-0.000008514186512709108,-0.000017618508635019134,-0.000009603585422652778,0.0000015012784221514606,0.000004443546598022934,-0.0000044648240937514339,-0.0000142733894795956,-0.0000090958787252919,0.0000014282177766299332,0.000005008426137456686,-0.000003203949730953885,-0.000013417462498921742,-0.000009093615361695366,-7.221013661072528e-7,0.0000021534067386561387,-0.0000032705244334453276,-0.000010196121550002918,-0.000009194569320612606,-8.642171095716713e-7,0.0000012940852821819584,-0.000005201459061150088,-0.000012196212804139124,-0.000006961975775351753,0.0000017166114017522462,0.000003924881006833248,-0.000003148112814441689,-0.000010542915785320354,-0.000004713260056885222,0.000004344755915018236,0.000007214581111671588,2.6101248262016709e-7,-0.0000076128984530517818,-0.000004759633479628259,0.000003850183792418764,0.000007368878321781889,0.0000011109095736093927,-0.000006973963589643967,-0.000005619113349041781,0.0000018679478586691124,0.000004356363883672487,-6.924934499879162e-7,-0.0000071346373875601979,-0.0000060560028851829488,0.0000013880973357272139,0.000003276518198233887,-0.000002717553070608327,-0.0000091653263081288,-0.000004216759723569253,0.0000035875325037803405,0.000005621677235641777,-8.316044868564611e-7,-0.000007579657123157831,-0.0000023157298858084385,0.000005862227937517551,0.000008636613629655953,0.0000024125447887450296,-0.000004712108141713953,-0.000002662000564759308,0.000005124672302902235,0.000008588644941091687,0.0000030987941082036964,-0.00000414781339759841,7.173766235815527e-7,0.000002993557922554182,0.0000034405623464326029,1.663777999834952e-7,-0.000003874045116090165,-9.489855853928945e-7,0.0000012527993344457876,0.000001644611555825015,-0.000001876568675049682,-0.000005747579551536031,-9.211045962596656e-7,0.0000016211615663747598,0.0000021572981536508578,-0.0000013266026476192996,-0.000004969006506947155,-1.0338887552014687e-8,0.0000028193857292880785,0.0000036102535308648917,4.833417814108899e-7,-0.00000288864410388276,2.654169069610817e-7,0.000002852092666044855,0.000003773872770030877,0.000001197848882462313,-0.0000018480112240301243,-0.0000061891540834780119,-0.0000023462389679206899,-0.0000016565124243941612,-0.000006290998171010615,-0.00001196339302307619,-0.00000655527770875335,-0.000002770404011352076,-0.000002553333252473058,-0.00000773345292147149,-0.000013254648551693235,-0.000005730528356731133,-0.0000017503874652138163,-0.0000016609795695442227,-0.000006924002963937826,-0.000012153995944698603,-0.000004389461595848405,-3.498210955729903e-7,-1.726205703096125e-7,-0.000005118269680414844,-0.000010008515661732122,-0.0000039506913943212809,-4.4493088939546599e-7,-2.707536280141586e-7,-0.000004677547575501916,-0.000009143094834309069,-0.00033506309292326465,-0.00025336990764461315,-0.00015641596954922007,-0.00020329896130842246,-0.00026306750294301186,-0.00038343857488258386,-0.00027923504026253096,-0.0002134217270331206,-0.00030679634289864673,-0.00035906386336222775,-0.00048704356125254595,-0.00039164521581108714,-0.0003635891750208531,-0.0004919521571075811,-0.0005194057559817207,-0.000503391649319712,-0.0003995482915377265,-0.00037714778008664197,-0.0005243697935674277,-0.0005327750297990402,-0.0004855262855570644,-0.0003954052074808081,-0.00037433862370508535,-0.0005021970910331002,-0.0004986868438093839,0.000055515249638408607,0.000057079521472491107,0.00006321565878635744,0.00006755941346415458,0.00006597266149112456,0.00005982441972297306,0.00006268958926041653,0.00006728640293075985,0.00006974403683474659,0.00006735046838877832,0.00006371143984717989,0.000065292656038999,0.0000671732001773746,0.00006966870257724681,0.00006878085468855002,0.00006449984526329045,0.00006384038947430239,0.00006363747377164029,0.00006768882235506942,0.0000702271254436122,0.00006347296800827859,0.00006219369726216602,0.00006167329675977469,0.00006746227393976063,0.00007305064529067009,0.000028376430949815454,0.000031035242502004798,0.00003727694128913869,0.000040745283941241978,0.00003820795632322897,0.000033242905067476287,0.00003731766947321425,0.00004186416797189532,0.00004314075700300651,0.000039580155405966246,0.00003761585087623436,0.000040730546049898366,0.00004246508693674528,0.00004327656415151821,0.000040833180118220336,0.00003878316846657033,0.000039912051721888318,0.000039502553705364387,0.00004137902308695157,0.00004186644505698443,0.000037823362357122209,0.00003814609185039256,0.00003722089943695232,0.00004057053646220095,0.00004380213656524702,0.000015517950800882117,0.0000187983011821512,0.000025234340989665016,0.00002842510602665309,0.000025298720050222425,0.00002082122584822514,0.000025635131834016386,0.00003028408226307891,0.000031008545151481,0.00002664248076989173,0.000025497706593939319,0.00002952779119903172,0.00003125046260383104,0.00003119140127262462,0.00002773659967242277,0.000026846444675938444,0.000028996639181056759,0.00002845042127232433,0.000029186587939106274,0.000028472310700291486,0.000026026095692956999,0.000027253280376802266,0.00002603140634060659,0.000028079081576616357,0.000029973641632865217,-0.000024389093501164928,-0.00002085694813260548,-0.000016227023907534688,-0.000014437203825359009,-0.000017364243026927829,-0.000020000760348604455,-0.000015374615649751316,-0.00001185685444548361,-0.000012088418318341018,-0.000016444585933324715,-0.000016715708577935794,-0.000012289727728568557,-0.000010577750027445462,-0.000011904008250918144,-0.00001614248259303017,-0.000015855672796179795,-0.000012368520875972369,-0.000012186841074057865,-0.000013453476015615006,-0.00001627294291016598,-0.000015896855628353816,-0.000013090369126447513,-0.000013616865999640847,-0.000014435204572171367,-0.000016062467888431223,0.00000965513907983336,0.000011633907638721831,0.0000159520290458188,0.00001842455415762971,0.00001672464993005494,0.000013016790869207619,0.00001573089647872196,0.000019213367924385076,0.000020498802243245725,0.000018029314065125019,0.00001581570955261857,0.000017880934097089225,0.00001976028559677503,0.000020648828968716205,0.00001871983204961308,0.00001648850364425657,0.000017433115272635884,0.00001803797960726623,0.00001941026796033554,0.000019109643951854789,0.000016089776940048185,0.00001659399257270338,0.000016751872026840915,0.00001883517537083736,0.00001999497232018718,0.00017303652536420063,0.00011874020952561708,0.00007053345885430111,0.00011336364598442416,0.00015853366363450776,0.00019953559258291842,0.000132569965082371,0.00010415349136602479,0.00016588283429368436,0.00020309087455970393,0.00026775559056015406,0.00020816786810145643,0.00020200547550240796,0.00027633978416370506,0.00029316039906820626,0.0002886753210857382,0.00022149174465615093,0.00021027270816520674,0.00028250486248904106,0.000286170121570234,0.00028177736307179765,0.00021875827509985972,0.00020573560333530833,0.00026527973211138214,0.00026292020003653447,-0.00002800235362403928,-0.000021377132519939409,-0.000020497683886758718,-0.000026211011014951336,-0.000031202536376863037,-0.00002863510684530771,-0.00002226062121578182,-0.000021974721508951835,-0.00002844605308801332,-0.000033402073433073206,-0.0000277873736024452,-0.000021035426579513817,-0.000020355124226841269,-0.00002711590403031917,-0.00003240185517818859,-0.000026098078949856067,-0.000018744346042142566,-0.00001706535092473927,-0.000023696802171287226,-0.000029734866877071585,-0.00002505496989924504,-0.000018049257721353506,-0.000015751242050036488,-0.0000220725368168023,-0.000028913505957120188,-0.000013797407537355885,-0.000008599274423527629,-0.00000806659284649666,-0.00001259090763541089,-0.000016394550499597774,-0.000014855910071709649,-0.000009902178432223842,-0.000009690400959334407,-0.000014716190329380403,-0.00001840522897814341,-0.000014588781069837902,-0.000009367841956797158,-0.000008593586920614412,-0.000013699104996442446,-0.00001756526839225905,-0.00001345262917895681,-0.000007760148152574383,-0.000005971243695917208,-0.000010815336992165016,-0.000015233194175690228,-0.000012898867993816738,-0.000007467239667807051,-0.000005072150904152436,-0.000009577346350655516,-0.000014599530733801661,-0.000006957934698289023,-0.0000023558342427188265,-0.0000019950024548758269,-0.000006186653082998932,-0.000009613620547901265,-0.000008212915349234417,-0.000003864453034306324,-0.0000037177020408443575,-0.000008278604302978085,-0.000011533843098739182,-0.000008155388438704929,-0.0000035591036380319174,-0.0000027729849787767725,-0.00000729767072804046,-0.000010648911916945017,-0.000007251358894241613,-0.000002226982084965167,-3.8850246213822987e-7,-0.000004549122431783818,-0.000008354207206277139,-0.00000700715904444333,-0.0000022163882867784465,2.4838514807977225e-7,-0.0000035129650852734367,-0.00000781299214980787,0.000011688881013425499,0.000013364877807375878,0.000013376451881885306,0.000010565522707555013,0.000007715494163071652,0.000009959239536800254,0.0000114271754609319,0.00001154593617436722,0.000008823194589947512,0.000006287278820870959,0.000009505804096793727,0.000011135670981492132,0.0000115521811071005,0.000009108698180155735,0.000006903326899812757,0.000010105275241299595,0.000011896219492514955,0.000012613242373107286,0.000010554653072085002,0.0000085726202689763,0.000010318501944470108,0.000011867627805910933,0.000012678287659781662,0.00001104802409227314,0.000009286952034624793,-0.000004639270023928104,-0.000001875366144163517,-0.0000020452853490192226,-0.000006094160790310611,-0.000010176678508573115,-0.0000052876320051093819,-0.0000026995661022917027,-0.000003175120282280479,-0.000007490329245419822,-0.000011333957742672874,-0.000005236339577881084,-0.0000025246087514456937,-0.000002895314725272882,-0.000007087958722837187,-0.000010589355592816658,-0.000004439380751855876,-0.000001627894507690612,-0.0000017254459689263379,-0.0000055767085273210788,-0.000008885180038209172,-0.000003968296957182198,-0.0000015715585112476825,-0.0000016089803980587037,-0.000005095133637306352,-0.000008267218640940413,0.00011657063695718156,0.00003750518154820764,-0.000048938239214910637,0.000015121981686811395,0.00008722222271829663,0.00015760319617851156,0.00003168465465924879,-0.0000379656995539635,0.00005556477874141476,0.00012438652561562013,0.0002982351374590245,0.00016111137003777968,0.0001121620403462537,0.00021771207822209246,0.000263103076961993,0.0004131221558282164,0.00025330440524732716,0.0001945095902256983,0.0002955047038908686,0.0003051112267889382,0.0004992707987191991,0.00036192715699777953,0.00030060753474932614,0.0003718160850724384,0.0003505740054550716,-0.00003122670596342571,-0.000043465712170780499,-0.00005012640153748546,-0.000043606731053432219,-0.0000317546312275692,-0.00003369502804942313,-0.000046275608459706897,-0.000051713125670457778,-0.000043248021846139778,-0.00003060464219249981,-0.00003964653648404478,-0.00005251219889821264,-0.000056713383549860539,-0.00004660646325450975,-0.00003306577259071378,-0.00004423431116353693,-0.00005697833611236241,-0.00006046365869090837,-0.00004982287615776813,-0.00003603444406657008,-0.00004430495041481515,-0.00005615696495989397,-0.000059794920116728787,-0.000050086612555107546,-0.000036801095599976738,-0.000014388629026254038,-0.00002483356687771527,-0.00003055873341850471,-0.000025012739822803529,-0.00001434601818903279,-0.0000159946815055807,-0.000026784990423662884,-0.00003157382311518251,-0.000024360619244520639,-0.000013062194068989447,-0.00002076011523527858,-0.00003178399312704599,-0.000035571236168978069,-0.00002697154180515737,-0.000015008544019878768,-0.00002443352139322509,-0.00003530700279825684,-0.00003855336332900164,-0.000029598613718425209,-0.00001760660131479853,-0.000023960275545400694,-0.00003410073576117173,-0.000037571606366243206,-0.000029544133970707705,-0.000018219672834248366,-0.0000062022755823227678,-0.00001574994007407594,-0.00002095053655923985,-0.00001573175575980413,-0.000005494840178480503,-0.000007392150708124193,-0.000017275652431013553,-0.00002162268435105646,-0.000014830905623835762,-0.0000040418967934428859,-0.000011622813825154385,-0.00002178258055870795,-0.000025222880956904588,-0.000017143985833029399,-0.00000580459486571959,-0.000014856730236085803,-0.00002492018419316438,-0.000027951419925152588,-0.00001961856797737832,-0.000008338294185342066,-0.000014148146779640325,-0.000023565852381170553,-0.000026899937604125113,-0.00001950967539419695,-0.000008947603363917659,0.00002617432029966562,0.000023195298144406738,0.000021665783054992194,0.000024537468347467017,0.00002975397021174131,0.000026975710991677977,0.000023821280760223547,0.00002250999121970103,0.00002605248660151319,0.00003146243391334092,0.000026038435060814873,0.000022467080743346743,0.000021402599804012248,0.000025387205559008008,0.000030772971145626528,0.000024746483469291329,0.000020905270542025663,0.00001991857389049025,0.000023827830772520884,0.000028883428976557207,0.000024316742327903184,0.000020710495308955723,0.00001969727340353196,0.000023096042533115479,0.000027671529794578373,0.000001743949283904735,-0.000002592665289536463,-0.0000043993807065238969,-1.762187411546003e-7,0.000006437655950008026,0.0000012805992472142445,-0.0000031962965860587498,-0.000004465543515641854,6.145848296725797e-7,0.000007394528327404458,-6.245569630055952e-7,-0.000005268921088471762,-0.000006009269916397288,-4.458138297588696e-7,0.0000062568708925000489,-0.0000024789937712938798,-0.000006982642429277255,-0.000007364445779719783,-0.0000019049359375898626,0.000004314038831869499,-0.0000028599112577014887,-0.000006753656470698094,-0.000006962345345456923,-0.000002111923410100781,0.0000033563331666714819,-0.0003768981528764664,-0.0002652787354837424,-0.00014086080652180738,-0.0002144846574112628,-0.0003026114015422128,-0.00043773982917799604,-0.0002879106346907774,-0.00020155453338339857,-0.00033042985579584037,-0.0004088256610404817,-0.00058933877802172,-0.00044560693104495037,-0.000405396956214693,-0.0005721927871747072,-0.0006157182829531007,-0.0006441947902288403,-0.0004841867362182541,-0.0004446745056051649,-0.0006249127724081006,-0.000636664724911754,-0.0006523667991102485,-0.0005121399817069904,-0.00047277688867344224,-0.0006232457952685528,-0.0006129259614268718,0.00006581225308650337,0.00006766396025953472,0.00007417084725987329,0.0000784987082294645,0.0000765879340346326,0.00007032637624523625,0.00007355441097578842,0.00007859670310711122,0.00008098627722280073,0.00007812302934073176,0.00007446906043808856,0.00007650080209511745,0.0000789070961398285,0.00008126713963187877,0.00007975389531724517,0.00007534780225487825,0.00007519054545699201,0.00007554199382406371,0.00007941694210486138,0.00008125735403639597,0.00007421271777854217,0.00007341096281073452,0.00007341275516560097,0.00007902537030275216,0.00008395233393590878,0.00003287491887866884,0.00003573989591586229,0.00004228009244333663,0.000045748913104183457,0.00004292682345450583,0.000037787849169808626,0.000042121572396922288,0.000047055717566391159,0.00004832347414512216,0.000044376978427976998,0.000042278198908206807,0.000045723026371477998,0.00004793444185095962,0.00004870700955853746,0.000045773359652361759,0.00004349975559351999,0.000045011142223411477,0.00004511376590096222,0.00004693089136246026,0.00004688841953043012,0.000042470394064209528,0.000043172690053190467,0.00004273854829263973,0.00004603052223148167,0.00004877509796496525,0.000017282120340792144,0.000020718040690115416,0.00002740673983518714,0.000030601579142521398,0.000027208261445888809,0.000022528048858028117,0.000027537208221806424,0.0000325337731708636,0.00003327896462743414,0.000028575001868618813,0.00002723756938315973,0.000031531991008070598,0.0000337026339394312,0.000033657143066349907,0.00002978872590566909,0.000028622599596301665,0.000031099389610070989,0.00003105111579747458,0.000031792540712796179,0.00003063742306930092,0.00002776067352160627,0.000029327596333607413,0.000028593960926320943,0.00003064885764074391,0.00003214537453191945,-0.000031817775911935708,-0.0000283183542239445,-0.000023620536006059225,-0.000021779498051858687,-0.0000247981726820778,-0.000027666743984060953,-0.00002306323262453359,-0.000019405593673461275,-0.000019536099446099598,-0.000023976023063966854,-0.0000244889127765383,-0.00002002939213492664,-0.00001809316029410024,-0.00001929573208840166,-0.000023633726498943896,-0.000023605078554154639,-0.000020014332434992358,-0.000019548835830025378,-0.000020693070513473018,-0.00002363327851132002,-0.000023585173626945608,-0.000020636306010818788,-0.000020870247368420049,-0.0000215784408368563,-0.00002331403520825815,0.000009665573118213657,0.000011713669289966366,0.000016083600062369405,0.00001846447584303946,0.000016615804343879056,0.000012987692655724716,0.00001579362418971836,0.000019369519357938889,0.000020564439667625626,0.000017920241544626977,0.000015794363988620924,0.00001799957183063001,0.000020044692706271088,0.00002086470141779344,0.000018730802477641374,0.000016476605900664419,0.00001760034286226488,0.0000184210624377274,0.000019753093029300419,0.000019235907815054736,0.000016051173122809695,0.00001673395790427165,0.000017113068436367286,0.00001917401293000691,0.000020135982525709556,0.00017849717748952423,0.00008368594246761428,0.000007678088557263302,0.00009613417279403537,0.00018350020226700627,0.00021249860621633712,0.00008354349229904865,0.000037952871382191949,0.0001545525572696414,0.00022745823533045875,0.0003349180588021428,0.00020510824744369603,0.00019323606499099005,0.0003211362367866484,0.00036049477060180415,0.0004133252593737941,0.00026643730124939355,0.000243028769006175,0.00035201159677081874,0.00036094406648366724,0.0004513947454345088,0.0003165167448227356,0.00029124837113872953,0.00037351368363473396,0.0003624842412349762,-0.00004206919886857575,-0.00003201966429275833,-0.00002606828513847771,-0.00003100812866840031,-0.00003896089202843303,-0.000039280665483293078,-0.00002986623430286755,-0.000025805203139759207,-0.00003273212003669375,-0.00004118650396914891,-0.000033252797870986737,-0.00002399343973528822,-0.000021302407589320159,-0.000029768114974451768,-0.000039258826444342498,-0.000028487387715498634,-0.000019122302896251994,-0.00001671295367410862,-0.000025677237674962586,-0.0000359756427916439,-0.00002751932829424679,-0.000018466002461866157,-0.00001535377588125515,-0.000023592647861554356,-0.00003417487131173254,-0.00002207626253570314,-0.000013465846035915583,-0.000007819169883985973,-0.00001142118505609069,-0.000018344423027823695,-0.000019433866792078095,-0.000011292750506844354,-0.00000716098420144517,-0.000012627512705130346,-0.000020207410979707534,-0.000014003121266814492,-0.000006031643880634512,-0.000003086526337359673,-0.000010022371805531877,-0.000018603054220317393,-0.000009997168765880414,-0.000002035598465599928,6.342006389107855e-7,-0.000006741856502452816,-0.000015897952907294109,-0.00000975487588195327,-0.000002071315919814819,0.0000012078951608730512,-0.0000054590876956121569,-0.000014600955908344782,-0.000012990021440273237,-0.0000051430405455759029,4.124467370219326e-7,-0.0000025374389253978915,-0.000009030947239030139,-0.000010256303000899607,-0.000002820998850554586,0.0000013272595491867074,-0.0000035074972071368345,-0.000010798580003895348,-0.0000049163386622916208,0.000002386857382514149,0.000005377236088595049,-9.724429242403506e-7,-0.000009322333381239988,-0.0000012122036797244533,0.0000060825861450051,0.000008805895607532045,0.0000020073470477199129,-0.0000068689106671563468,-0.000001263208831873597,0.00000579606441957551,0.000009114248144948559,0.0000030023869685365896,-0.000005772233192247406,0.00001870720239311587,0.00002150363361294235,0.00002419308700732044,0.000022852920014442029,0.000018840841805976529,0.000020127060339919229,0.00002277425327850283,0.00002492043858209435,0.000022484553884578324,0.000017695800550426429,0.000022705970600038738,0.000025508004927950566,0.000027103263009984745,0.000023772296542738119,0.000018372582798256893,0.00002430084539926457,0.000027318802869414556,0.000028707598176111474,0.000025116002425225184,0.000019668557443409266,0.000024404550122201573,0.00002735841132675773,0.00002881007519047403,0.000025504617102405484,0.0000203286526420834,-0.000005719477011240921,-0.0000020313157806058858,1.4600040699645317e-7,-0.000002868071272556473,-0.000007845055367911608,-0.000004528397175626248,-0.0000010804514987111879,2.8963231243787678e-7,-0.0000037288707049508019,-0.000009010763106250476,-0.0000019987103958056468,0.0000013885721072052735,0.0000020813569092678468,-0.0000025904541846243916,-0.00000812259006423155,1.6091450048625626e-7,0.000003525218345020695,0.000003955643891583756,-7.877813145622535e-7,-0.0000062183196607534768,9.630391781667804e-7,0.000004130406157620743,0.0000046265116815613749,2.7439257510696565e-7,-0.000004820238472463138,-0.00010644712203198062,-0.00004922506404357158,-0.000009388883198137069,-0.00006617238756649383,-0.00011980020032946439,-0.000124104916285356,-0.0000498700081706688,-0.000030169806390362738,-0.00010188593776260707,-0.00014419009543882136,-0.00019080771812268085,-0.00011837079718779407,-0.00012070682749965232,-0.0001977029770595358,-0.00021815345706790063,-0.0002298783888548036,-0.00014943072026149,-0.0001447417407920492,-0.00020657556403762262,-0.00021047837523842058,-0.0002430184357658971,-0.00016736973607808128,-0.0001620943016105321,-0.00020947981177282357,-0.00020443309421881486,0.000025962434287945738,0.000015573443982233844,0.00000891949432267078,0.000013494444551939763,0.000022179807157409978,0.00002300757445222916,0.000013029341773738222,0.000008248474263821491,0.000014908346978166348,0.000024198937106406619,0.000016568402187742788,0.000006700350704637915,0.0000034992759323851698,0.000011820425837987137,0.000022112552478283709,0.00001145272070840421,0.0000015863865834375973,-0.0000010141604468506734,0.000007898258810130616,0.000018793654502950984,0.000010614587407050644,0.0000011024874978937027,-0.0000020184195852411625,0.000006175102790179662,0.000017068140267424826,0.000014303498544110404,0.000005332002351977841,-9.267023022921715e-7,0.0000024544336971723717,0.000010165681317038149,0.000011610682732864075,0.000002900863538624407,-0.0000018533252119142279,0.00000347496181506925,0.000011920523259802491,0.00000587319031449446,-0.000002737652898399864,-0.000006118640106495384,7.794966912978366e-7,0.000010187196962736214,0.0000015626040204919293,-0.000006969932242791163,-0.00000980070592534269,-0.000002385927081095223,0.000007405189098058982,0.0000014353306638292252,-0.000006783563731525457,-0.000010069794348757509,-0.0000033587561432537,0.0000061529998592429868,0.000009132812685040388,9.213737219253874e-7,-0.000005182079145354266,-0.0000023877423936751299,0.000004916168074334017,0.00000642811313328295,-0.0000015712905798883224,-0.000006271895523304861,-0.0000015192284430663339,0.0000066384896110999508,8.59381081866381e-7,-0.000007093238477005641,-0.000010462925950876024,-0.000004110560554504055,0.00000505182564098271,-0.0000031158997880965278,-0.000011014488669802199,-0.000013869450707384772,-0.000007002659438108292,0.0000024947565144832899,-0.000002967241346140918,-0.000010601502948673546,-0.000013914072579064408,-0.000007724628802705723,0.0000014211339729894758,-0.000009172260436966369,-0.00001206856295363384,-0.00001479478035526158,-0.000013531059888561414,-0.00000928504017916194,-0.000010456070497171235,-0.000013312596542317643,-0.000015484849439717066,-0.000013094982236369274,-0.000008074504526025399,-0.000012939921632825068,-0.000016027462455530517,-0.000017636506485328006,-0.000014365373870908546,-0.000008821065467208075,-0.000014511626286823474,-0.000017844298233449199,-0.00001925027147603611,-0.000015744649078647175,-0.000010254152030234832,-0.000014607548961662074,-0.0000179052789464551,-0.000019386728660814475,-0.000016135136063458719,-0.000010950219585373878,0.000005246516638167632,0.000001602467115270888,-6.535898087890834e-7,0.000002244493598814508,0.000007415118258571844,0.00000413174619716254,6.327452992497123e-7,-8.29735657491222e-7,0.0000030921146280384577,0.000008565455454784065,0.000001606908630806463,-0.000001853673616243606,-0.0000026061496165534997,0.0000019699813352320016,0.000007642228119803628,-5.877814332230865e-7,-0.000004002732857567623,-0.000004446128487153367,1.9035001334027146e-7,0.000005666804388442479,-0.000001361196860403857,-0.0000046035364168969659,-0.000005090433978127773,-8.391070556390551e-7,0.000004220517040320853,0.00014204874388329996,0.00006731772975771023,0.000010543132469134753,0.0000832600509647281,0.0001528896593049694,0.00016688515355132885,0.0000663050900959228,0.0000343710256214696,0.0001281568305270294,0.00018530427764428225,0.0002594458084627723,0.00015873903771431445,0.00015397869477977775,0.0002560879036218136,0.0002862385055443036,0.0003173616990074162,0.00020340880884587548,0.00018866130516428348,0.0002735448950963261,0.0002803909602161542,0.00034290367490171663,0.00023648013296680593,0.0002196258166165938,0.00028373351168254756,0.0002762855861429684,-0.00003237402941179629,-0.000021714763444306248,-0.000015622962395206223,-0.000021001164829332246,-0.000029791288320566025,-0.000029935884012297329,-0.000019771972235706627,-0.000015398828204153307,-0.000022679779559461365,-0.00003196080847818642,-0.0000241282331507027,-0.000014048502115711035,-0.000010931582831631972,-0.000019673326539041596,-0.00002990733391290528,-0.00001943405867737158,-0.000009276816898017217,-0.000006445087237991811,-0.000015642901441902577,-0.00002656966497360708,-0.000018619395037243159,-0.000008881682382064898,-0.000005431179711780607,-0.000013881454905376763,-0.00002496530325138954,-0.00001690352106804239,-0.000007771388562287617,-0.0000020836232788204835,-0.0000061518508291410989,-0.000013869730361790729,-0.000014707862672750392,-0.0000059349168452327808,-0.0000016060651477441344,-0.000007431442106331601,-0.00001574946282698592,-0.000009571823766256638,-9.107644394444652e-7,0.0000023480020408290985,-0.000004845503596785446,-0.000014055021867635394,-0.000005668161158812288,0.00000296285989437985,0.000005967135492042766,-0.0000016067443234601225,-0.000011277639074038666,-0.000005576521401429723,0.0000026933463699085828,0.000006253489506799422,-5.826071618924117e-7,-0.000010126293879406665,-0.00000990684880366585,-0.0000015617356329252934,0.000003966924298237229,5.003178829093359e-7,-0.000006792810437000439,-0.00000768349760995674,3.453171145363037e-7,0.000004616357493723075,-6.09010592173235e-7,-0.000008608692996664158,-0.000002693665418217262,0.000005255257143393559,0.00000849025580663796,0.0000018722012697278255,-0.000007050298917874268,8.80665944987795e-7,0.000008803389756172068,0.000011810094734758797,0.000004822688515301942,-0.000004502628316401495,6.618386652016206e-7,0.00000827368347629195,0.000011840583999732437,0.0000055806972093090498,-0.000003529581696934407,0.00001357836918856689,0.000016523839578856689,0.000019039837306422655,0.000017316164305403,0.000012902380484533924,0.00001452293815782682,0.000017338311294036979,0.000019388872605469764,0.00001669474760309768,0.000011637150182150196,0.00001676647109928851,0.00001975107778970657,0.000021322477121717939,0.00001786289450768665,0.000012348449351826999,0.00001827246063559187,0.000021462546572275456,0.000022864435378031558,0.000019236124707068034,0.000013782564158462603,0.000018343991825411089,0.000021437600626582933,0.000022906255823693757,0.000019615256113824114,0.000014499671899604239,-0.000005220566390175906,-0.0000013592557121861956,7.374175636808781e-7,-0.0000026216954855951834,-0.000008032237023141744,-0.000004327172402344362,-6.637097060688887e-7,6.942332835397116e-7,-0.0000036007981992911019,-0.000009254137264053155,-0.0000020249689257121388,0.0000016057747416973499,0.000002341482423306787,-0.0000025268781184887805,-0.000008323223258435985,5.98508328739944e-8,0.0000036454530427982806,0.000004123563208546459,-7.568338759020174e-7,-0.000006348265481491612,8.055290078103457e-7,0.0000041210443986093689,0.000004623937006872157,1.7339286762328618e-7,-0.0000049914366490044088,-0.00011928292958602132,-0.00013854178485153007,-0.00013789060445953087,-0.0001017293794441164,-0.00007083634074684756,-0.0001165453934742298,-0.00015885384878572002,-0.00016442386589637047,-0.0001415152325108087,-0.00010992888896561073,-0.000056252662998530018,-0.00010999850239270834,-0.00012406631005785094,-0.00012027774532487487,-0.00009694567374616292,0.000036667497762389577,-0.000033408706117307087,-0.00006767125735609131,-0.00009188397282747801,-0.0000884312332551139,0.00011389413272392283,0.00005070852776956845,0.000013937327815457862,-0.000023331891792470286,-0.000038534574971221937,0.000015623695544814863,0.00001604735677770331,0.000021418388465788944,0.000027281501946087623,0.000027421516066300708,0.000018366825318854584,0.000020188433816149726,0.000024731363656436709,0.000029427440397524854,0.000029037515435389907,0.0000207755733238666,0.000021309491843961795,0.00002353189306658947,0.000028472784823247324,0.000029632395344511778,0.000020724781205616714,0.000018940598308404454,0.000019178744005412166,0.00002548964665519584,0.000029962772985834158,0.000019333526579307248,0.000017067309092027749,0.00001697415221716952,0.000024820310161631137,0.00003231774480688088,0.000011693382105802392,0.000013552287008496268,0.000019445021009180746,0.000024321752042269825,0.00002329088305731506,0.000015535396395961029,0.000018913386993492446,0.000023683762794697809,0.00002695410540605955,0.00002509548824923553,0.000018947918502430206,0.000021333232518415704,0.000023553189004034253,0.000026501496528985378,0.000025751038233828178,0.000019486992514133286,0.000019766684343342748,0.000019884034559944159,0.000023712853230613533,0.000025763495997007577,0.000018207042105356248,0.00001777526385847505,0.00001735239907893464,0.000022461047419871247,0.000027209814918560547,0.000009836203315203771,0.000012434098389118235,0.00001871670192524998,0.0000233144444637984,0.000021657943156046915,0.00001437271040566575,0.00001862316732431763,0.000023649637191948207,0.000026306613368513024,0.00002355778327308267,0.000018303073343977364,0.000021710576290321099,0.00002401333884751736,0.000025995007339703757,0.00002411501352285019,0.000019108436265955289,0.000020476326746893275,0.000020510050109023213,0.000023094018172102539,0.000023810492600999503,0.00001801377076315424,0.000018526929862808974,0.000017838432213895335,0.00002152726483837965,0.000024783813251209618,0.000005109264331329335,0.000007918320002903934,0.000012404513559335839,0.000015110160296996779,0.00001320948552748583,0.000009371220547267875,0.000013365109151045777,0.000017028556655977404,0.000017928139603967383,0.000014529300344763936,0.000012278263173026486,0.000016048389510007267,0.00001808200215572086,0.000017905214119223427,0.000014490577527325768,0.000012764065126570016,0.000015549469395448967,0.000016129098425763974,0.00001588623161117078,0.000013734917929117197,0.00001269005674553737,0.00001492682003478377,0.000014805333029971533,0.00001478770581590861,0.00001365874218022835,0.000009126899427084429,0.000010503881251968827,0.000014481755843936034,0.000017739739387686624,0.000017170566336746536,0.000011982452705980818,0.000014137837264041359,0.000017623788823279948,0.000020038803422507496,0.000018817629966916073,0.00001421332996908293,0.000015733672576391683,0.000017811107251340706,0.000019882766597146966,0.00001919892482458607,0.000014463444974906264,0.00001485188419559884,0.00001574131717894533,0.000018181207118585275,0.000019041137599519724,0.000013909997087734612,0.000013970383106249477,0.000014427814831465005,0.000017451955591066383,0.00001971334555121765,0.00015293237997708728,0.00007282163779391788,-0.000009540004577503246,0.00005206172969871136,0.0001242381147020796,0.000194867384553995,0.00007541273292438061,0.000011248490485028676,0.00010044783857731429,0.000168232564876032,0.0003315435011534626,0.00020762008031596996,0.00016501340953199324,0.0002650919436526762,0.00030664895752113147,0.0004304555979522868,0.00028638458190336207,0.000233682461505461,0.0003271876708149343,0.0003345160740274181,0.0004925932931127966,0.00036957618961282657,0.0003171704234152111,0.0003828863761708254,0.00036090147982657296,-0.00003221304921770216,-0.000038696388735898939,-0.0000410839291355759,-0.00003663872695360294,-0.00003091862587989864,-0.00003254582729516162,-0.00003920303194166038,-0.00004118637430327677,-0.00003574049694268656,-0.000029564475054790337,-0.000034344714974358829,-0.00004137717532693386,-0.000043444239810881807,-0.00003738844762586682,-0.00003072626203258057,-0.00003618788993281658,-0.000043537687130847897,-0.00004604984799511728,-0.00004001537354605459,-0.00003299385586997911,-0.00003666040642753525,-0.00004360664699037204,-0.000046525266501430647,-0.00004098602485219902,-0.000033737499691216886,-0.000014003831404758414,-0.000019353762921918695,-0.00002113536972129646,-0.000017347994815356096,-0.000012406012410555625,-0.000013676296273325583,-0.00001913293738657501,-0.000020685970496522498,-0.000016166803004408683,-0.000010968776459887503,-0.000014734775229183136,-0.0000204770604569919,-0.00002227632959644321,-0.00001738462677030546,-0.000011909794467784734,-0.000016062291566552339,-0.00002207191731024525,-0.00002441058227775232,-0.000019674758735300445,-0.000013999865318622205,-0.00001617125457803646,-0.00002188537076365774,-0.000024673078488439286,-0.000020440236001393329,-0.000014665342684025367,-0.000005492050678768913,-0.000010374947130832245,-0.000011837113966271926,-0.00000817542687874297,-0.0000034180361622674316,-0.000004845975661249496,-0.000009797364790085566,-0.000011090116274514488,-0.000006824977198900669,-0.0000019223994597052845,-0.000005591035756726548,-0.000010826388023489109,-0.000012442511746207592,-0.000007929752157298029,-0.000002864790112898541,-0.000006689726936660913,-0.0000121971929689955,-0.000014425547631979959,-0.000010163285601221075,-0.000004981973223550107,-0.00000658188694402905,-0.000011831285464843749,-0.000014545107923538098,-0.000010823674294270664,-0.000005618360188779332,0.000025256733595740494,0.000023282084936772313,0.000022852742231981685,0.000025268262609689315,0.000028543451632029554,0.000026568627006893466,0.000024622462557746375,0.000024126255297580968,0.00002662398971915426,0.00002976138150971017,0.00002675605012897175,0.000024593065081982935,0.000023920928239890286,0.00002629446266585736,0.000029163230218285756,0.000026158381314239119,0.000023840445230708428,0.000023013111160053644,0.000025095463598676853,0.000027653558090759376,0.0000259564798132249,0.000023883834999032489,0.000023065025352176736,0.000024749724116022688,0.000026957241897991303,4.3202943457961789e-7,-0.0000020399395294267869,-0.0000023876142378595138,8.290738685314423e-7,0.000004857873685188186,6.566411074150281e-7,-0.0000018319875103445817,-0.0000019817095273302765,0.0000016102670091528774,0.000005670136103924057,2.3392133114622249e-7,-0.000002410572876035826,-0.0000025682694519125429,0.0000010715691998371479,0.0000049489320057639929,-5.860102112263248e-7,-0.000003278490656316421,-0.0000035213862969189654,-1.2669723425392644e-7,0.0000034602955487602585,-8.825182541994599e-7,-0.000003206764657330024,-0.0000034154444840782918,-3.9225716197162158e-7,0.000002866817463974427]},"biases":{"numSamples":1,"k":1,"nr":1,"nc":16,"host":[0.04089059529628002,0.026015770018888913,0.00037306120530239157,-0.030395891256637096,0.021261973039618334,0.021389566798362335,0.009344253917005396,0.006494443719490372,-0.011334445354040431,-0.041025311943833967,0.02227119598138303,-0.03473245926449205,0.019674151071886013,-0.027037657571503408,-0.03522128150822917,-0.03524037806175774]}},"fully_connected_layer6":{"weights":{"numSamples":1,"k":1,"nr":120,"nc":256,"host":[0.02208646131888183,-0.0019893996720943484,0.03040916187935996,0.04006043802676124,0.10554347426325801,0.15302904772872814,0.06531788404048664,0.04335030321692212,0.07582638960231857,0.02465243792955978,0.03415173689366279,0.010414085023138953,0.006216819438623827,-0.06043898976173047,-0.05489646234186488,-0.029211205196543544,-0.07160587714658333,0.04358924224460747,0.034270412954982117,-0.07364853975073575,-0.04826463735419519,0.014240533814221768,-0.045534349347078038,-0.03638825987493729,-0.02285095000108659,-0.05513200205088377,-0.021900378339701804,-0.02142392067507193,0.003208591033588665,-0.029739047091461105,-0.004043294810294635,0.028764356757471286,0.004027549553067787,-0.055303875703815699,-0.060267241000213609,-0.032164403653515919,0.0881210473656876,0.06472105926721975,-0.06784146118358138,-0.02507879268020068,0.02274631571558305,0.023815481701359,0.011003039000587785,-0.025440352124821248,0.05471700107111925,-0.017048693047451489,-0.03687879698785597,-0.07448015660967449,0.06246508242336792,0.009293277827116163,-0.059708459862626118,0.01763971605717284,-0.024093933178534939,0.02569136351667027,0.006423783305553023,-0.000263260426972467,-0.01197967337833721,-0.013998229938796124,0.010452515904570128,0.008145135713861572,-0.051908503829011628,-0.0030844244320953,0.06736863386661289,-0.023801626332923256,-0.02129635558493186,0.0075417013650944469,0.04376915765383389,0.02572470981533317,-0.06609409389527636,0.03664704985387024,-0.006599726990372548,0.05756288553342243,-0.04253700159055851,-0.01982105499367123,-0.000019543797582432198,-0.029662849557775447,-0.06021833590861831,-0.017768408120809169,-0.08779422294386492,0.04612275675121863,-0.051371991064929307,0.035835116389847227,0.036259766934565219,0.030863816273866336,0.07791899950044915,-0.022138430154951956,0.05130661204111156,-0.038002279329565648,-0.02006702647698632,0.05956629048136044,-0.021755724472603136,0.017902512259302469,0.017748674892505046,0.011619494735887408,-0.006868121909368552,0.031128144789336937,-0.01917036116709965,0.059338046179120838,0.016844028013096328,-0.08300636769176421,0.03632508745122699,-0.05326690275359472,-0.09378874681843319,0.026015589459211818,0.01161246467710958,-0.008584942967527373,-0.04696564552552461,0.039527208200513207,-0.0161634637344957,-0.07125743992177507,-0.034735663441608988,-0.012457847556265677,0.013946208710804442,0.0318255299233149,0.05395645981432046,0.01208385136997262,0.056019618826318059,-0.015963521899899016,0.027110786327283085,-0.03789786046117142,-0.0008364917598584021,-0.0010612733447200134,-0.005047883916181431,-0.000719952945449897,0.005391798588286871,0.005984717374316947,0.0014145127151649845,0.001127899908164361,-0.0006491581014855104,-0.000737850310006295,-0.0011707012894420595,-0.002176378066336458,0.000701462523494896,0.0003923370181372624,0.0013202287513606865,-0.0009313694787853467,0.000572698800417639,0.0005567292080306555,0.002451061901122443,-0.0001471178689910489,-0.0026827195558051005,-0.0026034510851455445,-0.00038480548834368976,-0.0010304883015738482,-0.0007854625030902456,-0.0005591432278053388,-0.0003404773788435546,-0.0007641006644427315,-0.000537240751440953,-0.00026017870168641206,0.00005900564116352914,-0.00015722242934298008,-0.001577117963485463,-0.0017919774877127712,-0.0007855999263534513,-0.0005285743276129518,-0.001944669044427943,-0.0031476727115284195,-0.0027826478650000345,-0.0013184097571754355,0.000888253875035738,0.000971409561424241,0.001817321238616895,0.004094565332587135,-0.0017572733805824959,-0.0013769012704745504,-0.0034044937742270448,0.0009894675928375163,-0.0003926954303607342,-0.000517326019052634,-0.004815624122848073,-0.00033401869641726056,0.006028482684906488,0.006803825230778494,0.0021362667431146576,0.0017069817266915369,-0.0009902695169310536,-0.0009589512329484147,-0.0011572289412631703,-0.001923376895839955,0.0002099066227607852,-0.00025314683404185104,0.0006625795257392979,-0.0012293898974274664,-0.00003131471303854093,-0.0004466734094943419,0.0014234086270305065,-0.0010491325923716446,-0.0026559984348858945,-0.002499017796559204,-0.0009616967748930519,-0.0018753742424146658,0.000582107045237242,0.0005976181351058477,0.000775858287876674,0.001246951050557234,-0.00025875158155498455,0.00015674697047354198,-0.0004323065883524827,0.0008881962864000329,-0.0002594945406625144,0.0000200198015510263,-0.001157630067806793,0.000748306858006292,0.0016031959005022893,0.0012003848682127586,0.00015594225465603934,0.0012157102310903176,-0.0008512119039847739,-0.000850438133711218,-0.0010438243941472828,-0.001633843068570565,0.0001430230883216075,-0.0003099238779417688,0.0004424089909999156,-0.0011577914502701578,0.00010830755957923918,-0.0002346800462798371,0.0012215238009007468,-0.0009475068339421494,-0.0020784063861560206,-0.0017596040412888224,-0.0005256462777671709,-0.0015399164440678835,-0.0006436695844800642,-0.0002942714299800226,0.0005372119730752415,0.0016586769459874909,-0.0019690243967885594,-0.0014880197512604232,-0.0025607912836380344,-0.00000538917470342233,-0.001603325393810443,-0.00197995284676074,-0.0038045904112843146,-0.0011854983894219495,0.0019875451521934475,0.0016635125269384927,-0.0009540734742518351,-0.0007043776050174156,-0.0007424649498028625,-0.0005247439693533313,-0.0004249858689542471,-0.0011231080282620714,-0.0000878995497929972,0.00023249702122572473,0.0007004621274710904,-0.00007889491599658619,-0.0010373011219956886,-0.0011706771316206979,0.0003930591177151866,-0.0002040987874497619,-0.0024181949092204615,-0.003573953696324631,-0.0023680577734264335,-0.0013150475021864173,0.12048972394597353,0.260535198442169,0.3128692436909623,0.028869264810457749,-0.15171828450835329,-0.28426665896234917,-0.49161776375293028,0.4268654168078449,-0.4371564749895183,0.1270372014947595,-0.18457962578297897,-0.2201931614602325,0.21751102074496132,0.17984444114038634,0.29769820398076299,0.46188247527174305,0.001447377836100341,0.001716984555556571,0.000567544178016631,-0.00377771251132317,0.007431742499727692,0.006142380798049729,0.010310338115241734,0.0013574861647623449,0.004874720718241946,0.0028891761259348658,0.013631268354199797,0.002423255126613079,-0.00890802887871029,-0.010580683984985412,-0.0009136570579524337,-0.0030998440736025036,0.00016428211267291836,0.00004566929055877455,0.0037106719333872175,0.01598222619153705,-0.013749743403201344,-0.012804362095698633,-0.023439390117232413,-0.001015879130466489,-0.007029144649073754,-0.0078452404036575,-0.03181662931453734,-0.006904985258155645,0.026897357789036483,0.031705940623607497,0.005714212223029411,0.004527955772370369,-0.0021795740348131934,-0.0032923850590717538,-0.003969592132685751,-0.001896159589051112,-0.00441408015636945,-0.0048814663329818509,-0.006578055225793585,-0.00390401724218257,-0.000618923255338063,0.0007127327519129261,-0.00430943069403928,-0.002309153909800656,0.0028415680038503946,0.006511732699082619,0.004767923218970151,0.0009982998746802658,0.0010472292759544189,0.0009897245365139557,-0.00006039623320852411,-0.003209632772775668,0.0055046867952428918,0.004012456783879148,0.0074216064311618079,0.00025296937928910573,0.004262137360251004,0.0025654205984984824,0.010527664154863618,0.0014523553432109419,-0.006358402476506112,-0.006834111665302814,0.00048174039348316037,-0.0022974082980564199,0.0011779289873523447,0.0017593099184250517,-0.001545400322963535,-0.01478129226255748,0.01623549327806657,0.015230576433015583,0.02678597938165373,0.0028493220825753548,0.008024773489980023,0.007803544880278418,0.03424098963715594,0.00818298613280756,-0.027802928082280417,-0.03426011503815339,-0.007456917143216117,-0.005043551594772237,0.0009736321227097488,0.0015983975859496633,0.003567428682652537,0.007521756752160253,-0.003958327790032895,-0.0032892302769460585,-0.006558498788550478,0.001569008362996594,-0.003842974593337386,-0.004247111495017538,-0.01212140252992701,-0.00204354747764689,0.009400678809046022,0.00946511279463499,-0.0012192529628224556,0.0017083434061850338,0.0002595164767797409,0.00048096388281045337,-0.002867698002861142,-0.01467725463490565,0.013666702717847243,0.012695096354899157,0.022990948581684217,0.001442100302176778,0.006980363199683717,0.007436641040801722,0.03055139481002295,0.00689345085677843,-0.0254927538182247,-0.03039108307234845,-0.005754521586150877,-0.004380352719328932,-0.0003239017277956338,-0.00017133458683610842,0.001678699922515358,0.007410592281106646,-0.0072729488944780688,-0.006418284761494128,-0.011450374166173765,-0.0002663570407149163,-0.005059993475981155,-0.004511638972968329,-0.016465471184921068,-0.003541030994863065,0.01217413390483283,0.014119430589251981,0.001139439640832986,0.0025612241329983408,-0.0029282627447638875,-0.004465677303002283,-0.005065528924119105,-0.0005598558112126468,-0.007554873990857637,-0.008307555032944546,-0.011995217775538079,-0.00559605280590439,-0.0013546410711423238,0.000008647413174691476,-0.0094939352186366,-0.004362800099713978,0.007298379070515187,0.013268135445216059,0.007867145630316743,0.001618438998579813,0.001216760577333117,0.0018117242501565893,-0.0014678371583038085,-0.014648904129858838,0.016221009370426557,0.015197859445417815,0.026718258383608117,0.002890693437149365,0.007985504748715098,0.00774219270922041,0.03411886606667311,0.008127010158908805,-0.027671214528438974,-0.03411047329922147,-0.007459957316684115,-0.005030409933611804,-0.002000151209511769,-0.0024341396985190597,-0.001122324112003846,0.0045481055580474049,-0.009532486384956227,-0.00810273609340455,-0.013552565871437489,-0.0021046384022605478,-0.005947327437078017,-0.0035019887246164587,-0.01725781587161971,-0.0034071977531718838,0.011280628686399803,0.013951595554870161,0.0019294908474783029,0.0036692892617602669,0.0010308115582305584,0.0011083232023719899,0.00003302060277947569,-0.003232252305811237,0.005773783425506919,0.0045247795363803689,0.007722159485895069,0.0006423692868127285,0.004231729709193873,0.0025699481476806195,0.010944871950331278,0.001636564011812445,-0.006881557846147585,-0.007637693059662791,0.00021694033231151229,-0.002560995278949172,-0.0014589587107656964,-0.0016301192355622026,-0.0004320180182204423,0.0039049522170082424,-0.007397524463023803,-0.0059985993779827638,-0.010306521110569334,-0.0011142227396106102,-0.0051488425536415599,-0.003086433836741379,-0.013864570848163005,-0.0024376423687896269,0.008693321592434382,0.010261828813370719,0.000564273548418999,0.0029516016619173608,-0.0023479271682575739,-0.003270823783034494,-0.005778837098096665,-0.009960181376371577,0.0023604385587792256,0.0011963681381746013,0.0052641163149965979,-0.0033707376908280255,0.0019405523416193027,0.003940067512746168,0.01095394178781517,0.0004681134378531604,-0.011175601454179807,-0.009665380158996188,0.0010543812816053848,-0.0013229699597348856,-0.002419691550398335,-0.003759745674807013,-0.003680835557077386,0.0019444630742659294,-0.008548392642941267,-0.009484724861730106,-0.013665753963484458,-0.00518264500251384,-0.0026807559035135969,-0.0015134709453067609,-0.013329261065475008,-0.00531297281612172,0.010163873456511935,0.016382625652229086,0.007251466175353803,0.002122593248662285,0.00885840003224613,0.018946313883279398,0.022960752289943016,0.003004522734955146,-0.009585724744878916,-0.018121021250161928,-0.03227743191941848,0.03024010556025056,-0.029199110050341243,0.010246454439010617,-0.011418251531293887,-0.014686262626148359,0.01614448469315856,0.013847057077222888,0.02165212676603138,0.03204406265096925,0.0014411152275798109,0.00145822935451667,0.00132827761612245,0.0010723386844190735,0.0018341650909721867,0.0018648701877115504,0.0021173590563014728,0.001425031742351541,0.001649968694274315,0.001596462723549324,0.0023754652261516095,0.0015539089159155842,0.0007095631397090716,0.0006137319470329824,0.0013200038140860694,0.0011976980888932523,-0.0009820210570464852,-0.0010475829893959548,-0.0007087319048919245,0.00019140158590243324,-0.0019697893188224937,-0.0018336118564464166,-0.002232231678464055,-0.0009174359785311735,-0.0014900127954297909,-0.0014612759742805592,-0.0027677608443533974,-0.0013329637894415456,0.0008348300312475693,0.0010987973276394776,-0.0004384549713878655,-0.0006056471367630626,-0.001549055618482958,-0.0016879200365310899,-0.0017798760480883638,-0.0015240553632177563,-0.0017800886037186029,-0.0017818178132225848,-0.001985381795197261,-0.0017251479591027738,-0.0015081217503356267,-0.001398519227325463,-0.0018388243913971907,-0.0016127357133632335,-0.001180149107186647,-0.0009390730084743871,-0.0011337219114903165,-0.0013415314522274669,0.0012702933143147455,0.0012318510788213425,0.0010981049356342573,0.0009233194834147337,0.0015380394151782744,0.0015080396829171759,0.0016894787844302642,0.0011624966684960585,0.0014424047913153156,0.0014084980192879153,0.0019572943806423317,0.0012931671918883718,0.0007342237603059507,0.0007210246796484294,0.0012316376531231978,0.0010812106464060906,0.0021773910400076318,0.002270114558598724,0.001960320298595248,0.0009666226657086646,0.0032425812548666965,0.0031266030665147187,0.003642307133171442,0.0021426596247222978,0.002647356423458953,0.002566453413423576,0.004098443611054264,0.0025232506820614998,0.00020322002636927942,-0.0002448112633014579,0.001409727239695545,0.0016435521034398136,0.00020256071551173969,0.0003341153750631006,0.000533152336677602,0.0006780303044812351,-0.000041198480019811616,-0.00003451108399524056,-0.00014532458470633726,0.0003528383521693332,-0.00004329863765288609,-0.00007969632261973433,-0.0005126418963603015,0.00008372543325898277,0.0007666255130466478,0.0008021823821497721,0.00016754034302850256,0.0002901753408132359,0.0013091007080978177,0.001385458480374203,0.0010799818456652879,0.00018991588802424588,0.002260817362950751,0.002158069772656424,0.0025816905552731035,0.0012598862698064786,0.0017785797990772063,0.001755245580523699,0.0030477504972727376,0.001644203619625921,-0.00042898623169439817,-0.0007404635819467107,0.0007489964730191151,0.0008972081216246495,-0.0010319592872589173,-0.0009588388442679893,-0.0007556351404741858,-0.000435574086224639,-0.0014420872868801758,-0.001408764282410097,-0.0016376679869925106,-0.0009116834531490914,-0.0012831413471714668,-0.0012826812293982074,-0.0019937354420508149,-0.0011581142162749069,-0.00014909300733972043,-0.000014818521050541467,-0.0008307250054696479,-0.0007939497104123088,-0.002341165018261167,-0.0025132277557632406,-0.0025905382605574437,-0.002132770231670464,-0.002755760009066988,-0.002710260369986295,-0.0030167279674503998,-0.0025416168724958227,-0.00231158589091924,-0.0021737496734453977,-0.0028410116159883088,-0.002442604082862326,-0.0015941050859150745,-0.001213896111385493,-0.001618218569779775,-0.0020054390910888896,0.002204648436163528,0.002297626755631225,0.001986297521096661,0.0009975238274354632,0.0032671669483311639,0.0031433720398312194,0.0036511738159792585,0.002167479406405699,0.002669615877847564,0.002582333689072529,0.00410663278965058,0.002543947687080549,0.0002303759484258158,-0.00021027676558167265,0.0014321929578275147,0.0016721972755493673,-0.001968014716973015,-0.0019792652181968046,-0.0018354481276881324,-0.0014994486221011649,-0.002452789803215624,-0.002478106327838886,-0.00281228219282458,-0.001951111063596553,-0.002197817084375797,-0.00210818446580142,-0.0030957815574622607,-0.0021035682188674735,-0.0010215923753952653,-0.0008518343275354897,-0.0017201180354695948,-0.0016364082093022377,0.0010365432400748167,0.0010461956674131617,0.0009239481213063674,0.000745242466150582,0.001347586571907037,0.001382821803666833,0.0015678983272237378,0.00100584101329623,0.0012365219741238766,0.0011953942790022307,0.0018090140793708945,0.001126605516252359,0.00048621373420474153,0.00044952093533292403,0.0010221885390762336,0.0008630045769587709,-0.001568274836916958,-0.0015526093277715705,-0.0014145825134524756,-0.0011800307909469333,-0.001934691551381952,-0.001954192017553188,-0.0021985001990754919,-0.0015105935983386415,-0.0017727856537271988,-0.0016964405798472226,-0.0024613479245125826,-0.0016605690596132504,-0.0008429634437766046,-0.0007374902149414388,-0.0014295492063524172,-0.0013099489295059276,-0.0012751512996166913,-0.0012643671686259283,-0.0015069910881922453,-0.0018430881636197613,-0.0009164284079838319,-0.001026332686528587,-0.001044438826179407,-0.001420465024103123,-0.0009510234406438697,-0.0008404004432056397,-0.0006686724046704395,-0.0011364725167558833,-0.001852202904986068,-0.0016033279551502494,-0.0010831664530304715,-0.0011988605508284848,-0.0020617179766124619,-0.002206503734717073,-0.0022361315729607096,-0.0017331739521949254,-0.0025592397349381765,-0.0025510016181427826,-0.0028979498317719309,-0.0022581013056741578,-0.002145350568435881,-0.0020125331933941775,-0.002877676616001673,-0.0022544665263368116,-0.0011784067633043348,-0.0007404691416460372,-0.0013948301676525897,-0.0017161332371066188,0.05772483614788668,0.12430715137598712,0.14918158833025434,0.014379048595324384,-0.07136473808387302,-0.13416962597375663,-0.23267206393559848,0.20309935021156148,-0.20692576675493683,0.06099925314673082,-0.08679474350012447,-0.10433914352067614,0.10380914831126101,0.08610399690826737,0.14204888191244476,0.21947103019259685,0.0013524981007407558,0.001496800025449604,0.0009368753017298953,-0.0011628064501749028,0.004180579106059423,0.003583010815702834,0.005520126373883754,0.0012942096843337806,0.002934284599277051,0.001952290279005743,0.007009505363955433,0.0017560162886655186,-0.0035590033533103076,-0.0044681791925195398,0.000049966875731751437,-0.0008871251252181339,-0.0006487899513624869,-0.0008254431277057388,0.0008321525808040732,0.006683308804736548,-0.007282770988703117,-0.006942301365372793,-0.011931256074392424,-0.0012955687134303663,-0.0041810417223853159,-0.004644019838888548,-0.015822239900932006,-0.003986730507800707,0.01172962253865498,0.013958148759915983,0.0019591672123663867,0.001432133995966623,-0.0008560153712396108,-0.0013152326706085229,-0.0015899870437159482,-0.0006277732546720981,-0.0019102044578192513,-0.002061269509931536,-0.0028854704722946218,-0.0015859381429087633,-0.0000956412324447449,0.0005812706856287301,-0.0019070428145582632,-0.0009152797893346456,0.0016803897258778306,0.003441997626469553,0.002423968104172638,0.0006309323026149539,0.0014653553044859953,0.001449397693189068,0.0009259274434213095,-0.0006248445553509407,0.003566920582543543,0.0028673475985500978,0.00442253907171874,0.0010235784814718308,0.002921164924717038,0.0020737621501555278,0.0057832659490609,0.0015273890342648706,-0.002060627453446847,-0.0024122162157874497,0.000953928207287653,-0.00026472173010468086,0.0018491956982541983,0.0022088462310498469,0.0006857599254640479,-0.005635840530342792,0.009018222906593595,0.008620156948882517,0.014041655141258956,0.0026474204825384787,0.005167340764282617,0.005109217082993781,0.017494636540862468,0.005078309926661106,-0.011715048254061578,-0.014762675545435296,-0.002310256588890737,-0.0011948845906249169,-0.00021621279016027849,0.000008472669454812388,0.0008963914473684463,0.002796408995483725,-0.0025561865468811254,-0.0023024137820825635,-0.0038236335364211888,-0.00003370258688691522,-0.0025228153938659624,-0.0027390162979316135,-0.006345373840320277,-0.0016524545159443303,0.003586468389673377,0.003635024615335967,-0.0012007589089048095,0.00015325347435834105,0.001034495162882678,0.0012474768828228077,-0.00027040937415063684,-0.005904080077193134,0.0074263397687862049,0.007069334282425735,0.0119090437397745,0.0016721197048457275,0.004325184111817302,0.004616755939987807,0.015414579223644067,0.004149807514291685,-0.010927983550658098,-0.013203927222443903,-0.0018100118178118485,-0.0012048648160927457,-0.0013468179635913146,-0.0013190424086113673,-0.00045654792870878665,0.0023012493254724439,-0.004642743473874629,-0.0042770220147120689,-0.006616081854486474,-0.0013295521499833007,-0.003579737900060858,-0.0033161398691848016,-0.008877267603149617,-0.002786846914697139,0.004479975277644998,0.00546120991450076,-0.0005082735275851227,0.00012671924635460449,-0.0015865164321011438,-0.002249484946584599,-0.0024855842264304968,-0.000373264444163791,-0.0037898307042378888,-0.004079811412304057,-0.00585097086971011,-0.0027532682543234129,-0.000829288188144914,-0.00014773242188203056,-0.00477850697600362,-0.0022380859572190428,0.0034427902389775387,0.006277803159678007,0.0035034286847085776,0.0005828034031569049,0.0018822503028213672,0.0022456089275677507,0.0007310559996814724,-0.0055667335532310559,0.00902494514084223,0.008614058081412456,0.014014061372745465,0.0026689299720292294,0.005159335965247218,0.005085071012955894,0.017440053727243729,0.005056925409967151,-0.011643489330931822,-0.01468840245751552,-0.0023080835148507085,-0.0011793114933305847,-0.001837341359296438,-0.0020519830326344329,-0.0014033045311512083,0.0013327988011825469,-0.005399261992426231,-0.004724115607150101,-0.007262154131447991,-0.0018464604724410946,-0.0036518050097397597,-0.0024396978474931294,-0.008930573783253647,-0.002419990031156975,0.004487617356207579,0.005887798702100213,0.00024399051639985127,0.0009564718113461804,0.0010295127983809207,0.0010894195460599403,0.0005723479784149945,-0.0010128018746371766,0.0032690461002685478,0.0026966471537696855,0.004176402123522931,0.000848534608338458,0.0025103131135746266,0.001689060378851772,0.005617823292445476,0.0012761938471077539,-0.002703462759634822,-0.0031671615187513519,0.0004806895767952561,-0.0007421134346561494,-0.0015999901047477627,-0.0016922504407748953,-0.0010990386315590782,0.0010094088284315299,-0.004404770319203948,-0.0037451114338533716,-0.00573414630291676,-0.0013904568336781832,-0.003288581082210714,-0.0022620121591908585,-0.0073221960898594159,-0.0019684050780991986,0.003230628635883759,0.004101292886375836,-0.0004163586197487158,0.000609243115016645,-0.0011475072123716792,-0.001453581982390867,-0.0025513451144623534,-0.004565794971745758,0.0011175578737092538,0.0006889276289438225,0.0025739000970375904,-0.0015098882475366946,0.0010062749456377556,0.0020477102890869138,0.0051896582070365209,0.000211202464803432,-0.0050087509327836,-0.004223252186484867,0.0005346075716634996,-0.0006346909781752161,-0.0012999009992838396,-0.0018732917021434103,-0.0018025356573370556,0.0008328254308060841,-0.0042012236489495659,-0.004575115475360403,-0.0065808836282969019,-0.002542362123336671,-0.0014240909812566049,-0.0008270180128181194,-0.006517536704658877,-0.002682618648545017,0.004773838417856151,0.007731691588175596,0.00324809732962762,0.0008239551808104946,0.019972610523238365,0.043199958108471079,0.05205932468197391,0.005508153716094518,-0.023898638027735093,-0.0449085086217174,-0.0784982237557747,0.06985420890666809,-0.07012647179732659,0.021997181781182725,-0.029096778004509269,-0.03555431131312561,0.03645205517361644,0.030623530177502194,0.04936005639879802,0.07517179252876887,0.0018894116244195607,0.0019239109691940044,0.0017584124844377463,0.0011245200084603826,0.002783913397584783,0.0025745505420581335,0.003297440097931599,0.0019051608553133319,0.002380291445092929,0.0020385662786320628,0.0038203826030300104,0.002069787218405314,0.00018938126078672232,-0.00012821902455123417,0.0014801025756236298,0.0011724123346637545,-0.000949058215408399,-0.0007808464355876669,-0.000047375930716703647,0.0019245732266361419,-0.003057576668276083,-0.0027526978579299669,-0.004279766388579822,-0.0006706050811207076,-0.0019354437340683433,-0.001919765626285731,-0.005639872489177182,-0.0017165253676777247,0.003569672475404423,0.004499292335354657,0.0004143902221327757,0.00009105403576784837,-0.0021004942020984476,-0.0023021199901325178,-0.002425772944820351,-0.002027367378099693,-0.0025367506157990425,-0.002604456880284605,-0.0028890160700398165,-0.002389011394183567,-0.0019197385335630146,-0.0016965860933684605,-0.0025142388829274867,-0.0021186431721655289,-0.0013156371374526395,-0.0007175744189405765,-0.0009820866579294454,-0.001580932792052932,0.001334187687090258,0.001313381193333163,0.0011646616376061305,0.0007222099643631539,0.0019842881719909519,0.0017540163688658953,0.002336381877714468,0.0012498111244462797,0.0017980460513722489,0.0015181626774783927,0.0028316142917360848,0.0014459275788042484,0.00011440755733519007,0.000013138492896257909,0.0012449754856502986,0.0008327044445493521,0.002182580875945343,0.002132003575310586,0.0014835557368493569,-0.0006766106970621377,0.004507808090636475,0.004238862965946213,0.005958264926024903,0.002069248965581881,0.003144449770093016,0.003002462530792255,0.0071735438307487559,0.0030123140647229679,-0.0026886172709418975,-0.003845850230581524,0.0004195122895784698,0.0009129329071163417,0.0003935622533837636,0.0005625393875427362,0.0009217904849877857,0.0014611236583028048,-0.00029716349808952197,-0.00014389345693252274,-0.000623410448588878,0.0005916651928402994,-0.0002796704455867993,-0.0002881625486312936,-0.001519472290224879,0.0000024312782517715378,0.0018170312054247734,0.0018996862778973567,0.0001749393833002251,0.0005987019111703827,0.0012546953097422247,0.001136842181034323,0.00047566664940147093,-0.0014439401587070908,0.0033038097797269906,0.0030306797880258657,0.004534517704447275,0.0010430243610148288,0.002188878930405617,0.0021485610573224016,0.005764857971936055,0.002007187099047102,-0.0030899214831534716,-0.004001018846982846,-0.00010356608284572154,0.00022738376117618125,-0.0008464734917449938,-0.0007673420072399872,-0.00044517730348258596,0.00041262445551382647,-0.0018828883943417547,-0.0017103162043625978,-0.0024963667623475887,-0.0007702469242551767,-0.0015295302335773716,-0.0013901325512181229,-0.0033067137717522775,-0.001307783108605837,0.0012329036086662017,0.0016101419798445914,-0.0005090998322686225,-0.000324700120557558,-0.0028499830994606386,-0.003116181609254554,-0.0031969293493177674,-0.0023765336221629408,-0.0036922307396427369,-0.003788025784648625,-0.0043564851171452299,-0.00325946065869183,-0.002670666156476858,-0.0024293013352133117,-0.003958883446549659,-0.0030525472108704776,-0.0011914373326911183,-0.00021754673956311818,-0.0010900640067599062,-0.002080675943271956,0.0022016404781247257,0.002151226172661414,0.0015064346184059949,-0.0006423538904308165,0.004517905590989792,0.004243915923815721,0.005957337248133672,0.002087808015468414,0.0031507687531501084,0.00300405603737192,0.007164666665883763,0.003016923983297751,-0.002655027294526434,-0.0038100527568062658,0.0004304530499142756,0.0009278515633196744,-0.0024953058132192766,-0.002546925586243778,-0.0023526950895847284,-0.0015085189555196833,-0.0036319509331625705,-0.003394570031696945,-0.004320189017913608,-0.0025236444038710598,-0.0030604664974036258,-0.0026360587089009526,-0.004903188611483918,-0.0027255661463988568,-0.0003132982228796986,0.00018084438280610183,-0.0018062441208954619,-0.0015768789586057665,0.0014267691074144425,0.001434447781402923,0.0012828863303796213,0.0008264283963929277,0.0021180973603697258,0.001923395878192534,0.0024931704354054808,0.0014004575910286175,0.0018792688059494048,0.001599301196652985,0.0029983219256175324,0.0015545475594723356,0.00012710028912393025,-0.000033654942564790347,0.001276320241414681,0.0008706026368295736,-0.0018946514611206806,-0.0019118880388745387,-0.0017371803276093688,-0.0011083389966002275,-0.0027722349546032999,-0.002556921960693106,-0.0032986626167959976,-0.001862606529183654,-0.002417470847579791,-0.002074435178262065,-0.0038603649247747607,-0.0020709479339942424,-0.0002218802814473954,0.0000726498909392255,-0.0015386031597882534,-0.0011911431682671665,-0.0017637429663257085,-0.002074672888611724,-0.0025865715366703548,-0.0032314822300502628,-0.0011378358598227877,-0.0014358621156935548,-0.0009326708824277523,-0.0022945275579537738,-0.0012224469300003134,-0.0009967517447579567,4.4526317327520338e-7,-0.0015785230318330088,-0.0033341173063483966,-0.003184105360686713,-0.0015562123715529243,-0.0018296357478550202,-0.0026561688654423356,-0.0028705869393380776,-0.0028456501238422269,-0.001870783055728655,-0.0037171900061506357,-0.0038238294631138009,-0.004471513869396771,-0.0030423876713593287,-0.0027612058436402356,-0.002527455299893576,-0.004409734513831707,-0.003054195808459736,-0.0006311530359895624,0.00041725147664059726,-0.0010194874911632335,-0.0018539895382329712,-0.008986716245835393,-0.0200135396849943,-0.023737524380122767,-0.0007457540822756864,0.013836148715796,0.025424139178893493,0.042659090806363628,-0.034472729223639659,0.037694776083229169,-0.008402607806900338,0.016641988684118829,0.018548816199767606,-0.016008106511915734,-0.012630940823350347,-0.023135442311883835,-0.03800713581819761,0.0021821137717958638,0.0020856819456143659,0.0023534629532816224,0.0030229105440137298,0.0014517483698407979,0.0015471879747382398,0.0013947024060468115,0.002541363634083358,0.0017918584960747483,0.001831800948738219,0.0011137302675296043,0.0024282599430612247,0.002960084729825016,0.002944524138197281,0.0024496563886625569,0.0028449608256356747,-0.0018261918258446909,-0.0010747455762298636,-0.0013107328619861,-0.0027138661479353556,-0.0002188222511178702,0.000042465455434592847,0.0011483933545821698,-0.0009847485215022487,-0.0009547836099307017,-0.00028723203852872264,0.0018561558695044819,-0.000904929085523099,-0.0036830859759386564,-0.0035761230279986926,-0.0015909065236880945,-0.002041120464357738,-0.0019336100624569655,-0.0019091395505184612,-0.0017518990405146812,-0.0017003495127878757,-0.0019838641794382016,-0.001963708722687449,-0.0017224755198436617,-0.0016521975440289925,-0.002188626920386625,-0.002399712143749295,-0.0019182608180054585,-0.0018115442081260013,-0.0023942372129992755,-0.002811476764533717,-0.0025299899188351386,-0.0020731077201701015,0.001937487739358756,0.001786885844372594,0.0019668638011872358,0.0026514602356173435,0.001302751501359262,0.0013915606931086894,0.0012146231009748075,0.0022998403074897687,0.001558194786812904,0.0015052052426317653,0.0009753992391586705,0.002198485697832964,0.0024410860129904868,0.0022754766130593866,0.0020125641252714706,0.0025210886409416787,0.003517553961026361,0.002723418630438089,0.002930568629292292,0.004291103052518759,0.0019157057894500815,0.0015734190428153403,0.0004091035935028301,0.0025379044961707675,0.002723852515561676,0.002109854676483181,-0.00021639841197933457,0.002562102984542829,0.00556971851672544,0.005583489046325937,0.0034796465265822769,0.00388440692014558,-0.00018953177415130765,-0.00009633857696245051,-0.00037757114315124313,-0.0010427711817624845,0.0005582936956030226,0.0005534533353935698,0.0007344627449393558,-0.0003826708971856469,0.0004101997332670429,0.0006329045081897404,0.0012234957873503146,-0.00005332386837823119,-0.0007737957609860882,-0.0005528536919440361,0.00010919844489327613,-0.0003793039044421635,0.0022993646500619037,0.0015423061683785948,0.0017595655100023605,0.003022941960566644,0.0008041566951241358,0.0004943746167423209,-0.0005679742533345706,0.0013805384483740419,0.0015059149142153913,0.0008538034341845969,-0.0012045069942829795,0.0013960143436223688,0.004088364971510974,0.003992247435436025,0.002066863099613708,0.002550140142293246,-0.0018638532192796157,-0.0016835501786127904,-0.0018850055859304155,-0.002722603889744641,-0.000988819792021151,-0.0009679317509078409,-0.0005819281923740102,-0.0019455053298358563,-0.0013045399834860864,-0.001109691723938295,-0.0001720574075232192,-0.0016716365653842369,-0.0027616474751432148,-0.0026752887157777307,-0.0018317313715180905,-0.0022245076445679466,-0.003043655573399265,-0.0028751752100690658,-0.0025961801170165637,-0.0028209983169784397,-0.002963844428984629,-0.002807028378247364,-0.0022791127491785148,-0.0024975586756018884,-0.003354296918781888,-0.003460338698213168,-0.002529582906836984,-0.0026650049175877658,-0.003926287832996833,-0.004490228334957859,-0.003853712538487975,-0.0032332487969381855,0.003537275859865149,0.002747799090418609,0.002952542401539863,0.004317836315467305,0.0019355241894110627,0.0016040649545021853,0.00044401115149021703,0.0025731515194335737,0.002749455529409778,0.0021429590797046756,-0.00017636176009871665,0.002597932967485278,0.005582528114042232,0.005598475621780112,0.0035134238419487209,0.003910443296186266,-0.0029720366100632075,-0.002841378664952613,-0.0031284143339177755,-0.00391412731290212,-0.0020812879516159427,-0.0021810341985588896,-0.001916303273466865,-0.0032963419817267534,-0.002511305650455297,-0.0025729558521610516,-0.0015993930123897886,-0.0031636597965752865,-0.0039674857556626888,-0.0040023687566852999,-0.0033264623895682928,-0.003708051029573937,0.0016073639523606989,0.0015464075484866449,0.0018284179445103688,0.0023858133160006729,0.0009742752271562565,0.001082909050881331,0.0010273071085290635,0.0020075144899259595,0.0012282005861616976,0.0012641461269356839,0.0007452252491843477,0.0018922827036715826,0.0021907390033101506,0.0021139604881089855,0.0017584274866901066,0.0021873165774605087,-0.0024008927522901504,-0.0023001272415795685,-0.0025844534757720374,-0.0032447252378197258,-0.0016349980009351718,-0.0017415418957735696,-0.001573744382520125,-0.002757534929396117,-0.001954412018136201,-0.001995213557759184,-0.001266110102020381,-0.0026184933264781814,-0.00314067361616291,-0.0030911531211401906,-0.0025964227634356475,-0.0030207421496178216,-0.0015122026338105183,-0.0020942989568636077,-0.0019138744014404275,-0.0011216782299094755,-0.002368385363703316,-0.0024929315440806799,-0.0029990324138308595,-0.0019295790475426537,-0.002113676488797491,-0.0027728073681786149,-0.0034706005207681075,-0.0019080676774045184,-0.0010796939478340817,-0.001608999484097359,-0.002267858397564471,-0.0015974629245826687,-0.00281914909996877,-0.0027227704028776084,-0.002572059532673521,-0.002846113198188549,-0.002543832077398097,-0.0024190354381147026,-0.0019011183579119426,-0.0023272154717183335,-0.0029091972952906589,-0.003030080675763196,-0.0019306642655371395,-0.002349671452653467,-0.0038832985945242077,-0.004454626335997053,-0.003521716705979478,-0.0029916878588699435,0.04253310578228892,0.09221257879273959,0.11075120291411643,0.009836688365061858,-0.054386757650909039,-0.10161640430396096,-0.1752616034635787,0.15160021534161689,-0.1558557335407185,0.04462179813127948,-0.06612176917410165,-0.07843073621424975,0.07688644353829698,0.06332004463802273,0.10531648009624274,0.16408135092497728,0.000014911144826460886,0.00018110102849518058,-0.00025899120996076294,-0.0018335318947630775,0.0021786968652550058,0.0018108571090888276,0.003314142206255057,0.00005480185191096473,0.0012700866258520206,0.0006398397162462422,0.004473317053941941,0.00047222148446823283,-0.0036427375185141706,-0.004109912070861691,-0.0006740251429005724,-0.001488017394619253,0.00048294469708203496,0.0005225824162631429,0.0018543735858571999,0.006029951242957267,-0.004460987566844467,-0.004102021781394673,-0.007850044736083993,-0.00003959978161382492,-0.0020622353134091507,-0.0023208658801625889,-0.010854630662919293,-0.0020729561096642977,0.009952816732465753,0.011678991178582225,0.002420281092546759,0.0020151476231490218,-0.0005759868768532354,-0.0009833775530523482,-0.001271699064252805,-0.000512484522198939,-0.0013766082845408908,-0.0015167933766499415,-0.00214673095479082,-0.0011857929087439072,-0.000044331067954127347,0.0004436759843229988,-0.0013449689448515499,-0.0005851742223092538,0.0011945441560050272,0.002548795252577297,0.001948698117435768,0.0006020817944383453,-0.0002646635917361872,-0.00024109658085306928,-0.0006418616753809223,-0.001746948471163221,0.0013560255665032793,0.0009011804460685994,0.002142189544689606,-0.00044249721895248817,0.000919565339465634,0.00039189030454938575,0.0032387043526961006,0.000023372990315536349,-0.0028592678348561865,-0.0029103791254689837,-0.0002937881174837938,-0.001316077824594636,-0.0004511401270979147,-0.0003059610289082398,-0.0014910569971659752,-0.00602243152404806,0.004893960125118473,0.004519719818324901,0.008612602706622978,0.00026432806424734793,0.001982932469573954,0.0018753592293077563,0.011291184781678659,0.0021064632777831888,-0.010709909981313727,-0.013023003086324283,-0.0034698430074063385,-0.0026167176313631778,0.0005344438568274223,0.0007471302778269626,0.001503686877103104,0.0028986323293251029,-0.001231043511722758,-0.001044758139762267,-0.002179373424456138,0.0007310734915860332,-0.001162849220352515,-0.0013492643001985783,-0.004143910653386115,-0.0006029261627928844,0.0035377085398700556,0.003474466266354674,-0.00034305536168141603,0.0007211784374270535,-0.0004713812913110455,-0.00046272771381230784,-0.0016773459915427184,-0.005702950711387376,0.0042850694840500529,0.003914724424431615,0.007541839201923321,0.000042290747991018238,0.001904996394622464,0.002031588911213104,0.010255906327869512,0.0019267325302590394,-0.009595707591105363,-0.01136102562677039,-0.0025823016024874186,-0.0020971139954825874,0.0005160520619720988,0.0005692156628468003,0.00125914118787013,0.0032564149020437498,-0.0019665422764769426,-0.0017094366546577132,-0.0034912058043769947,0.00047499550665975346,-0.001172218412813522,-0.0010183800248315869,-0.005263654341275504,-0.0007180636152994416,0.004936559567718111,0.005555886754978428,0.0009259221500371471,0.0014541965563404296,-0.000604010848779887,-0.0011093424836263627,-0.0013851507769742722,0.00018851366260913983,-0.0022389371681359418,-0.002431331202169544,-0.003766032830596008,-0.0015357869576037415,-0.000058950455270540457,0.00047772551386984335,-0.002875782082646822,-0.001031829634573197,0.00301335884670333,0.0052504216037471168,0.003367722117548096,0.0011129169182724215,-0.000450000307199473,-0.00030065601871887384,-0.0014751106479967396,-0.0059859172198010539,0.00487776546014875,0.0044987309459819609,0.008582531632342468,0.00027345708141315503,0.001958588016600634,0.0018451606407582427,0.011242255508264052,0.002080061654210815,-0.010673858503552472,-0.012977823804840682,-0.003477280784062933,-0.002620755813328071,-0.000030188296610102677,-0.00026086803138210957,0.0002319711583225846,0.0022724338341271099,-0.0027507842440456667,-0.002343764234310644,-0.004303824853485236,-0.00015904066915658786,-0.001479760607731275,-0.0006933862273894222,-0.0055997167249444809,-0.0006639132982098852,0.004653064843610584,0.005469349452872093,0.0011987919870781214,0.0018561811968849309,